</s> 0.622435 0.163302 -0.522981 -0.831124 -0.774457 -1.070485 0.287798 -0.326414 0.762626 0.140783 0.639031 -0.709567 -0.502631 -0.083630 -0.412441 0.651668 0.446707 -0.623783 0.081214 -0.174374 -0.672060 -0.456713 -0.116910 -0.123318 0.539474 -0.231992 0.672502 -1.064979 0.344528 -0.371679 0.850511 1.426620 0.294056 0.191888 1.664604 0.195616 0.150273 -0.082562 -0.655992 0.396035 -0.117536 0.317626 -0.891311 1.095327 -0.161547 0.100342 -0.488807 0.962864 -0.004884 -0.730743
<s> 0.304616 0.041485 -0.579194 -0.637006 -0.883397 -1.162332 0.429599 -0.390592 0.643112 0.166763 0.732168 -0.587249 -0.517349 -0.183517 -0.233601 0.713231 0.310718 -0.499121 0.145225 0.020463 -0.740564 -0.462839 -0.093724 -0.144141 0.579573 -0.205056 0.729582 -1.118465 0.369509 -0.193612 0.713671 1.550926 0.154393 0.156825 1.612627 0.047434 0.369514 -0.173728 -0.644849 0.320270 -0.224996 0.347066 -0.887027 1.146774 -0.136578 0.209345 -0.522670 0.947496 -0.135977 -0.691045
to 0.022125 1.006683 -0.234586 -0.997479 -0.650753 -0.698016 -0.052501 -0.442992 0.796481 -0.559868 -0.111878 -1.085187 -0.738461 -0.336943 0.163962 0.781281 -0.063844 0.023105 0.215809 0.117833 -0.429676 -0.215607 0.703714 -0.569399 0.485603 0.042527 0.278157 -1.254085 -0.131292 -0.644172 0.271569 1.929752 0.485402 -0.088153 1.516922 -0.438725 -0.309727 0.031914 -0.339384 1.087879 -0.766192 0.544516 -0.422253 1.485673 -0.723700 -0.513860 -1.026694 0.965124 -0.798084 -1.563731
a 0.606356 -0.220511 -0.110850 -0.977002 -0.668453 -1.204189 0.503327 -0.580938 0.526913 0.112805 0.135961 0.125262 -0.149993 1.147336 0.643136 0.127672 0.463692 -0.298958 0.506682 -0.298300 -0.633103 -1.069485 0.326523 0.098086 -0.136469 0.335965 -0.248917 -1.063453 -0.416948 -0.050959 0.877779 1.135270 -0.004852 0.938399 1.949904 -0.162708 -0.215460 -0.289879 -1.404910 0.637507 0.493890 0.872735 0.569207 1.477149 -0.472962 0.237188 -0.991619 0.549088 -0.311873 -1.321811
in 1.570671 -0.244659 -0.294008 -0.772842 -0.485225 -0.177242 0.527988 -0.617955 0.793831 0.157618 0.778007 -1.029645 -0.273419 0.535392 -0.638291 0.145056 0.426943 0.070681 -0.406509 -0.096747 -0.468576 -0.378110 -0.419444 -0.453663 0.553941 -0.107666 0.247548 -0.901564 0.382841 -0.376999 0.718217 1.252238 0.581333 -0.032514 1.725205 0.461532 -0.507775 -0.799421 -1.172296 0.159093 -0.043471 1.078145 -1.126658 0.988299 -0.238951 -0.071291 -0.124246 0.844256 0.652629 -1.203628
how 0.595932 1.087283 -0.914586 -0.625104 -0.648487 -0.918016 0.644812 -0.311045 1.042116 -0.194959 0.337641 -0.984272 -1.068759 -0.143229 0.088141 0.639649 -0.031206 -0.191842 0.437468 0.167242 -0.560676 -0.177789 0.183921 0.045351 0.369733 0.690304 0.076482 -1.136650 -0.043637 -1.127460 0.336462 1.463283 0.689430 0.419915 1.483331 0.048088 -0.168577 -0.062300 -0.434877 0.624465 -0.372313 0.874778 -0.878981 0.996254 -0.361669 -0.397134 -0.871234 0.819075 -0.704805 -1.474316
? 0.737996 0.319360 -0.488692 -0.669694 -0.702982 -1.131781 0.438167 -0.237776 0.849640 0.008661 0.254078 -0.802410 -0.701971 0.153905 -0.260993 0.451001 0.354108 -0.203307 -0.117536 -0.500164 -0.596934 -0.269811 0.280781 0.060480 0.393825 0.253336 0.565855 -0.620685 0.245376 -0.649605 0.728885 0.996291 0.511977 0.366122 1.577055 0.223516 0.028289 -0.308726 -0.493796 0.597535 -0.117968 0.450861 -0.622431 0.787303 -0.127892 -0.172488 -0.312598 0.880804 0.088736 -1.046455
c 0.864606 -0.306101 -0.356344 -0.290890 -0.771067 -0.577396 0.140981 -0.268779 0.436260 0.364048 -0.474765 -0.439372 -1.140683 -0.234880 -0.334364 0.189667 0.565670 -0.044877 -0.639669 0.015631 -0.622870 -0.806200 -0.495861 -0.363723 1.350356 -0.062185 0.652258 -0.526033 1.000113 -0.479384 1.275217 1.433322 0.453442 0.917770 1.714901 -0.126791 -0.039211 -0.190900 -1.077995 0.368962 -0.059005 1.128197 -0.956216 0.794918 0.627264 0.444731 -0.404306 0.708047 -0.316328 -1.074362
# 0.792247 -0.226240 -0.313772 -0.328811 -0.830647 -0.601200 0.129609 -0.170546 0.463278 0.357988 -0.384333 -0.465490 -1.040423 -0.318962 -0.222285 0.188007 0.690706 -0.054221 -0.395451 -0.096718 -0.777970 -0.769982 -0.427801 -0.210058 1.281539 -0.089489 0.777144 -0.494151 0.971006 -0.462042 1.202072 1.578610 0.409054 0.972307 1.679379 -0.151640 -0.074723 -0.288641 -0.985832 0.404898 -0.192048 1.135468 -1.023251 0.883063 0.811480 0.457259 -0.369797 0.756514 -0.391731 -1.012916
from 0.305345 0.094791 -0.260882 -1.844462 -0.146168 -0.196324 0.278168 -0.877431 -0.273185 0.499409 -0.395929 -0.739422 -0.948846 0.781436 -1.308813 0.376470 0.433889 0.074365 0.328274 -0.586283 -0.249822 -0.358168 -0.337705 -1.210104 -0.086880 -0.039112 0.687629 0.021270 0.381158 -0.719626 1.167339 1.866147 0.716361 -0.261699 1.664100 -0.342935 -0.285152 0.816076 -0.911878 0.509919 -0.006797 0.554004 -0.156591 1.038448 0.476592 -0.767054 -0.693042 1.566079 -0.239576 -0.806227
of 0.771229 -0.929272 0.320610 -0.485056 -0.078728 -1.102750 1.813999 0.888379 1.364423 0.900440 -0.095676 -0.411664 -0.354610 0.830112 -0.099616 0.888743 0.646460 -0.074685 0.941876 -0.356764 -0.781332 -0.546398 0.429891 -0.505768 -0.206681 -0.997874 1.091952 0.179978 0.611611 0.483452 0.412235 1.731187 0.701327 1.312762 1.541273 -0.042227 -0.014226 0.391551 -0.610515 -0.286097 -1.078302 0.837556 0.340880 1.071945 -0.401058 0.021741 -0.784745 0.048026 -0.782548 -1.175914
the 1.170051 -0.551442 -0.493038 -0.223325 0.227056 -0.565157 1.436893 0.366910 1.489285 0.639865 -0.042853 -0.629511 -0.868972 -0.342611 -0.486726 0.998030 0.440268 0.111231 0.411938 -0.101491 -0.693632 -0.384519 0.795296 -0.955216 -0.127073 -0.511565 1.295895 -0.185066 0.435538 -0.433439 0.479169 1.774597 0.637272 0.663437 0.874027 -0.010203 -0.577799 -0.284990 0.031929 0.230407 0.162733 0.087523 0.070072 1.043104 -0.898996 0.001392 -0.885236 0.801646 -0.402098 -1.511526
with 0.280665 -0.063539 -0.056825 -0.127458 -0.925461 -1.360222 0.483364 0.044353 0.226125 0.379433 0.253147 0.307578 -0.926292 0.126386 0.199129 0.646467 0.640734 -0.978073 -0.109897 -0.208766 -1.116333 0.048545 -0.729469 0.239420 0.882366 -0.753310 0.276449 -1.211276 0.360112 0.170662 0.588484 1.229392 0.285035 0.502202 0.973973 1.468986 -0.144110 0.317519 -0.805921 0.463108 0.435811 0.774772 -1.459138 1.243332 -0.103152 -0.149986 -0.296582 0.851124 -1.008722 0.227122
. 0.093157 0.211884 -0.111966 -0.335157 -0.210783 0.935320 0.396380 0.191871 0.731473 -1.262751 0.650116 -0.263203 -0.256428 0.783576 0.278090 0.703299 0.372834 -1.228633 -0.308909 -1.222869 -1.422102 -0.309718 -0.068169 -0.761766 1.407364 0.543723 0.789488 -0.971745 -0.138523 -0.796157 0.119878 1.249226 1.165102 0.518702 2.450604 0.866896 0.552768 0.245745 0.280085 0.263424 -0.200670 0.238443 -1.052014 1.507066 1.215140 0.078568 -0.680115 -0.016468 -0.280917 -0.397799
using 0.638877 0.199105 -0.496129 -0.317147 -0.967312 -0.425948 0.362555 -0.555200 0.616882 0.498368 0.436061 0.122727 -0.696126 -0.078327 -0.805327 0.636975 0.532336 -0.242530 -0.727266 -0.324124 -0.804071 0.037192 -0.198255 0.026909 1.217914 -0.422397 0.656098 -0.751074 -0.335126 -0.404789 0.945888 1.019734 0.462707 0.823607 1.550623 0.839045 -0.033046 -0.019882 -0.081948 1.000166 0.305615 0.629918 -1.368705 0.881659 0.551744 0.420875 -0.441320 1.045240 -0.653317 -0.626461
- 0.774492 0.343696 0.036996 -0.202391 -0.393703 -0.307400 -0.877370 0.271702 1.161116 0.855820 0.693969 -0.680165 0.147447 -0.604728 0.952765 0.628268 0.505679 -0.570556 1.109013 0.218293 -0.751260 -1.115664 0.140886 0.021540 0.729914 0.482371 1.360435 -1.144458 0.231757 0.581870 0.270049 0.863012 0.866964 0.629866 2.372267 0.124129 -1.734993 0.758587 -0.491059 0.671168 -0.269063 0.675705 -0.932804 0.418514 -0.130184 0.677854 1.627015 1.667607 -0.557701 -0.515338
i 0.331013 0.780815 -1.198226 0.180968 -0.672148 -1.143584 0.999006 -0.002236 0.686054 -0.373392 0.161186 -0.857290 -1.527035 -0.096636 0.165954 0.457846 -0.218432 -0.480999 0.739864 0.747980 -0.700094 -0.405297 0.312310 0.341615 0.248153 1.030479 -0.091157 -0.654676 -0.093538 -1.129687 0.022368 1.422624 0.909400 0.914369 0.945776 -0.595638 -0.022600 -0.076416 -0.317326 0.487019 0.071896 0.874437 -0.625758 0.897404 0.045203 -0.157003 -0.668351 0.668054 -1.024598 -2.032442
string 0.790617 0.275427 0.381245 -0.593253 -0.754716 -0.636476 0.079261 -1.052688 0.298823 -0.168513 0.382028 -1.333721 -0.050614 -0.146296 0.600108 0.511503 0.859761 -0.612747 0.157441 -0.842830 -0.530218 -1.370173 -0.139866 0.187547 0.487851 -0.699444 -0.142381 0.277612 0.822474 0.253076 0.696980 1.286668 0.206988 1.002567 1.193182 -0.211605 0.084705 0.593655 -1.024264 0.464008 0.830719 0.170053 -0.970218 1.845520 -0.068339 -0.103706 -0.914504 0.413341 -0.685790 -1.605882
and 1.456102 -0.453713 0.297900 -0.939673 -0.541508 -0.601861 1.271193 0.142478 -0.098672 0.585827 -0.296622 0.076871 -0.448852 0.264670 -0.070486 0.111956 -0.036269 -0.303274 0.044286 0.516181 -0.567686 -0.143845 -0.107827 -0.323472 1.304160 -0.175714 -0.211856 -1.031538 0.910950 -0.844500 0.091901 0.933645 0.311789 0.284161 1.103936 -0.181192 0.039631 -0.104930 0.725210 1.143863 0.932378 0.039190 -0.552256 1.633924 0.071429 0.739601 -0.314903 1.293382 -0.822100 -1.477429
get 0.793733 0.267188 -0.626524 -0.801047 -0.163095 -0.318367 1.159330 -0.088216 0.832249 0.254159 -0.027125 -0.470292 -0.926061 -0.076633 -1.108127 0.695796 0.499611 -0.162300 0.986031 -0.210413 -0.645495 -0.029288 0.059304 -0.486104 -0.057591 -0.553052 0.804060 -0.497152 0.320940 -0.324094 0.889359 1.090689 0.744960 0.512965 1.210769 -0.068883 -0.647551 0.256458 0.316618 0.316006 -0.435523 0.330540 -0.128238 1.028619 -0.222728 -0.031436 -1.138937 1.547296 -0.413683 -0.986819
an 0.078336 -0.363568 -0.656227 -0.264246 -0.599775 -0.573064 0.025304 0.196052 0.577225 0.960769 0.291679 -0.416674 -0.608514 -0.191739 0.052447 0.418905 0.594454 -0.260089 -1.064233 -0.564097 -2.447365 -1.012600 0.352633 -0.423433 -0.254216 -0.089780 0.130325 -0.299016 0.097184 0.277931 0.759007 0.888203 0.833357 0.104403 1.078131 -1.222637 -0.317696 0.049296 0.424531 0.454542 -0.460367 2.308008 -1.243668 1.337343 0.367854 -0.917044 -1.051048 0.800716 0.021250 -1.124714
for 0.218935 -0.047220 0.042412 -0.149194 -0.239569 -1.032191 0.156265 0.086058 0.097215 0.519132 0.110262 -0.274285 -0.266235 -0.228347 0.316276 0.440392 1.731044 -0.170367 0.097398 -0.742919 -1.147888 -0.068340 0.535125 0.314406 1.035208 -0.687210 0.261360 -1.781652 0.292172 0.108843 0.885098 0.916892 0.516375 0.894977 1.307135 -0.108728 -0.065376 -1.008007 -0.165373 -0.026787 0.016950 -0.436764 -0.413356 0.836166 0.358710 0.185196 -0.364460 0.836997 0.818045 -1.065701
list 0.658413 0.138656 -0.002315 -1.150878 -0.832709 -1.208927 0.305869 -0.218154 0.449133 0.524794 -0.007813 -0.418211 0.526062 0.820740 -1.057376 -0.086901 0.135824 -0.592098 1.118292 -0.409590 -0.659132 -0.346946 -0.216711 -0.086894 -0.103016 -0.889347 0.388131 0.125538 0.048878 0.356077 -0.082611 1.323430 0.842842 0.040925 1.644436 -0.068118 -0.167310 0.263869 -0.265326 0.873710 -0.027455 0.872280 -0.479365 1.347287 -0.456412 0.504396 -0.820937 0.072760 -0.473717 -1.615773
on 1.343364 0.082975 -0.063572 -0.873786 -0.123092 -0.820106 0.436482 -0.265844 0.907431 0.221585 1.436001 -0.309142 -0.759819 0.746021 -0.877857 0.544694 0.659743 -1.346756 -0.855930 0.069346 -0.924018 -0.267936 0.204533 -0.343132 -0.166068 -0.237501 -0.017488 -0.422658 0.793625 -0.487162 0.246304 1.861682 0.236572 1.019863 1.380383 -0.627118 -0.779471 -0.580340 -0.050221 1.009825 0.334732 0.961991 0.383071 0.096844 -0.717631 0.666568 0.122436 0.222167 -0.081114 0.299060
file 0.296413 -0.433611 -0.552799 -0.326069 -0.380355 0.774373 -0.368675 0.518840 0.606981 -0.070539 0.403442 -0.015388 -0.127588 0.823520 -0.804641 0.927816 0.742518 -0.708628 -0.445549 -0.351674 -0.767939 -1.301553 0.257951 -1.055449 -0.177743 -0.049715 -0.404178 -0.998817 -0.421808 -1.243435 0.712314 1.047153 -0.317221 0.814029 1.453314 0.225443 -0.389236 -0.065092 -0.516867 0.539101 -0.409918 -0.291957 -1.093201 1.387384 0.680614 -0.302224 -0.077244 1.156408 -1.137915 -1.545767
value 1.117716 -0.123541 -0.155905 -0.099208 0.941714 -0.305810 1.545901 -0.463083 0.967946 -0.378117 -0.509092 -0.735339 -0.094789 -0.165368 -0.466601 -0.012993 0.114452 -0.056528 0.038772 -0.709868 -1.075714 -0.694333 -0.025975 -0.135524 -0.079258 -0.599694 0.278819 -0.259489 0.918752 0.574220 1.141992 1.064679 0.610279 0.318533 1.879862 -0.124177 0.164351 -0.282142 -0.207231 1.388031 0.749400 0.687609 -0.661868 1.158472 -0.746900 -0.159075 -0.914540 0.708146 -0.380199 -1.336740
can 0.599646 0.365935 -1.059825 -0.014531 -0.559445 -1.003728 0.794352 -0.031617 0.801442 -0.480468 0.144931 -0.841180 -1.399864 0.069966 -0.030222 0.523886 -0.108263 -0.356780 0.519835 0.425749 -0.712898 -0.233100 0.177558 0.411486 0.317769 0.770218 0.029860 -0.746461 -0.341198 -1.035758 0.059609 1.172275 1.139819 0.908720 0.717612 -0.392750 0.002707 -0.189700 -0.361338 0.535421 0.125076 0.948136 -0.747913 0.988260 0.233605 -0.033224 -0.214114 0.569954 -0.895296 -1.831878
, 1.153695 -0.654298 0.308099 -0.564572 -1.169342 -0.365264 0.447126 -0.502727 0.023154 0.424909 -0.749702 -0.365116 -0.782994 -0.205457 -0.236433 0.789841 0.641741 -1.164126 0.538530 -0.664230 -0.432713 -0.362227 0.452901 0.245651 0.641539 0.582430 0.634064 -0.110433 0.614056 -0.352207 -0.212693 0.634700 0.658706 0.550278 1.000325 0.101356 -0.674707 0.542161 0.371486 1.441066 0.515202 0.378998 -0.882096 1.521682 -0.020421 0.539076 0.419598 0.037104 0.083807 -1.268974
data 0.524646 -0.775334 0.183754 -0.198928 -0.126887 -1.018426 0.535959 -0.887712 0.064599 0.560888 0.234866 -0.730607 -1.012283 -0.050308 -0.894160 0.824772 0.155684 -0.251786 0.051491 0.784757 -1.201257 -0.700309 -0.262625 0.246962 -0.730784 -0.456768 0.481489 -0.324868 -0.186797 0.377830 0.879221 1.265069 0.528769 -0.697622 1.834801 -0.304805 -0.073955 0.292175 -1.008896 0.889047 -0.191421 -0.833345 -0.066535 0.769177 0.905841 0.031296 0.295462 1.050192 -0.292640 -1.687299
is 0.292543 -0.550340 -0.009624 -0.303865 -0.532534 -0.299765 0.326163 -0.321507 1.166722 -0.941545 -0.461564 -0.663712 -0.780056 0.241247 -0.198982 0.611324 0.213829 -1.098406 0.247860 -1.275842 -1.207988 -0.790253 0.844942 -0.971066 -0.438752 0.550628 0.811882 0.260062 -0.201108 0.053367 1.163421 0.510088 -0.202064 0.294020 1.206765 -0.042947 -0.442758 -0.997862 -0.685921 1.165665 -0.020685 0.220970 -0.112005 1.168870 -0.969341 0.326976 0.252658 0.611059 0.355194 -1.108221
net 0.398605 0.272238 -0.246642 -0.370421 -0.276134 1.025926 0.461974 0.102428 0.043302 -0.661930 0.656328 -0.066857 -0.994016 0.108706 0.104194 0.176500 0.117388 -0.978343 -0.186857 -0.759512 -1.539516 -0.213547 0.157470 -0.292751 1.027561 0.249243 0.785387 -0.802429 -0.253894 0.019357 0.045623 1.576563 0.873746 0.385660 2.628151 0.727768 0.337285 0.052471 -0.433250 -0.241073 -0.124941 0.551025 -0.571222 1.416496 0.902460 0.515047 -0.384659 -0.311051 -0.002979 -0.551780
linq 0.471396 0.242622 -0.677196 -0.549398 -1.078875 -1.127564 0.584413 -0.645213 1.258827 0.647828 0.041650 -0.011829 0.016168 0.932349 -0.577666 0.169400 0.292204 -0.762986 0.177718 -0.298563 -0.714789 0.741610 0.215198 0.335007 0.321918 -0.511587 0.169803 -0.393052 0.552669 1.010074 0.141023 1.451136 0.998569 0.404838 0.934938 0.413228 -0.226669 -0.731483 -0.089084 1.510544 -0.397212 0.115195 -1.206288 1.073203 0.315659 0.011095 -0.198254 1.077905 -0.909146 -1.019291
do 0.503492 0.840905 -1.015352 -0.188572 -0.645121 -1.082357 0.658702 -0.088972 0.930995 -0.270511 0.315987 -0.620401 -1.284496 -0.017192 0.149395 0.545471 -0.122987 -0.311365 0.371757 0.456262 -0.706304 -0.054205 0.196738 0.440606 0.354159 0.574837 -0.043703 -0.872755 0.012157 -1.021225 0.115788 1.344316 0.907484 0.909603 0.894453 -0.230698 -0.023241 -0.155184 -0.134565 0.373154 -0.084005 0.855362 -0.594604 0.810934 0.126674 -0.119590 -0.688418 0.461245 -0.774363 -1.766497
' -0.323971 -1.009184 -1.012432 0.476214 0.388123 -1.017486 0.310379 0.074473 0.814652 -1.967172 0.191980 -0.657781 -1.160629 1.598302 -0.555124 0.833345 0.777415 -0.934458 0.782932 0.919407 -0.213467 -0.585778 0.024833 -0.132934 0.781546 -0.875112 1.761288 -0.078096 -0.681767 0.388141 0.611862 0.681985 0.535328 0.951447 0.496707 -0.850793 -0.497362 -0.032685 0.458055 0.387971 1.148633 0.989605 0.015095 1.528187 0.240918 0.552147 0.223117 1.114861 0.472467 -1.175065
xml 1.078834 0.408553 -0.515890 0.126114 -1.013950 0.168683 -0.064288 -0.106386 1.398772 0.554969 0.043642 0.306542 -0.375147 0.598561 -0.523636 1.494452 0.168082 0.048952 0.075769 -0.269966 -0.866509 -1.505624 0.305450 0.151955 -0.175169 -0.831294 -0.338790 -0.361785 0.247461 0.253666 0.713605 1.220540 0.368823 -0.420787 1.226620 -0.467074 1.038641 -0.231874 0.214413 0.715739 0.415510 0.128373 -1.528522 1.291987 0.830860 -0.086898 -0.045151 1.094571 -0.975750 -0.541901
array 0.578954 -0.003963 -0.249924 0.286279 -0.528557 -0.698538 -0.110370 0.324425 0.003310 0.883184 -0.019798 -0.773655 0.669095 1.024518 0.067398 0.343732 -0.234825 -0.469740 0.194457 -0.007170 -1.320820 -1.565390 -0.175144 0.352459 0.236694 -0.570430 0.793277 0.317808 1.166898 0.277855 1.352802 1.070741 0.546399 1.198709 1.266094 -0.655992 0.231584 0.512216 -0.885008 0.548253 -1.265581 1.224046 -0.707641 1.079454 0.145189 -0.583015 -0.429032 0.419494 0.029303 -1.769911
windows 0.953843 0.059201 0.080020 -0.637148 -1.138744 -1.340519 0.358510 0.318308 0.972120 -0.961529 1.251690 -0.507791 -0.321795 0.523312 -0.197983 0.863475 0.764237 -0.922991 -0.038621 0.387374 -0.650951 0.100571 -0.275916 -0.672894 0.295645 0.259729 -0.055809 -0.475393 0.917456 -1.388365 1.379520 0.764880 0.564703 0.008333 1.747570 -0.784620 -1.107586 -0.504770 0.080813 0.619276 0.254384 -0.221409 -0.376425 0.024894 0.897177 0.077747 0.061296 0.277724 0.227601 0.175800
( 0.452792 -0.031315 0.320584 -0.072001 -0.171669 -0.363879 0.308897 -0.539484 0.576919 -0.488512 -0.655123 -0.317354 -0.193105 0.681247 -0.205054 0.722575 0.937660 -0.474130 0.242151 -0.365840 -0.211065 -0.222641 -0.121910 -0.648910 1.174538 0.200712 0.678477 -0.447675 0.264403 -0.545315 0.820910 0.653785 0.881920 0.975699 1.106918 0.485144 -0.588811 0.483232 -0.232645 0.877896 -0.073311 0.140322 -0.560892 0.810760 0.652351 -0.036389 0.021177 0.333664 0.027752 -0.738640
) 0.390864 -0.124257 0.192124 -0.103160 -0.258635 -0.340763 0.061136 -0.455840 0.534060 -0.474717 -0.493670 -0.369257 -0.263819 0.629780 -0.148757 0.700138 0.922172 -0.646153 0.061134 -0.360539 -0.225689 -0.353697 -0.156000 -0.437100 1.184372 0.281730 0.682615 -0.527474 0.277497 -0.518556 0.695111 0.566482 0.842195 0.797140 1.101889 0.439336 -0.541051 0.424459 -0.221890 0.715541 -0.135768 0.066551 -0.655720 0.897977 0.730753 -0.070810 0.054978 0.449769 0.163365 -0.592890
object 0.101844 0.038092 -0.593560 -0.675840 -0.763169 -1.051507 0.374979 -0.141827 0.163356 0.237131 0.024063 0.046244 -0.073614 0.037482 -0.150501 0.731912 0.231033 -0.554849 -0.655944 -0.721578 -1.117676 -0.676775 0.484632 0.172329 -0.148227 -0.419033 0.874389 0.453320 -0.294869 0.395956 0.307826 0.436396 1.631526 -0.095787 1.496424 -0.484841 0.397009 0.781751 -0.691071 1.076603 0.156388 0.988913 -0.650776 0.589132 -0.297595 -0.340403 0.009597 0.305040 -0.747623 -1.291939
into 0.907112 0.228804 -0.440926 -0.152886 -0.043326 -1.096278 -0.426101 -0.323984 -0.448218 0.197080 0.078870 -0.861268 0.142359 1.014002 -0.393023 -0.230400 0.248321 0.146825 -0.703280 0.978588 -1.036466 -0.380207 0.249697 -0.211552 0.651704 -0.588319 -0.047668 0.352037 0.237971 0.298153 0.773835 0.950197 0.278959 0.099358 1.485787 -0.348352 -0.349195 0.456249 -0.762038 0.493629 0.136965 -0.017673 -0.202266 1.355984 1.144178 -0.360682 -0.440381 0.599011 -0.744833 -1.811439
text 0.625359 0.524110 0.723333 -0.138834 0.602846 -0.589517 0.505287 0.040613 0.649791 -0.224763 0.137664 -0.757981 -0.361702 0.394999 -0.243229 0.370904 0.509602 0.701839 0.009666 0.972950 -0.463083 -1.366413 -0.211265 -1.274593 -0.145507 -0.680961 -1.014263 0.104189 0.022719 -0.305927 0.671332 2.108818 -0.340066 1.108205 1.286908 0.210420 0.043442 -0.095970 -0.699487 0.344812 0.810537 0.114443 -0.973603 1.071388 0.367787 0.608335 0.534775 0.976552 -0.856025 -1.060099
asp 0.687066 0.675740 -0.095876 -0.474557 0.246126 1.045901 0.824870 -0.239091 -0.533149 -0.422884 0.592227 -0.039681 -0.997504 0.072143 -0.314752 0.324828 0.033647 -0.926258 0.108801 -0.365757 -1.271697 -0.060662 0.221666 -0.343575 0.481691 0.015273 0.557787 -0.694821 -0.543489 0.020467 0.015272 1.889332 0.657865 0.208226 2.204747 0.674956 -0.100862 0.117099 -0.501928 -0.014456 -0.061372 0.679270 -0.408044 1.284871 0.464252 0.392895 -0.493222 -0.088629 0.240334 -0.381935
method -0.326734 -0.639239 0.021783 -0.949342 -0.398630 -1.187543 -0.116583 -0.047353 0.441806 0.273468 -1.115430 -0.767068 -0.932317 1.220628 0.507102 1.212830 0.301574 -0.521578 -0.471935 -0.901072 -1.501476 -0.079580 0.320194 0.176117 0.305611 -0.119358 0.594083 -0.938518 -0.619471 -0.287730 0.737026 0.905065 1.344586 0.603687 0.805920 -0.446791 -0.009287 -0.934570 -0.129251 -0.178188 0.556699 0.437901 -0.438152 0.914228 -0.861360 0.139838 0.045568 0.693969 -0.097070 -0.416742
values 0.665257 0.050690 0.001709 -0.137830 0.371541 -0.445006 0.750086 -0.061192 0.028526 0.266147 -0.126155 -0.665895 -0.482330 0.379658 -0.988486 -0.032587 -0.057446 -0.265945 0.597722 -0.312065 -0.762334 -0.320400 -0.552012 0.282798 0.359738 -1.073816 0.016621 -0.381908 1.437293 0.348269 0.902917 1.258529 0.159694 -0.277551 1.652918 -0.658595 0.321893 0.022904 -0.191771 0.915658 0.069473 0.515133 -1.019079 1.436828 -0.506916 -0.316040 0.011685 0.521167 0.136727 -1.561828
that -0.369552 -0.521317 -0.164515 -0.423324 -0.059781 -0.807088 0.219128 0.184043 0.826718 -0.425268 -0.318835 -0.239690 -1.111280 0.892270 -0.063781 0.158772 0.541554 -0.945391 0.515906 -0.680823 -1.491548 -0.470694 -0.135045 0.108377 -0.232560 0.314985 -0.689072 0.496484 -0.827279 -0.714563 0.132042 1.276927 0.957044 1.021327 0.050525 -0.558101 -0.200954 -0.460039 -1.037998 0.188018 0.836350 0.521727 -0.699463 0.588967 -0.187792 -0.204084 0.649093 0.003758 -0.070177 -1.599351
control 1.222100 0.623641 -0.260486 -1.056501 0.183000 -0.590157 0.727904 0.216257 0.111195 -1.068217 0.063280 0.193363 -0.841921 -0.263520 -0.201340 1.176781 0.563384 -0.282789 0.238877 0.403096 -0.327839 -0.908093 0.785114 -0.331631 0.464745 -0.305413 0.429014 -0.323150 -0.147903 0.004264 -0.066886 1.708668 0.223739 0.038936 1.237764 -0.252737 -0.171418 -0.247048 -1.494189 0.556620 -0.044068 0.888928 -0.137332 1.227710 -0.161296 0.589062 0.333640 -0.195470 1.220027 0.029587
application 0.797694 -0.634083 -0.604707 -0.089560 -1.160584 -0.559215 -0.200511 0.575246 0.973138 0.076154 0.554718 0.163020 -0.486780 -0.132880 -0.243309 0.092271 0.538664 -1.025832 -0.024979 -0.224711 -1.158091 0.152715 0.295156 -1.084774 0.594411 1.065355 0.930521 -0.067399 0.674841 -1.520676 1.145661 0.861827 0.638976 0.360635 1.856696 -0.317294 -0.451119 -0.003941 -0.175917 -0.082505 0.477427 0.468404 -0.188472 -0.110377 0.612290 0.077544 -0.222567 -0.124825 0.449976 -0.706469
/ -0.223296 0.376955 0.104522 -1.076716 -0.757241 0.111790 0.410567 -0.642173 0.348972 0.214131 -0.409981 0.076628 -0.684574 0.669005 0.874607 0.552837 0.515221 0.320481 -0.057294 0.508572 -0.218030 0.087597 0.042855 -1.351372 1.027208 0.477922 -0.042620 -0.859859 0.472854 -0.123561 0.444048 -0.450063 1.064369 0.528362 2.143868 -0.422934 -0.359572 0.010985 0.410724 0.748287 0.317690 0.559380 0.087863 0.247306 0.365856 1.541674 0.244125 0.600008 -0.481506 -1.229277
add 0.600043 0.563767 -0.299634 -0.265452 0.076673 -0.855027 0.228087 -0.244317 0.282345 -0.266815 0.081773 -0.328621 -0.309888 0.196166 -0.146698 0.700265 0.504343 0.109959 0.423623 0.808439 -1.178755 -0.529403 0.146085 -0.097950 0.867797 -0.123576 -0.350192 -0.964780 -0.309909 -0.349971 -0.041270 0.937219 0.692497 -0.375980 0.887329 -0.238119 -0.932372 -0.074078 0.071546 0.598296 -0.289547 0.862189 -0.822023 1.431761 -0.013996 -0.187964 -0.856365 0.228353 0.019896 -0.543150
by 1.259204 0.028468 -1.259338 -0.760874 0.064787 -0.535987 0.133687 -0.231859 0.606874 0.073222 -0.131523 0.222839 0.270901 0.730652 -1.599704 0.327086 0.118274 -0.784677 -0.033460 -0.465828 -0.935416 -0.797318 -0.223458 0.256238 0.458932 -0.225237 0.018582 0.063730 0.256053 0.285712 0.672750 0.533049 0.759015 0.997384 0.943730 0.157464 -0.502062 -0.017128 -0.453249 0.962407 0.446956 -0.420082 -0.467696 1.192103 -0.518632 0.929906 0.140164 0.810902 -0.911347 -0.086354
: -0.431122 0.160333 -0.779412 -0.390443 -0.590601 -0.007776 0.001860 -0.479197 0.455373 -0.420400 -0.129265 -0.475146 -0.698106 -0.387168 0.390220 1.078335 0.905037 -0.499573 1.139014 0.363847 -0.693008 -0.150709 -0.326412 -0.393371 0.948555 0.269421 0.680904 -1.031033 0.630723 0.558698 0.772556 0.137141 1.173557 0.143327 1.266279 0.309591 -0.352427 0.262118 -0.518507 0.674242 -0.235118 1.016195 -1.188214 0.942876 0.760362 0.919309 0.175087 0.529435 -0.158794 0.135309
as 0.187930 -0.661904 0.040460 -0.226494 0.145325 0.067653 -0.380995 0.131375 0.193456 -0.446705 -0.843430 -0.180942 0.498767 0.596016 -0.306081 0.393213 -0.247635 -0.614745 -0.316662 0.230760 -1.644451 -0.017175 0.291510 -0.061219 -0.026207 -0.187369 -0.185437 -1.005932 0.384948 -0.005340 0.895308 0.057951 0.429800 1.385944 1.341235 0.045167 -0.875887 0.650499 -0.579372 0.623858 1.190666 0.465542 -1.043424 1.380764 -0.788596 -0.369402 -0.320991 0.880067 0.000490 -1.484726
set 0.356872 0.403366 -0.120450 -0.001201 0.784523 -0.738436 1.007712 0.245642 0.969001 -0.894899 -0.018397 -0.153871 -0.183770 -0.549556 -0.383196 0.982233 0.594001 -0.017257 0.675345 -0.155540 -0.229081 -0.113853 0.200711 -0.509945 0.094554 -0.446716 0.394858 -1.165784 0.146659 -0.514447 0.674734 1.359641 0.651179 0.828243 1.323107 0.049210 -0.042466 0.144846 -0.396526 1.203800 -0.135335 0.505701 -0.313837 0.489427 -0.947545 -0.237256 -0.328579 0.362742 -0.317538 -0.792347
convert 0.073986 0.641560 -0.339797 -0.894815 -0.719193 -0.048226 -0.359444 -0.948568 -0.279164 -0.869195 -0.488868 -1.565056 0.197407 0.097417 0.296064 0.215652 0.340330 -0.299951 -0.486689 0.100835 0.042107 -0.551811 0.213664 -0.227233 -0.039536 -0.327009 0.375616 -0.077436 0.680375 0.123567 0.289308 0.693521 1.057949 0.817903 1.039278 -0.485473 0.018790 0.929896 -0.556125 0.873870 -0.281289 0.218434 -0.381185 1.409232 0.568100 -0.117582 -0.829441 0.665093 -0.857950 -1.699259
one 1.050348 0.048775 -0.329513 -0.223967 -0.230666 -0.806627 -0.442285 -0.255659 -0.014675 0.663118 0.320477 -0.508802 -0.124685 0.439841 -0.354843 0.123611 0.333483 -0.322912 0.206937 0.340664 -1.496274 -0.359354 0.611754 0.049453 0.802253 0.115662 0.413790 0.302125 -0.086488 -0.190824 0.384675 1.435794 0.887310 0.153124 0.597412 0.139784 -0.257118 -0.048625 -0.780708 1.011058 -0.234381 0.372765 -0.299671 1.200513 -0.844330 -0.988316 0.426876 0.326187 -0.872507 -0.707152
sql 0.161162 -0.504588 -0.486112 -0.033218 0.366472 -0.627523 0.366460 -0.904266 0.637495 0.303765 0.169309 -0.699573 -0.358029 0.638597 -0.204228 0.375638 0.663534 -1.259003 -0.536705 -0.071420 -0.106625 1.190082 0.445037 0.246267 0.299259 -0.087459 0.216859 -0.854888 0.034282 0.837237 0.942831 1.902829 0.224255 -0.369610 1.184555 -0.264642 -1.328630 -0.086630 -0.975100 0.940332 -0.051551 -0.134053 -0.895435 0.674223 1.123754 -0.296202 -0.164798 0.264858 -1.085190 -1.003172
multiple 0.089459 0.579280 0.245445 0.080825 -0.415118 -1.540639 -0.434258 0.442847 -0.047265 1.159232 0.407921 0.193850 -0.928147 1.332533 -0.518353 -0.042740 0.475050 -0.672374 -0.127043 0.180726 -1.287830 0.977016 -0.351901 0.050953 1.096676 -0.890786 -0.446560 -0.766231 0.676426 -0.160210 0.140635 1.655707 -0.018863 -0.196190 1.224632 0.281720 -0.192225 -0.523389 -0.054499 0.215852 -0.171614 -0.008359 -0.813084 0.743622 -0.026339 0.145218 0.389247 0.509058 -0.587965 -0.972378
it 0.617798 -0.981680 -0.151585 0.107387 -0.452401 -0.699641 0.069862 0.494042 0.208722 -0.635453 -0.188438 -0.439598 -0.677366 0.253387 0.591410 0.363506 -0.313529 -1.128448 0.163047 0.168771 -0.834066 -0.922698 1.041169 -0.364809 -0.289743 0.801061 0.128244 -0.134437 -0.362634 -0.555583 0.489487 1.027989 -0.396342 0.039981 0.784648 -0.387760 0.025321 -0.492249 -0.011621 1.190165 0.756526 0.261875 -0.160172 1.838580 -0.319984 -0.178974 0.639555 0.324070 -0.394528 -1.566415
use 0.299100 0.111456 -0.465212 -0.028708 -0.599603 -0.844936 0.489404 0.258149 0.394162 -0.397557 -0.099348 -0.227170 -0.487466 0.283278 0.344187 0.420086 -0.116248 -0.243553 -0.158997 -0.234592 -0.670572 0.428306 0.227356 0.313736 1.003760 -0.015438 0.463392 -0.820587 -0.284654 -0.376618 0.235205 0.577972 0.778477 0.737370 0.968178 0.555943 0.179767 -0.754315 -0.095476 0.701328 0.339259 0.563999 -0.945100 0.906325 0.271903 0.007738 -0.148219 0.736003 -0.565082 -1.069550
wpf 0.612135 -0.030049 -0.272881 -0.720316 -0.495944 -1.547416 0.011091 -0.190399 0.501357 -0.493785 0.152546 0.017445 -0.266191 -0.354125 -0.567528 0.957954 0.836700 0.396391 0.126566 0.948446 -0.305543 -0.639794 0.413911 -0.979072 0.288985 0.287382 0.484087 -0.845915 0.512302 -0.418821 0.235652 1.217601 0.517519 0.114726 1.558175 0.320721 0.052728 -0.310996 -1.014349 0.874338 0.224661 0.453406 -0.196960 0.519690 -0.124657 0.186238 0.048764 0.525628 1.314745 -0.194958
class -0.145274 -0.610576 -0.329609 -1.609452 -0.104014 -1.059811 0.203947 0.585597 0.658754 0.330909 -0.143671 -0.036054 -0.838591 0.577174 0.139729 1.063620 0.414111 0.446809 -0.126365 -0.961428 -1.121772 -0.202555 0.102199 0.122137 0.191839 -0.409320 0.447635 0.139560 -0.695356 -0.304008 0.041094 0.200555 1.374230 0.093577 1.265762 -0.195372 0.602092 0.070283 -1.368208 0.575297 0.942078 1.188437 -0.504308 0.589420 -0.377078 -0.436045 0.537105 0.600043 -0.488369 -0.866104
all -0.189586 0.306738 0.069506 -1.063300 -0.084182 -0.249154 0.903359 0.830636 0.261189 0.807495 0.252864 0.049494 -1.131713 0.772974 -0.429018 0.400676 0.489258 -0.351152 1.439235 -0.081045 -0.090618 -0.052130 -0.165599 -0.677601 0.604822 -0.434611 -0.489166 0.154102 0.409513 -0.758386 -0.192201 1.363560 0.129535 -0.425626 0.739086 -0.774575 -0.148781 -0.058978 0.276697 0.167448 -0.532952 0.176635 -0.871283 0.771087 0.031002 -0.040023 0.558599 0.924666 0.370507 -1.736572
> 0.269026 0.305699 0.036076 -0.753972 -0.796861 -1.401295 -0.519070 -0.771999 -0.063736 -0.253925 -0.834068 -0.880926 0.268210 0.439379 -0.549117 0.347439 1.101187 -0.827495 0.069810 -1.004806 0.289264 -0.474131 -0.134648 0.385068 -0.343133 -0.512500 0.306755 0.272522 0.166989 0.299160 -0.835646 0.487789 0.904312 -0.050382 1.282798 -0.142083 -0.831050 1.282240 0.683129 0.975009 0.983128 1.004522 -1.378240 1.490545 0.016670 0.594579 -0.643559 -0.476975 0.089855 -1.527477
if -0.275935 0.656141 -0.505742 0.024763 -0.455841 -0.118918 0.711564 -0.812416 1.376570 -0.609878 0.565896 -0.772943 -0.772274 0.251636 0.266193 -0.165597 0.900536 -1.481954 0.471171 -0.885127 -1.495375 -0.290555 0.559071 -1.029330 0.630653 0.462526 0.015601 0.724130 -0.470501 -0.119548 1.108484 0.436268 -0.244802 0.454576 0.488183 -0.414824 -0.136874 -0.960007 -0.616242 0.965446 0.046367 0.970838 -0.992637 0.784180 -0.970511 0.354555 0.116345 0.062775 0.187384 -1.666524
two 0.450871 0.390049 0.697252 -0.633236 -0.645478 -1.138366 -0.149805 0.256570 0.273701 0.639646 0.755460 -0.909112 -0.930034 0.444003 -0.727354 -0.253622 0.258242 -0.276578 0.015173 0.608140 -1.363747 1.183069 -0.010689 0.168944 1.585936 -1.218004 -0.153560 0.463117 1.615792 -0.273216 -0.748864 1.234855 0.146353 0.348240 0.866672 0.020037 0.304693 0.191544 -0.757451 0.455241 -0.856164 0.218407 -0.324874 0.759396 -0.513232 -0.488315 0.313907 0.095562 -0.479080 -1.986565
< 0.158185 0.126484 0.034416 -1.103197 -1.159281 -1.574813 -0.599452 -0.750202 -0.422060 -0.378917 -0.932128 -1.084241 0.399208 0.418855 -0.701022 -0.031546 0.864782 -0.712254 0.310701 -1.189434 0.390647 -0.361078 0.016573 0.365212 -0.651980 -0.468864 0.164945 0.236673 0.007790 0.446852 -1.208797 0.766186 0.961850 -0.078902 1.354480 -0.203021 -0.598051 1.313636 0.898851 0.894421 0.912629 1.216116 -1.187502 1.742615 -0.096116 0.758421 -1.108047 -0.690375 -0.060125 -1.642294
create 0.320680 0.074982 -0.326299 -0.376823 -0.381908 -0.683444 -0.136055 0.207860 -0.103745 0.028855 0.232290 -0.036793 -0.086618 0.589608 0.171414 0.610288 0.701829 -0.058753 -0.101056 -0.264309 -1.091502 -0.153598 0.639168 0.343199 0.342646 0.156966 -0.449199 -0.934821 -0.470071 -0.337257 0.267981 0.782872 0.724120 0.221066 1.464461 -0.215341 -0.504586 -0.005570 -0.492315 0.565297 -0.345710 0.913065 -0.318025 1.015352 0.191529 -0.250535 -0.572880 -0.046752 -0.584929 -1.007757
when -0.274790 -0.286409 -0.525964 0.361182 -0.024108 -1.130785 0.565810 -0.106882 0.778712 0.087978 0.184233 0.271895 -1.016328 0.166787 -0.231029 0.642761 0.124894 -1.495668 -0.490710 0.060842 -0.583549 -0.944274 0.668073 -0.933600 0.086258 0.340098 0.585205 -0.021984 0.524598 0.277999 0.532697 1.160755 -0.579962 -0.252938 1.441166 -0.128326 0.222930 0.018713 -0.555145 0.412513 0.752249 -0.208874 -0.315241 0.354735 -0.511834 0.429991 0.148154 0.109341 0.433203 -0.574222
database 0.305044 -0.889523 -0.528758 -0.015098 0.689071 -0.486097 0.409177 -0.393916 0.050823 0.287306 0.715836 -0.017459 -0.372849 -0.346481 -0.391702 -0.086156 0.662546 -0.678129 -0.057256 0.159686 -0.475182 0.556856 0.215094 -0.173248 -0.013500 0.253891 0.297817 -0.709031 0.032928 0.245724 0.891249 1.633252 0.137500 -0.863211 1.600341 -0.227314 -0.785937 -0.282774 -0.875551 1.160924 0.405927 -0.228081 -0.252776 0.872020 1.108716 -0.533361 -0.207488 0.363768 -0.757445 -1.248501
" -0.340014 0.761993 -0.152224 -0.294706 0.686014 -0.040771 0.901693 0.104768 0.338391 -0.366602 -0.706174 -0.352946 0.214433 0.456066 0.609821 1.309207 0.265154 -0.868897 0.015878 0.010061 0.179026 0.257993 0.921304 -1.043097 1.321088 0.009818 0.141933 0.117912 -0.139105 0.152308 0.430809 0.222929 0.647579 0.485303 0.329271 -0.434713 -1.338133 0.139384 -0.020026 0.729480 -0.104459 -0.031983 -1.266812 0.653017 -0.216095 -0.169090 0.059399 0.580296 0.155134 -0.927638
property 0.081023 0.222010 -0.234513 -0.775617 0.390320 -1.010478 0.984882 0.343170 0.376988 -0.549933 0.214341 0.391898 -0.078645 -0.143538 -0.082192 0.749973 0.717418 0.115934 0.086439 -0.780253 -0.398924 -0.407921 0.490189 0.055175 -0.339845 -0.588132 0.289366 -0.719751 -0.446962 0.533634 0.240098 0.472619 1.313178 0.667817 1.567772 -0.407658 0.325453 0.079690 -0.439639 1.445236 0.557170 0.840339 -0.474623 0.479465 -0.865741 -0.185519 0.509619 0.963355 0.106828 -0.789783
table 0.294608 -0.986318 -0.412991 0.089021 0.405120 -0.361728 0.763971 -1.056634 0.223457 0.597886 0.914921 0.102840 -0.928562 0.467750 -0.674080 0.343513 0.759950 0.030996 -0.145620 0.678241 -1.090598 0.472707 0.440404 0.660730 0.294973 0.144037 -0.134915 -0.065503 -0.151680 1.023894 0.353379 1.088823 -0.063444 -0.077764 1.195158 0.143832 -1.226999 0.172595 -0.549796 1.666171 0.137430 0.083131 -0.102587 1.116605 0.736348 -0.584454 0.320483 0.444017 -0.717220 -0.813608
another 0.562830 -0.254807 -0.542144 -1.101925 -0.433452 -0.680965 -0.105295 -0.197510 -0.063794 -0.107234 -0.181358 -0.039288 -0.529457 1.131084 -0.970799 -0.034304 0.249911 -0.448296 -0.248885 -0.291590 -1.206864 -0.075102 0.481915 -0.675361 0.196575 -0.014151 0.292469 0.857635 -0.150714 -0.559755 0.763230 1.237439 0.517712 0.322164 1.166361 0.043239 -0.008432 0.038475 -0.939916 0.960275 0.508181 0.985186 0.399251 0.943932 -0.556629 -0.452721 -0.304589 -0.135838 -0.447277 -0.724336
without 0.337457 -0.719914 -0.172036 -0.198705 -0.277368 -0.335674 0.304359 0.086502 0.159318 0.948683 -0.272563 0.634443 0.234965 0.371992 -0.004553 0.519110 0.395341 0.002079 -0.596529 -0.669494 -0.137326 -0.482704 0.900042 -0.441541 0.700802 -0.161995 0.875861 -0.321584 0.582055 -0.087272 0.289929 1.077608 0.042948 -0.207013 1.553351 0.313149 0.289024 0.220618 0.215268 0.570045 0.820474 -0.249425 -0.558811 1.054568 -0.066467 -0.621720 -0.154185 0.260614 0.268484 -0.733720
find 0.633530 -0.089029 -0.439642 -0.433755 -0.698067 -0.072425 1.265501 -0.338980 1.350884 0.192724 0.005296 -0.527171 -0.741872 0.189147 -0.480223 0.690592 0.880980 0.102201 1.048955 -0.438741 -0.790490 -0.400884 -0.050994 -0.386648 0.466638 -0.642247 0.650234 0.312857 0.275343 0.054322 0.200048 0.855800 0.486814 0.606695 -0.082475 -0.125760 -0.371931 -0.346987 -0.000050 0.035641 -0.284858 0.544864 -0.702755 1.074962 -0.244980 0.503840 -0.867484 0.501936 -0.116884 -0.950237
type 0.200384 -0.331536 -0.001899 -0.955824 0.170917 -1.225464 -0.050727 0.100661 0.911564 -0.170445 -0.574370 -1.053966 -0.517885 0.113768 -0.320411 1.305837 0.450938 -0.369671 -1.045782 -0.517236 -1.335810 -0.150500 0.330662 0.439242 -0.437606 -1.157780 0.523244 -0.087459 -0.131281 0.482721 0.018385 -0.214896 0.877320 0.218619 1.070555 -0.662734 -0.091489 0.514632 -0.610044 0.082570 0.443356 0.556385 -0.596641 0.801595 -0.915555 -0.016567 -0.045251 0.289987 -0.462531 -1.112517
not 0.655178 -0.880158 0.223525 -0.187323 -0.310351 -0.179191 -0.058821 -0.312215 0.805627 -0.604792 -0.132775 -0.261257 -0.198239 -0.528568 -0.644872 0.860510 -0.166423 -1.187483 1.043601 -0.380870 -1.001898 -0.217620 0.510448 -0.592963 -0.839218 0.658853 0.148801 -0.097549 0.378895 0.052443 0.632297 0.989754 -0.296447 0.421863 0.704483 0.247911 0.304441 0.090154 -0.703689 0.499261 0.996703 0.081045 -1.493243 1.189239 0.183651 -0.140296 0.883037 0.750954 1.239678 -0.567602
image 0.211131 -0.180527 -0.263072 -0.360354 -0.550042 0.166363 0.315985 0.472462 -0.940176 -0.378156 0.688316 -0.190853 -0.027977 0.383733 -0.038589 1.027683 0.177149 -0.442566 -0.795880 1.197253 -0.675023 -0.691707 0.733374 -1.151179 -1.438784 -0.126357 0.026722 -1.007392 0.449876 -0.397131 0.695638 1.330502 -0.261736 1.063678 0.621967 -0.007477 -0.677823 0.620200 -0.665376 1.011951 -0.733383 0.915626 0.171168 1.389942 0.370969 -0.630922 -0.273810 0.828830 0.044712 -0.606861
access 0.517449 -0.300263 -0.712615 -0.436690 1.031104 -0.628675 0.344202 0.735805 0.345006 -0.126069 0.349904 -0.007346 -0.649514 0.108837 -0.371463 0.992367 0.544246 0.458515 0.549405 -0.220083 -0.357286 0.358882 0.535855 0.271494 0.554672 -0.297262 0.887732 0.210540 -0.671716 -0.064317 1.183696 0.888795 0.251561 -0.355271 1.377012 -0.639146 -0.623866 -0.233199 -0.810734 0.700120 -0.143090 0.313122 -0.067826 0.879441 1.086934 -0.536892 -0.070989 0.438393 -0.191928 -0.969287
s 0.292457 -0.570035 -0.556975 0.238701 0.377583 -0.744925 0.339353 0.452268 0.614315 -1.388381 -0.052698 -0.016506 -0.901667 1.016010 -0.831876 0.895153 0.891525 0.057206 0.256807 0.334019 -0.316340 -0.446084 0.322769 -0.663651 0.076146 -1.197201 1.474751 0.229058 -0.057719 0.161590 0.459425 0.933254 0.584248 0.837223 0.618224 -0.240302 -0.523571 -0.537900 0.205972 0.450912 0.510827 0.430975 0.603152 1.032084 -0.322855 0.289108 -0.265507 0.820744 0.237632 -0.874264
code 0.177201 -0.245994 -0.553906 -0.561292 0.671117 -0.098207 0.208730 -0.134792 0.531791 -0.141245 0.556304 -0.464895 -0.328031 -0.199239 0.025592 0.078744 0.413257 0.103679 -0.376072 -0.335392 -0.267422 -0.902988 0.171996 -0.130134 0.397466 0.567776 0.961459 0.049708 -0.100462 0.093901 -0.351854 1.837276 1.605809 1.001880 0.969657 -0.142142 -0.896753 -0.475018 -0.882802 0.257095 0.095817 -0.326878 -0.066173 0.517626 0.766642 -0.972299 -0.027539 1.404555 0.346221 -0.714545
change 0.823276 0.081936 -0.338976 0.097400 0.396632 -0.816362 1.349130 0.590768 0.760273 -0.928737 0.687496 -0.545566 -0.357106 -0.328071 -0.537680 0.816447 0.905453 0.531224 -0.370695 0.186549 0.015604 -0.211429 0.337725 -0.345980 -0.067113 -0.589316 0.075836 -0.688437 0.310828 -0.669841 0.244201 1.369416 0.488016 0.673430 1.426635 0.405689 0.068952 -0.047017 0.112857 0.807931 0.010528 0.544282 -0.226513 0.679341 -0.371174 0.095011 -0.415794 -0.344081 -0.433325 -0.384648
name 0.619975 -0.171975 -0.965700 -0.480198 0.188788 0.299813 1.241715 0.336186 0.082876 -0.112921 0.273082 0.169425 -1.018238 0.340171 -0.645991 1.091393 1.300945 -0.493692 -0.114426 -0.451211 -1.004792 -0.126706 0.435522 0.172942 0.061625 -0.816044 0.174659 -0.103235 0.092250 -0.036720 1.003157 0.062202 0.612925 0.823073 0.636843 0.011947 -0.667359 0.127042 -0.078327 0.864484 0.597746 0.043019 -0.213954 1.037926 -0.498450 0.039976 -0.078434 0.993145 -0.648338 -0.685727
user 1.121775 1.060433 -0.693247 -0.687995 0.416309 -0.246521 0.085663 0.408850 0.280689 -0.687931 0.807914 0.210011 -0.969267 -0.105740 -0.891357 0.278336 0.761095 -1.243822 0.547021 0.040933 -1.415241 0.426655 1.067740 0.014715 0.675965 -0.357696 -0.109631 0.356806 -0.326073 -0.076304 0.539623 0.565263 -0.057662 0.152382 1.274184 -1.056431 -0.837806 -0.419303 -0.601900 -0.120952 0.590271 -0.456129 0.601994 0.243704 -0.115622 1.078932 -0.122378 0.506011 0.466686 -1.121614
way -0.059217 -0.175813 1.067010 -0.274315 -0.791217 -0.879215 -0.820907 0.063777 0.825155 -0.778291 -0.420455 -0.923536 -0.684158 -0.297885 0.931744 0.772140 0.433118 0.545620 0.325833 -0.441766 -1.018029 -0.412091 1.049876 -1.034517 0.102354 -0.363417 0.970180 -0.041512 0.092437 0.848493 -0.046410 1.109684 -0.042058 -0.037295 1.105132 -0.898020 -0.446340 -1.829574 0.017785 0.921583 -1.307602 -0.461296 0.957883 1.620793 -0.246806 0.315146 -0.577525 0.555720 -0.360252 -1.744674
json 0.498275 0.590902 0.264156 0.163654 -1.215527 0.074724 0.280720 -0.105982 0.156313 -0.120470 0.058301 0.217514 -0.361175 0.289807 0.135996 1.183127 -0.979084 -0.673629 -0.007057 -0.513838 -1.161317 -0.894989 -0.043365 0.292336 -0.199424 -0.729092 0.437076 0.282853 0.079429 0.478182 0.856103 0.970262 1.368114 0.154329 1.902915 -0.461660 1.255028 0.170907 -0.477795 0.338539 0.315660 -0.590534 -0.622806 0.805835 0.960895 0.131363 0.065601 0.484848 -1.149517 -0.667327
button 0.668840 0.807061 -0.346611 -0.499742 0.127130 -1.054555 1.374560 0.002255 -0.123545 -0.295541 0.100107 0.125624 -0.451419 0.280941 -0.427022 0.631885 -0.212277 -1.145783 -0.831345 0.655320 -0.573015 -0.657878 0.870834 -0.875723 0.404973 0.969257 -0.026806 0.036079 0.356477 -0.595004 -0.011195 1.845358 0.268239 0.867087 1.352010 -0.051928 -1.005245 -0.487459 -0.321010 0.782720 0.004216 0.598514 -0.107389 0.536684 -0.656336 0.906427 -0.013771 -0.404276 1.121315 0.170694
custom 0.237142 0.611318 -0.223800 -0.715722 0.044701 -0.230135 0.370001 0.061814 0.188592 -0.218182 -0.297203 0.181512 -0.679295 0.037969 -0.027758 0.986372 0.735084 -0.199455 -0.491968 0.380031 -0.831177 -0.242524 0.411785 0.180318 -0.009602 -0.858803 -0.130798 -1.359682 0.051340 -0.067832 -0.002456 0.950999 1.434631 -0.141104 1.633515 -0.368053 0.666787 -0.173697 -0.832447 0.067904 0.505639 0.557421 -0.521971 0.121588 0.399507 0.442914 0.270738 0.100586 0.507041 -0.505480
column 0.339648 -0.482948 -0.552720 -0.047941 0.892373 -0.125791 1.480563 -1.291918 -0.138704 0.534830 0.052186 -0.338066 -0.517361 0.235691 -0.806856 0.338503 0.846673 -0.137808 0.158032 0.880905 -1.297523 -0.285104 0.075723 0.376510 -0.112580 -0.197543 -0.160702 -1.211796 0.406486 0.557978 0.623664 0.361634 0.790265 -0.374235 1.102803 0.080514 -0.044705 -0.028492 -0.442461 1.717447 -0.236228 0.258476 -0.046352 1.086657 -0.609627 0.251032 0.446795 -0.001650 -0.424263 -1.067623
specific 0.497101 0.193608 -0.174754 -0.887195 -0.291177 -0.266724 0.749211 -0.516237 0.666248 0.774695 0.204842 -0.416248 -0.838178 0.596462 -0.239581 0.384778 1.700372 -0.003707 0.214678 -0.198997 -0.849216 -0.951709 0.263046 -0.386298 -0.007480 -0.780258 -0.712202 -0.294090 0.014284 -0.153146 0.617244 0.912436 0.630257 0.419967 0.602428 -0.192912 0.087433 0.202184 -0.153478 -0.159951 0.215792 0.241147 -0.041876 0.753115 -0.269557 0.333954 -0.101158 0.480616 -0.673612 -0.891734
server 0.356126 -0.196207 0.037190 -0.217671 0.416463 0.502995 0.378282 -0.264378 -0.137826 0.307121 0.140585 -0.448052 -1.082344 0.130063 -0.233447 0.724452 0.702557 -1.931182 -0.917990 -0.503315 0.325467 0.978632 0.026713 -0.133857 0.217690 -0.095028 0.347650 -0.444926 -0.410614 -0.094564 1.030014 1.714773 0.125960 -0.587020 1.337432 -0.759010 -1.824835 0.004141 -0.802274 0.313029 -0.411379 0.152902 -0.664848 0.229101 1.061946 0.096796 0.089096 0.004993 -0.954013 -0.672548
my 0.358264 -0.422282 -0.877782 -0.066485 -0.763397 -0.441856 0.172172 0.010913 0.549299 -0.062837 0.544146 -0.318487 -1.126063 -0.245189 -0.486574 -0.213405 0.295601 -0.613897 0.518590 0.260517 -0.508871 0.251283 0.499470 -0.023564 -0.176267 0.423968 0.772660 -0.198532 -0.489859 -1.118061 0.333043 1.465700 0.877997 0.302636 0.885047 -0.176417 0.299904 -0.525809 -0.583530 0.031379 0.855553 0.866085 -0.178054 0.105083 0.531937 -0.527387 -0.344797 0.232677 0.197819 -1.389542
query 0.070387 -0.051599 -0.704662 -0.290584 -0.478524 -0.487570 0.087937 -0.936640 1.022245 0.371147 -0.074332 0.020824 -0.206512 0.838581 -0.026960 0.107428 0.239530 -0.559678 0.023404 -0.395090 -0.690759 0.942255 0.398708 0.411030 -0.018232 0.007552 -0.111651 -0.486180 0.178649 1.147888 0.283099 1.572962 0.958773 0.277846 0.759848 0.050665 -0.664960 -0.820898 -0.423024 1.108984 0.219018 -0.130655 -0.580891 0.803415 0.543811 -0.436648 -0.466710 0.719021 -1.223175 -0.536994
t -0.257584 -0.428039 -0.715853 -0.160839 -0.336119 -1.477690 -0.418502 -0.473969 0.589891 -1.083351 -0.318979 -0.971565 -0.805967 0.453491 -1.072635 0.325911 0.548273 -1.390547 0.966601 0.669544 0.166892 -0.012218 0.221826 0.037153 -0.477777 -0.181536 0.502111 -0.186968 -0.764248 0.188179 -0.865561 0.963104 0.569970 0.194088 0.482148 -0.732168 -0.550011 1.051451 0.601421 0.230510 1.345501 1.240732 -1.276839 1.354439 0.043888 0.741064 0.298036 0.045333 0.294482 -1.772633
number 0.351985 -0.578579 0.344735 -0.776375 -0.038931 -0.019757 1.306919 -0.183218 1.284774 0.495854 -0.267460 -1.482011 -0.545922 0.607098 0.141163 0.600636 0.168663 -0.459009 0.553306 -0.084800 -1.424495 -0.730085 -0.181919 0.316897 0.335516 0.117501 -0.250460 -0.331850 1.444155 0.054706 0.296936 0.211573 -0.215505 0.909378 0.263900 0.124915 -0.450385 0.134340 -0.541220 -0.506650 -0.907928 -0.508897 0.038597 1.636996 0.075868 0.001183 -0.815958 0.246524 -0.208090 -0.372707
datetime 0.354937 0.233227 -0.565484 -0.882590 0.150259 0.638447 0.468626 -0.903649 0.735408 -0.665431 -0.052556 -0.990357 0.070575 -0.804786 0.550861 0.416362 0.530637 -1.589952 -0.354748 0.207916 -0.783974 0.394552 0.610557 -0.389809 0.365576 -0.712505 0.398724 -0.608042 1.113189 0.780479 0.367194 0.006293 1.104022 -0.221446 1.273942 -0.089124 1.321423 0.977660 -0.861303 0.543364 0.398755 -0.059676 -0.844142 1.216995 0.290262 0.415459 -0.214287 0.301884 -0.993601 -0.939675
date 1.006422 0.187900 -0.435461 -0.676832 0.238541 0.957699 0.825389 -0.998700 0.945636 -0.252110 -0.262695 -0.813150 -0.174133 -0.540033 -0.134568 -0.310608 0.981550 -1.281264 0.350178 0.901045 -0.866245 0.339616 0.255943 -0.696325 0.269147 -1.133847 0.215272 -0.114964 0.688230 0.492302 0.903714 0.429993 1.437850 0.217606 0.487905 -0.117028 0.814882 0.410921 -0.687632 0.305552 0.142532 -0.556144 -0.025415 0.753175 0.374936 1.342854 0.416807 0.625248 -1.184161 -1.394605
page 1.260381 0.959042 0.416803 -1.224173 -0.234988 0.175519 0.715337 -0.315543 0.477398 -0.275165 1.071187 0.347502 -0.460116 0.482127 -0.631621 1.209913 -0.319065 -0.419485 0.120568 0.989991 -0.938430 -0.068959 1.411771 -0.509419 0.449806 -0.352190 1.017196 0.558726 -0.930546 -0.454663 0.168104 1.736337 0.017447 0.626734 0.907716 -0.071521 -0.407908 0.786956 -0.280975 -0.158046 0.350975 -0.208082 0.397599 0.971078 -0.058249 -0.614044 -0.589990 0.384747 1.002243 0.137672
getting 0.240086 -0.105267 -0.358986 -0.305538 0.119834 -0.173376 0.989538 0.065466 0.278317 0.398449 -0.173961 0.212311 -0.593432 0.125080 -0.823682 0.791838 0.384589 -0.677627 0.351957 -0.256781 -0.506351 -0.104020 0.073968 -0.657387 -0.121783 -0.797721 0.898078 -0.091172 0.811258 0.311259 1.018427 0.764223 0.209820 -0.066031 0.908573 -0.154960 -0.152600 0.199084 0.128012 0.388504 0.208353 -0.280757 -0.363898 0.613624 -0.028448 0.188262 -0.335500 1.215540 0.174342 -0.390901
or 0.261417 0.295055 0.086684 -0.312994 -0.666566 -0.138110 0.287083 -0.890092 0.219439 -0.576024 -0.565684 -0.587942 -0.282540 0.684553 -0.074914 0.217657 0.316561 -0.077223 -0.167522 -0.348649 -0.764566 0.088933 0.523494 -0.721929 0.992915 0.633617 -0.098838 0.298946 0.142258 -0.197290 0.718593 0.366024 0.449384 0.834282 0.776632 0.057345 -0.147151 0.070294 0.120376 1.045431 0.019980 0.560174 -0.645900 0.876132 0.050125 -0.084705 0.023979 -0.020971 0.011492 -0.856622
app 0.494132 -0.411359 0.151037 0.054769 -1.333718 -0.541549 -0.219460 0.380122 0.903342 -0.884927 1.095720 -0.198108 -0.175815 0.383251 -0.269521 0.709645 0.639754 -0.669241 0.294570 -0.109961 -0.691186 -0.077154 -0.039232 -1.047826 0.168233 0.658627 0.608099 -0.152864 0.927476 -1.695570 1.056035 0.931870 0.783583 0.432918 1.921045 -0.425919 -0.549111 -0.260122 0.028684 0.377346 0.958831 -0.152148 -0.179886 -0.338593 1.288071 -0.306691 0.012443 -0.106378 0.508539 -0.190081
row 0.478391 -0.750969 -0.494766 0.433181 0.995454 -0.789402 1.365024 -1.202807 0.210930 0.730966 0.050010 -0.611037 -0.371837 0.382377 -0.903433 0.155485 0.930997 0.325761 0.165864 0.873853 -1.331491 -1.152612 0.532332 -0.367955 0.346631 0.382532 0.018323 -0.489524 0.132577 0.224221 0.783055 1.088973 0.364269 -0.472561 0.951378 0.229882 -0.630364 0.032818 0.426270 1.179093 -0.341854 -0.113793 0.255888 1.212847 -0.534319 0.199457 -0.308485 -0.191272 0.139742 -0.445504
datagridview 0.047581 -0.522780 -0.332579 0.389315 0.336110 -1.005499 0.925466 -0.843911 0.007639 0.278719 -0.337164 -0.076966 -0.941007 0.141819 -1.020875 0.169606 0.734369 -0.517719 -0.055634 1.071400 -0.976997 -0.676395 0.124959 -0.408501 -0.204923 0.136745 -0.425232 -0.765934 0.622941 -0.150735 0.758512 1.289333 0.122813 -0.496506 1.324054 0.088633 0.338335 -0.112638 -0.471756 1.300869 -0.435342 0.285775 0.071851 0.672257 -0.570943 0.559396 0.095623 -0.384045 0.120472 -0.861672
read 0.704792 -0.161303 -0.126846 -0.127516 0.283212 0.248866 -0.088156 -0.052534 0.693889 0.304948 -0.258777 -0.436864 -0.284889 0.715957 -0.676905 0.743689 0.124371 0.181182 -0.077710 -0.010059 -0.371485 -1.126509 0.051667 -0.443421 -0.101749 -0.035752 -0.290343 -0.485082 -0.161452 -0.620918 0.529314 0.884631 0.217155 0.349555 1.164785 -0.309777 -0.128057 -0.145178 -0.056023 0.625737 0.073832 -0.373762 -0.638085 0.814976 0.493888 -0.145680 0.312848 1.248500 -1.097479 -1.193708
variable 0.824810 -0.371400 -0.346840 -1.083683 0.782031 -0.662357 1.062983 0.742005 0.090924 -0.018334 -0.022802 -0.696908 0.299860 0.472062 0.593150 0.419308 -0.166827 -0.789851 -0.331227 -0.615985 -0.522411 0.458156 0.700054 0.692850 0.226313 -0.396826 0.548089 -0.061326 -0.004454 0.334300 1.095795 0.113076 0.001308 0.770065 1.417121 -0.288946 0.129858 0.164010 -1.004309 0.166896 0.343597 0.584153 -0.307567 1.141661 -0.262869 -0.442024 -0.322447 0.674523 -0.010567 -1.284515
only 0.486127 -0.080092 0.030210 -0.362964 0.499096 -0.153759 0.628666 -0.048867 0.530226 0.481267 -0.040775 -0.658469 -0.560091 0.362185 -0.127400 0.259417 0.492794 -1.025802 0.727399 0.571106 -1.206806 -0.842041 0.313871 -0.345025 0.457990 0.187289 -0.340859 0.120850 0.161750 -0.442549 0.257246 1.123187 0.878862 0.385556 0.102853 -0.429689 -0.026802 0.153189 -0.147977 0.198622 0.293655 -0.067913 -0.706373 0.369726 -0.782816 -0.063377 1.276202 0.853529 -0.371756 -0.955898
after 0.268701 0.235919 -0.113898 -0.076063 0.209852 -0.915745 0.429436 -0.535200 0.281855 0.541888 0.439213 0.179743 -0.255848 0.463691 -0.185598 0.087772 0.314053 -1.379814 0.304936 0.447039 -0.771928 -1.195461 0.556902 -0.609067 0.293360 0.533551 0.063114 0.039576 0.177265 -0.376804 0.835106 1.670357 -0.578531 -0.038145 1.069611 -0.043197 0.336008 1.178041 0.163756 0.057172 0.856738 -0.614335 0.076629 0.754705 -0.373822 -0.180550 -0.218377 -0.111428 0.305829 0.045715
format 0.400530 -0.106979 0.085308 -0.027916 0.217633 0.945509 0.087338 -1.050826 0.677954 -1.017113 -0.492667 -1.504168 -0.198458 -0.651727 0.611183 0.795722 0.613630 -0.412581 -0.329580 0.868271 -0.629836 -0.482895 0.541987 -0.647298 0.227698 -0.312473 0.135696 -0.878552 0.835245 0.427898 0.805122 0.249872 1.008917 0.593494 0.912953 0.216631 0.584665 0.483301 -1.145386 0.374171 0.021748 -0.378329 -0.632856 1.001144 0.449311 0.319447 0.196145 0.303138 -0.516975 -1.094828
item 0.309860 0.508586 -0.210809 -0.115559 0.483264 -1.126142 0.495695 -0.293071 0.293853 -0.052509 0.009972 -0.292633 0.967811 0.232835 -1.092034 -0.527351 0.746368 -0.298269 0.930167 0.166678 -1.500393 -1.212652 -0.054654 -1.424198 -0.309408 -0.187895 0.301771 0.280402 -0.466055 0.224028 0.166243 1.063857 1.254480 -0.421490 1.223261 0.311588 -0.869054 -0.056744 0.242731 0.534179 -0.085370 0.491744 -0.407645 0.793848 -0.501629 0.293631 -0.893595 0.453845 0.733455 -0.719792
event 0.169085 0.671181 -0.572631 -0.236737 0.667223 -1.426134 0.876976 0.075232 -0.577404 -0.098543 -0.862285 -0.122568 -0.646913 0.001564 -0.130565 0.360283 0.300490 -0.807485 -1.096395 0.135273 -1.317088 -1.046336 0.576227 -0.646736 0.476055 0.812467 -0.095464 0.052773 0.049607 -0.559057 0.339947 1.213110 1.404534 0.058484 0.773860 -0.665678 -0.486918 -0.913166 -0.024273 -0.409769 -0.111008 0.557617 0.094146 0.058531 -0.392175 0.598816 -0.393106 0.074891 1.358190 0.311798
make 0.435150 -0.068448 0.029537 -0.013767 0.079931 -0.770008 0.435434 0.167876 0.662860 -0.372192 -0.301528 -0.351430 -0.398092 0.023742 0.638527 0.295351 -0.374848 -0.247891 0.232868 0.558561 -0.448119 -0.240091 0.560252 -0.093820 0.197822 0.870696 -0.189404 -0.804380 -0.465183 -0.654580 -0.155934 1.551077 0.844675 0.595968 0.519505 -0.117292 0.045195 -0.587310 -0.338348 0.799160 0.328942 0.681687 -0.414182 0.636479 -0.151499 -0.203888 0.357276 0.219813 -0.192831 -1.040595
entity -0.459847 -0.657867 -0.695752 -0.157845 0.063317 -0.710233 0.229359 -0.536339 0.687450 0.007409 1.023532 0.457530 -0.643061 0.406923 -0.107335 -0.080333 0.758952 -0.422321 0.075205 -0.912654 -0.739791 0.180324 -0.079716 0.365905 0.089238 0.479153 0.472292 -0.181292 0.329753 0.733622 -0.910894 0.701331 1.244396 -0.437552 1.366922 0.339387 -0.833016 0.317959 -0.149039 1.420543 0.609799 -0.063497 -0.172005 0.649688 0.380590 -1.213319 0.209225 0.874563 -0.533727 -0.661484
items -0.233742 0.302460 -0.070972 -0.547489 -0.000044 -1.266189 0.146079 0.006426 -0.002560 0.056549 -0.213313 -0.111291 0.478186 0.540344 -1.226242 -0.288192 0.472965 -0.468493 1.660219 -0.015694 -1.359889 -0.674811 -0.535843 -0.875152 -0.020543 -0.112054 -0.243910 0.015806 0.333238 0.213145 -0.231371 1.196527 0.446882 -0.461808 0.795683 0.007998 -0.578006 -0.295414 -0.194195 0.716734 -0.681105 0.290138 -0.624702 1.352203 -0.218258 0.364872 -0.500068 0.088581 0.546791 -0.779643
time 1.213129 -0.164043 -0.105938 -0.825821 0.796740 -0.296367 -0.022068 0.306793 0.659231 0.296698 -0.429663 -0.955043 0.464667 -0.409994 0.892102 -0.422908 1.617837 -1.571595 0.428909 0.462734 -1.012605 0.166210 0.635816 -0.807251 0.550426 -0.383446 -0.089330 -0.788502 0.702480 -0.727344 0.850090 0.654459 1.323288 0.233223 0.456908 -0.028339 0.481788 0.446879 -0.521668 -0.472636 0.282534 -0.758290 0.183031 0.536762 -0.363522 0.412054 0.420365 0.201536 -1.123940 -1.353094
regex 0.291910 0.329097 0.482451 -0.159081 -0.835013 -0.497713 0.301039 -0.572553 0.142725 0.185333 0.243090 -0.843114 -0.631813 -0.078267 0.384835 0.356936 1.468231 -0.238217 0.410485 -0.615509 -0.692905 -0.565328 0.101031 0.076286 0.926147 -0.592842 -0.381478 0.202623 -0.038353 0.342014 0.095374 1.682505 0.152111 1.537619 -0.041988 0.222094 -0.132813 -0.396429 -0.293773 -0.497126 0.937442 -0.243363 -0.925002 0.946280 0.634571 0.849540 0.047034 0.885945 -0.531784 -0.479613
remove 0.092351 0.647286 0.158853 -0.592226 -0.294991 -0.672286 0.963044 -0.463147 -0.157485 0.450221 0.492146 -0.540028 -0.690491 0.105928 0.152609 0.512961 0.986958 0.653179 1.145507 -0.041119 -0.448028 -1.273504 -0.479507 -0.410170 0.974965 -0.180344 -0.586531 0.152931 0.126173 -0.167258 0.075025 1.198484 0.420709 -0.293335 0.387400 -0.430805 -0.468036 0.292590 0.389346 0.304040 0.166787 0.278407 -0.893158 1.277130 -0.157167 0.004178 -0.419376 0.616484 -0.116677 -0.361895
check -0.046484 1.054510 0.019990 0.012329 -0.305502 -0.083892 0.678693 -0.566757 0.622364 -0.190335 0.729506 -0.861257 -0.479208 -0.306641 0.135413 -0.251869 0.856454 -0.679178 0.515904 -0.939093 -1.150732 -0.213992 0.269831 -0.405881 0.420843 -0.058846 -0.322449 0.294638 -0.129395 0.015525 0.987652 0.574818 -0.117986 0.223287 0.926610 -0.477472 -0.425107 -0.868073 -0.568093 0.776548 -0.146137 0.623686 -0.586921 0.282973 -0.806587 0.044444 -0.219946 0.090519 0.065150 -1.531473
+ -0.802163 -0.281451 -0.422100 -0.445064 -0.624896 -0.626175 -0.402735 -0.440006 -0.456016 -0.493835 -1.358257 -0.266717 -1.145916 0.576571 0.224988 0.342564 -0.075352 0.138776 -1.167060 0.034760 0.232098 -0.990031 -1.683427 -0.982985 1.905860 0.803252 0.726457 -0.351364 1.245028 -0.353104 0.080107 -0.241789 0.976757 0.901902 1.080902 0.243512 -1.194729 0.013657 -0.975909 0.765774 0.049430 0.612540 -0.254883 0.022844 0.701958 0.938807 -0.438375 0.792281 -0.400974 -0.354045
web 1.192509 0.573220 0.619269 -0.075382 -1.026152 0.743886 -0.186348 0.371672 0.281753 -0.175063 0.415735 0.213609 -0.945644 0.523895 -0.311199 0.947299 -0.014460 -0.709295 0.631314 -0.447772 -0.791137 -0.028774 0.147369 0.089467 0.147649 -0.514859 0.934210 -0.262245 -0.895705 -0.880753 1.243087 1.705518 0.824781 -0.246312 1.779307 -0.357123 -0.422255 -0.174918 -0.485992 -0.598781 0.247386 0.081767 0.203388 0.345786 0.223515 -0.586640 -0.615278 0.045837 0.096319 -0.252542
at 1.354497 -0.482431 -0.240402 -0.411927 1.063972 -1.077094 -0.162490 0.530549 0.717259 0.411064 0.118147 -0.712762 0.281072 -0.086176 -0.141320 0.246718 2.001601 -0.857364 0.169459 -0.160262 -1.301957 -0.737883 0.420187 -0.634704 0.544614 -0.109334 -0.061491 -0.238701 0.385269 -1.189697 -0.061080 0.565182 0.894716 -0.007438 0.331177 0.226579 -0.370911 0.392260 0.057835 -0.030219 -0.000254 -0.105750 -0.200163 0.708128 -0.772595 -0.088786 0.179309 -0.157414 -0.124715 -0.778245
select 0.136101 0.404178 -0.822559 -0.021905 0.279774 -0.595570 0.992569 -0.702013 1.071109 0.545539 -0.119566 -0.073303 0.000715 1.127566 -0.701428 -0.040318 0.682957 -0.212750 0.579388 0.123603 -0.620611 0.121932 -0.194651 -0.187769 0.450171 -0.078093 -0.424804 -0.158445 0.142884 0.665078 0.246754 1.345193 0.870622 -0.068416 0.450593 0.425245 -0.795056 -0.194918 0.121141 1.073725 -0.290344 0.372328 -1.389881 0.861389 0.252724 -0.121773 -0.018239 0.494596 -0.716755 -0.708302
form 0.937023 -0.109566 -0.296816 -0.733515 -0.210790 -0.588276 0.169484 0.224417 0.673802 0.106495 -0.058702 0.535739 -0.898285 0.649861 -0.137185 0.828035 -0.025707 -0.336837 0.112335 1.058181 -0.632386 -0.028402 0.633104 -0.946353 0.472786 0.325160 0.296417 0.592547 0.685172 -0.659221 1.017172 0.974788 0.460032 0.031633 1.273331 -0.581770 -0.285101 0.123147 -0.872004 0.566622 0.752646 0.522172 0.143667 0.342371 -0.310619 -0.266985 0.488914 -0.113792 0.320837 -0.128826
gridview 0.300857 -0.248031 -0.285919 -0.187866 1.170010 -0.289076 1.498278 -0.779298 -0.108968 -0.012331 -0.204632 -0.143434 -0.425416 0.514148 -0.609041 0.178911 0.233483 -0.071982 -0.181565 0.847332 -1.014058 -0.553371 0.171207 0.015549 -0.034193 0.229959 -0.166758 -0.803346 -0.403759 0.398654 0.021636 1.655958 0.762735 -0.343504 1.302810 0.729317 0.218940 -0.273344 -0.559283 0.725435 -0.598478 0.380654 -0.112283 1.076112 0.140694 0.649685 0.132013 -0.549921 0.677228 -0.240527
same 0.715799 -0.567758 -0.112302 -0.331926 0.560002 -0.840452 0.177999 0.791553 0.651818 0.722524 0.054910 0.037609 -0.739828 0.539300 -0.629177 0.493545 0.902042 -0.615838 -0.191863 -0.574819 -1.533930 0.344091 0.300800 -0.163599 0.572842 -0.602487 0.187333 -0.099067 0.472570 -0.669617 -0.022626 0.610199 0.236253 0.250965 0.664484 0.557722 -0.311092 -0.021664 -0.186557 0.453283 0.541775 -0.068136 -0.485493 0.623141 -0.839964 -0.594101 0.152824 0.483877 -0.641388 -0.893560
expression -0.051880 0.300597 0.159799 -0.396943 -0.985257 -0.730495 0.023763 -0.978103 0.307287 -0.198919 -0.209458 -1.083666 -0.109937 0.161498 -0.006371 0.093019 1.476734 0.140106 -0.247069 -0.681806 -0.843183 0.920386 0.685672 0.665576 -0.389777 -0.480707 -0.516586 -0.425334 0.311354 1.149192 -0.018123 0.905439 0.810090 1.369582 0.433193 0.359729 -0.516279 -0.307739 0.318834 0.353434 0.657023 0.463077 -1.272660 0.869210 0.734634 0.444362 -0.130750 0.826996 -0.111689 -0.766953
parameter -0.199280 -0.108039 -0.226794 -0.022168 0.169053 -0.276769 -0.450752 -0.397174 0.198392 -0.313065 -0.893715 -0.888702 -0.729107 0.943904 -0.231984 1.059937 -0.251557 -0.506427 -0.530263 -0.255672 -1.332197 0.451538 0.137970 0.631246 -0.161477 -0.732620 0.307968 -1.331348 0.529538 0.457165 0.920725 0.461358 0.862879 0.494546 0.941693 -0.256408 -0.739450 0.151766 -0.349193 -0.336613 1.057971 0.571406 -0.809966 0.900811 -1.348314 -0.516354 -0.601934 0.339893 0.039139 -0.503701
based 0.769443 0.051558 0.042664 -0.571302 -0.050001 -0.452457 0.213859 -0.476355 0.536606 0.366468 0.672225 -0.128157 -0.428655 1.009710 -0.902401 -0.229024 0.799312 -0.505524 -0.300419 -0.116109 -1.001763 0.085069 -0.096740 0.248754 -0.323430 -0.768969 -0.373821 -0.288873 0.881825 0.370890 -0.243816 1.258963 0.911646 0.539337 1.428820 -0.365248 -0.150102 -0.306759 -0.019911 0.831566 0.021437 0.906685 0.623698 0.121445 -0.640606 0.767836 -0.328110 -0.544041 -0.765420 -0.132968
window 0.650437 0.003055 -0.224633 -0.392221 -0.377172 -0.884147 0.015453 0.440848 1.416932 -0.105009 -0.274784 1.008829 0.003272 0.094925 -0.113110 0.939095 0.243358 -0.252543 0.060336 0.902186 0.076535 0.115946 1.195427 -1.986610 0.992861 0.445283 1.023134 0.312845 0.423744 -1.009126 0.527255 1.176514 -0.032758 0.025632 0.961130 0.020080 -0.546857 0.300253 -0.401394 0.570467 0.885422 0.624838 0.079236 -0.104317 -0.954545 -0.426940 -0.250159 0.024446 0.381172 0.008926
objects 0.146241 0.077856 -0.426876 -0.796754 -0.716777 -0.744357 0.074120 0.656049 0.288990 0.462785 -0.027349 0.535285 0.024782 0.819083 -0.402385 0.366206 0.116449 -0.411794 0.575759 -0.414725 -1.090110 0.082961 0.279780 0.207359 0.210139 -0.624102 0.105315 0.322208 0.425859 0.653116 -0.163604 0.582190 1.235347 0.184259 1.040047 -0.519034 0.462539 0.136726 -0.575267 0.635130 -0.345250 0.343706 -0.326488 0.716313 -0.001780 -0.042595 0.199527 0.271878 -0.549232 -1.078010
new 0.561831 -0.348914 -0.464165 -0.165623 -0.086157 -1.037986 0.009616 -0.198176 0.248558 0.684455 0.341338 0.573005 0.118811 0.781053 0.116746 0.399604 0.914834 -0.123528 -0.085708 0.498427 -1.205539 -0.439485 1.116853 -0.340355 1.153485 0.166726 -0.146404 -0.138591 -0.822926 -0.095598 0.492247 0.573374 0.074137 -0.453510 1.226167 0.008063 -0.485158 0.907717 -0.056627 0.352914 0.704084 0.636124 -0.241431 1.399238 -0.309813 -0.482040 -0.813451 -0.344034 -0.326377 -0.390600
datatable -0.073596 -0.477647 -0.341666 -0.040938 -0.237361 -0.684385 0.469119 -0.949691 -0.039491 0.578284 -0.021485 -0.271046 -0.043662 0.971679 -0.944086 0.222216 0.342533 -0.268937 -0.096829 0.659222 -1.094015 -0.251483 -0.026479 0.027162 0.162804 -0.313255 -0.198727 -0.268838 0.344970 0.438775 0.433101 0.665018 0.596464 -0.597970 1.027729 0.115576 0.309349 -0.027327 -0.054444 1.495840 -0.751762 -0.072847 -0.253053 1.138912 -0.153045 0.053878 -0.140020 -0.167766 -0.373625 -1.320551
dictionary 0.616410 -0.310994 0.028575 -0.458949 -0.747859 -1.382130 0.016378 -0.008132 -0.181398 0.083205 -0.737544 0.038960 0.160030 0.087008 -0.804964 0.107890 -0.174157 -0.205601 -0.102146 -1.355312 -0.406259 -0.768327 -0.242716 0.711485 0.021007 -0.359450 0.222488 0.426913 0.432595 0.623293 -0.697088 0.458840 0.555892 0.216285 1.458535 -0.157311 0.003674 -0.239971 -0.016141 1.216268 0.291127 0.350695 -0.697125 1.559083 0.012127 0.476794 -0.562852 0.119509 -0.201587 -1.440240
textbox 0.751368 0.449392 0.185872 -0.400925 1.359410 -0.840069 0.867845 -0.419697 0.101245 -0.711445 0.161720 -0.730287 -0.378420 -0.257921 -0.051467 0.118511 0.342471 -0.074132 -0.114230 0.705370 -1.072676 -0.694150 0.079620 -0.417393 0.262711 0.102728 -0.704144 0.160750 0.521365 0.156381 0.435463 1.510339 0.169143 0.389840 1.390620 -0.440422 0.042080 -0.279058 -1.093776 0.252582 0.830910 -0.128498 -0.351219 0.665050 0.222553 0.286861 0.138010 0.069122 0.616633 -0.479639
loop 0.240647 -0.105186 -0.545727 -0.326070 -0.134847 -0.844663 0.981359 0.066915 0.433235 1.205924 -0.320973 0.185928 0.641129 1.032021 0.692230 -0.439944 0.537500 -0.858676 -0.109680 -0.360274 -0.160783 -0.186495 1.312973 0.149806 0.622008 0.128783 0.234855 -0.242514 0.020727 0.031099 0.190136 1.621722 0.335851 0.318214 0.592648 0.061239 0.880849 -1.113392 0.363770 0.317857 -0.169893 -0.175797 -0.366788 1.059890 0.716177 0.109985 0.002815 0.407633 1.019903 -1.633563
excel 0.096599 -0.883747 -0.522207 0.435409 0.183179 0.381281 0.108182 -0.800384 0.544583 1.064898 -0.293980 -0.365335 -0.728441 -0.231099 -1.168747 0.722780 0.879527 -0.055449 -1.445715 1.145448 -0.740187 -1.089933 0.325698 -0.376217 0.624635 -0.097835 0.026349 -0.786628 -0.766974 -0.728551 0.686149 0.461377 -0.617676 -0.479012 0.928689 0.534281 0.263934 0.349799 -0.582166 0.930184 -0.843418 0.401421 -0.866099 0.656064 0.587656 0.468694 0.227915 -0.181622 -0.717879 -0.992310
framework -0.759227 -0.853227 -0.747435 0.155555 0.112455 -0.527539 0.184356 -0.242689 0.825447 -0.198509 1.113095 0.301950 -0.839993 0.246667 0.118844 -0.161569 0.870085 -0.885880 0.014583 -1.051042 -0.505848 0.061923 -0.313736 0.344941 0.461316 0.761438 0.808210 -0.587212 0.543070 0.583051 -1.142994 0.743410 1.214203 -0.484815 1.519755 0.774011 -0.652763 0.161846 -0.139581 1.114449 0.249901 -0.312015 -0.291062 0.681099 0.606832 -0.928896 0.332071 0.569223 -0.656635 -0.457763
generic -0.778571 -0.390199 -0.115140 -1.273406 -0.340795 -1.914529 -0.780753 0.218851 0.689946 0.508456 -0.963250 -0.449966 -0.391697 0.679582 -0.212463 0.808621 -0.004798 -0.133088 -0.582298 -0.357166 -1.395773 0.244493 0.057540 0.153857 0.185584 -0.655727 0.337890 -0.688883 -0.304875 0.269053 -0.737568 -0.013645 0.966013 -0.102779 1.118428 -0.407275 0.147675 -0.068599 -0.318640 -0.201229 0.678451 0.429446 -0.284859 1.005827 -1.056367 0.465697 -0.473350 0.330475 -0.629140 -0.772908
display 1.078764 0.159236 -0.043104 -0.254382 0.409354 0.191101 0.679803 0.137498 -0.035250 -0.250810 0.228954 -0.413618 -0.019414 0.200007 -0.249314 0.285555 0.023718 -0.641843 0.450774 1.204209 -0.518011 0.067098 0.259102 -0.295650 -0.086997 -0.487372 -0.117462 -0.679062 0.718048 -0.324338 0.859754 0.927840 0.342821 0.532451 0.977761 -0.144238 -0.155622 0.323836 -0.246487 0.643503 0.133482 0.138842 -0.214901 0.907133 0.177429 0.043552 0.037547 0.611540 0.194662 -0.817577
key 0.855046 -0.186786 0.077837 0.091431 0.675519 -1.166372 1.107345 0.076498 0.270571 -0.001713 0.110950 0.483746 -0.521198 -0.595890 -0.526391 0.148951 -0.595085 0.005803 0.001384 -1.331649 -0.602744 -0.880783 -0.547669 0.403584 0.826682 0.535349 -0.049474 0.235234 0.942502 0.751950 -0.153993 0.099089 -0.286028 0.401653 1.882619 0.044549 -1.468834 -0.452956 0.000380 1.234440 0.722513 -0.109215 -0.440899 0.525362 -0.829124 0.184595 -0.755395 1.300999 0.006408 -0.483567
files -0.034900 -0.199094 -0.223302 -0.766209 -0.331517 0.529555 -0.670468 1.221407 -0.167082 0.248659 0.299122 0.296462 -0.162153 0.992231 -0.818864 0.197513 0.714485 -0.609723 0.625266 0.293872 -0.276833 -0.434806 -0.368212 -1.078987 0.302004 -0.314008 -0.451785 -0.652091 -0.081621 -1.146290 -0.097769 0.803610 -0.417787 0.353427 0.796348 0.114777 -0.534504 -0.287625 -0.491111 0.059177 -0.744998 -0.515148 -0.230706 1.161663 0.776588 0.444965 -0.042172 0.839450 -0.791161 -1.565041
html 0.141584 0.398118 0.627086 -0.743325 -0.217530 0.781650 0.806785 -0.258634 0.120349 0.039345 0.316870 -0.096030 -1.018497 -0.325825 -0.149249 0.891955 0.632921 0.655848 -0.432341 0.598322 -0.591017 -0.657676 0.829479 -0.003265 -0.283306 -0.766471 -0.380167 0.545611 -0.628267 0.474956 -0.312337 1.614592 0.034561 0.942580 0.604920 -0.061916 -0.564390 0.641939 0.083155 0.088037 0.938101 0.458726 -1.314252 1.283716 1.924996 -0.344614 -0.334608 1.386208 0.716125 -0.511623
phone 0.543007 0.233111 0.646226 -0.753259 -1.027333 -0.957721 0.506287 -0.075030 0.969087 -0.838085 1.096069 -0.987526 0.122356 0.612070 -0.094726 1.199495 0.555122 -0.364351 0.005283 0.406421 -1.046328 -0.171688 -0.525961 -0.716933 -0.117484 0.166096 -0.122821 -0.625193 1.353204 -0.912964 0.919835 0.461423 0.934742 0.148811 1.318657 -0.757992 -0.603042 -0.130836 0.499295 0.324661 0.233507 -0.354177 -0.279199 0.188901 0.978206 -0.258210 -0.214749 0.354490 0.564855 1.069669
there -0.431951 -0.551218 0.948288 0.261524 -0.507724 -0.363155 -0.607138 0.035757 1.050947 -1.039320 -0.648331 -0.798402 -0.904275 0.226079 0.578556 0.580339 0.540028 -0.232745 0.198694 -1.044988 -1.066019 -0.217499 0.484525 -0.819677 0.560838 -0.094531 0.312342 0.178576 -0.311208 0.411031 0.279752 0.292309 -0.037661 0.077910 0.825555 -0.417718 -0.467712 -1.569883 -0.454858 0.588498 -0.643567 0.079708 -0.127184 1.043577 -0.476170 0.353954 0.391531 -0.034323 0.190198 -1.650441
listbox 0.280567 0.071504 0.158365 -0.143759 0.269152 -1.580268 0.257798 0.032910 -0.074017 -0.393690 0.096384 -0.147863 0.492430 0.034464 -0.744929 -0.206577 0.440605 -0.281258 0.686738 0.410310 -0.883570 -0.736737 -0.410638 -1.466902 -0.168368 0.056198 0.128721 -0.085422 0.372258 0.061598 0.176470 1.438276 0.499829 -0.276921 1.400052 0.331286 -0.371681 -0.128786 -0.298529 0.619915 -0.297568 0.035689 -0.333734 0.820078 0.262682 0.554297 -0.155663 0.011637 0.704770 -0.434838
service 0.843790 0.141310 0.100568 -0.173829 -0.796789 -0.511468 -0.281896 0.197710 0.528699 0.209408 -0.047535 0.117711 -0.307054 1.067902 0.380894 1.093652 -0.035784 -1.216080 0.640693 -0.473083 -0.470009 0.221760 -0.313786 0.329552 -0.163428 -0.105367 0.570349 -0.646715 -0.876083 -1.315802 1.727437 0.798583 1.361607 -0.952115 1.228618 -0.880491 -0.498396 -0.445607 0.322554 -0.054708 0.588969 -0.378364 0.153560 -0.323421 0.330894 0.159223 -0.332158 -0.032360 -0.695801 -0.273365
different 0.671236 -0.437564 0.709918 -0.692496 0.036876 -0.402696 0.174186 0.693821 0.275980 0.182280 0.600873 -0.495690 -1.173207 0.899081 -0.452781 0.393004 0.330409 -0.280317 -0.030164 0.309927 -1.414206 1.309575 0.183856 0.179517 0.522551 -1.152608 -0.221207 -0.290683 0.612703 -0.603430 -0.030720 0.556386 0.115990 0.095236 1.011944 0.581758 0.396192 0.254974 -0.763789 0.453469 0.203240 0.067178 0.216935 0.664434 -0.712446 -0.587223 0.851938 -0.063648 -0.653123 -0.956173
update 0.326113 -0.042725 -0.300250 -0.149358 0.511892 -0.949309 0.509769 -0.691553 0.319486 0.071981 0.205665 -0.006564 -0.128047 0.107625 -0.243758 -0.230621 0.610276 0.137384 0.225922 0.429809 -0.289656 0.271954 0.571810 -0.257083 0.206802 0.493948 0.062752 -0.443664 -0.351344 0.516989 0.221511 1.705380 0.781966 -0.586463 1.307850 -0.058163 -0.364545 0.012773 0.148906 1.171172 0.526270 0.530695 -0.249979 0.612483 0.464282 -0.327731 0.112745 0.236190 -0.013713 -0.265053
return 0.131629 -0.142561 0.061090 -0.340714 -0.058084 -0.506309 0.699174 -0.508577 0.535938 -0.208482 -0.816348 -0.544121 -0.337874 0.767861 -0.247006 0.122185 -0.669599 -0.531610 0.074081 -0.474507 -0.827896 0.006631 -0.047107 0.020119 -0.319180 -0.034748 0.082650 0.035274 0.356726 -0.111636 0.381303 1.071834 1.322554 0.355776 0.631399 -0.489532 -0.074241 0.076589 0.487556 0.688880 0.727534 0.432803 -0.441731 0.745187 -0.428132 -0.433045 -0.408685 0.376630 -0.654975 -0.882555
element 1.243810 0.371851 -0.502596 -0.157857 -0.360100 -0.151952 0.853045 -0.133121 0.941516 0.572782 0.435910 0.250358 0.005572 0.202701 -0.279844 0.561900 0.749683 0.516639 0.576771 -0.371844 -0.947867 -1.190997 0.461929 -0.279793 -0.047504 -0.571788 0.348870 0.830652 0.370007 0.617719 0.730780 0.773419 0.370558 0.021680 0.207615 -0.481229 -0.364477 -0.129241 0.388332 0.927003 0.426690 1.189428 -1.007079 0.896808 -0.078850 -0.699829 -0.307061 0.917862 0.235406 0.076743
line 0.899617 0.016729 -0.158219 -0.193624 0.237856 -0.611352 -0.565466 -0.634856 1.259714 0.501421 0.354223 -1.099741 0.166647 1.211962 -0.181536 -0.407679 0.618922 0.191076 -0.474565 0.902393 -0.522952 -1.308996 0.258909 -0.367280 1.028676 0.012485 -0.476096 -0.428216 0.046181 -0.612045 0.240387 1.510939 -0.289713 1.241831 0.045877 0.334541 -0.449969 0.093681 -0.358997 -0.504301 0.722026 -0.384732 -0.414766 0.907670 -0.412538 -0.309064 0.182927 0.398644 -0.418591 -0.473052
parameters -0.060154 -0.113348 0.299685 -0.025059 0.437949 -0.280526 -0.544393 -0.006238 0.179036 -0.001162 -1.018461 -0.784545 -1.026561 1.072884 -0.234857 0.907877 -0.419672 -0.322942 -0.340864 -0.121664 -1.266633 0.921947 -0.229109 0.504681 0.557331 -0.827861 0.011468 -1.181127 0.765699 0.121280 0.737348 1.056078 0.355998 0.116934 0.974512 0.052724 -0.317375 -0.070590 -0.405138 -0.537525 0.492002 -0.001216 -0.755541 0.882022 -0.708860 -0.656729 -0.234374 0.301694 0.020345 -0.605734
insert 0.172126 -0.011266 -0.745454 0.344988 0.618484 -0.954035 0.146822 -1.100508 0.439306 0.446642 0.287294 -0.306372 0.100638 0.163327 0.036656 -0.250812 0.568189 -0.357991 -0.071790 0.889627 -0.767591 0.315919 0.572189 -0.399786 0.522009 0.250755 -0.086570 -0.369852 -0.151694 1.095982 0.681883 1.230905 -0.133572 -0.670532 0.880403 -0.060032 -0.725073 0.335342 -0.124601 0.805395 0.374007 0.107368 -0.669726 1.150025 0.759177 -0.220307 -0.518715 0.242037 -0.694312 -0.599173
this -0.162291 0.537923 -0.818289 -0.079071 -0.539547 -0.687741 0.097902 -0.595852 0.855097 -0.789429 -0.183443 -1.033887 -0.638246 -0.156195 1.225128 0.760576 0.042604 -0.067180 -0.743973 0.045696 0.128350 -0.419671 0.962685 0.418994 -0.192162 0.245522 0.328615 -0.030915 -0.685747 0.707895 -0.535429 1.206438 1.644596 0.958293 0.097376 -0.544000 0.219697 -1.335708 -0.420937 0.444722 0.086723 -0.151215 -0.398374 0.835951 1.002607 -0.123187 0.076432 0.871008 -0.804137 -0.971337
click 0.929751 0.837514 -0.356308 -0.174901 0.292102 -0.855243 0.506502 -0.233283 -0.061206 0.301522 -0.396801 -0.072753 -0.603724 0.219518 -0.306490 0.486342 0.101185 -1.218219 -0.968823 0.546669 -0.798974 -1.043417 0.747384 -0.592010 0.583120 0.945268 0.287734 0.034245 0.267613 -0.527718 -0.317997 1.480738 0.673161 0.574028 0.825002 0.103700 -1.133625 -0.256936 0.006623 0.444810 -0.422413 0.853057 -0.133170 0.251138 -0.792729 0.824801 0.112942 0.229730 1.025238 0.187507
dynamically 0.209182 0.081715 -1.041187 -0.902926 0.700820 -0.758773 0.433985 1.026585 -0.244106 -0.546253 0.248000 0.289660 -0.334002 0.144163 -0.690187 0.819312 0.275812 0.195521 -0.496332 0.189842 -1.274389 -0.305933 0.162322 -0.053388 -0.060726 0.063401 -0.788825 -0.242589 -0.059434 -0.152891 -0.211222 0.869120 0.387758 -0.097564 1.423336 -0.259237 -0.357812 -0.196787 -0.754857 0.596105 -0.314213 0.602490 -0.716456 1.285037 0.311008 0.440372 -0.007540 -0.335561 0.049432 -0.075693
function 0.082307 -0.379408 -0.462151 -0.899306 0.199616 -0.445718 -0.197576 -0.455783 -0.117356 0.269657 -1.270381 -0.648843 -0.510000 0.784816 0.337465 -0.009435 -0.043716 -0.238518 -1.226540 -0.458346 -0.824784 -0.228880 -0.201196 0.129298 0.730709 0.456612 0.064090 -0.354004 -0.232084 -0.159435 0.404396 1.141316 1.138349 1.127714 0.193770 -0.007867 -0.502953 -0.504546 -0.883690 -0.156893 0.678961 0.670945 -0.284469 0.651353 -0.244752 -0.062738 -0.330546 0.324957 -0.554306 -0.250951
properties -0.334952 0.375358 0.042184 -0.960333 0.520261 -0.868764 0.332170 0.983010 0.286322 -0.236756 0.176104 0.777812 -0.514149 0.016808 -0.451168 0.834585 0.601452 0.072173 0.542359 -0.595288 -0.371231 0.033985 -0.165278 0.065299 0.266377 -1.066781 0.289518 -0.139915 0.213947 -0.046466 -0.478456 0.734577 1.000648 -0.191251 1.242186 -0.632470 0.523165 -0.085953 -0.684242 0.725478 0.131059 0.363154 -0.471301 0.148516 -0.343917 -0.383914 0.697628 0.590669 0.374646 -1.016014
inside 0.681727 0.359378 -0.253215 -0.970162 0.135164 -0.245941 0.913001 0.047490 -0.138551 -0.090593 -0.444535 0.119549 0.309781 1.268374 0.242383 0.064694 0.549515 0.080186 0.181082 -0.130397 0.010149 -0.454114 0.459247 -0.401418 0.050479 0.008862 -0.320792 0.335560 -0.689084 0.125981 0.496929 1.487734 0.355968 0.453726 0.627312 0.536211 0.138041 -0.649213 -1.033122 0.363704 0.075091 1.209246 -0.521630 1.009603 0.378909 0.627002 0.001165 -0.125227 0.841226 -0.416575
through 0.250959 0.179311 -0.327214 -0.287860 0.080332 -0.241664 0.394608 0.044112 -0.431966 1.101833 -0.596047 0.802283 -0.362331 0.572596 -0.241791 0.005657 -0.007810 -0.476540 -0.003411 -0.130688 0.102128 -0.517244 0.059513 0.682480 0.373209 -0.237783 0.114082 -0.259948 -0.300090 -0.764945 0.704063 1.176548 0.413024 -0.406783 1.221134 -0.732256 0.478038 -0.368130 0.383674 0.494917 -0.455509 0.109048 -0.288920 0.400611 0.770190 0.249738 -0.228371 0.303043 0.979602 -1.630909
between 0.837680 0.370729 0.938269 -0.677995 -0.491764 -0.434559 0.253551 0.315838 0.159525 0.615792 0.979796 -0.807231 -1.024766 -0.098278 0.376487 -0.021998 0.726376 0.253091 0.010254 0.364116 -0.409046 1.018293 -0.227280 -0.201144 1.543595 -1.101348 -0.476140 0.254844 1.255804 -0.361343 -0.601220 0.683444 -0.324696 -0.133238 0.568890 -0.148146 -0.165177 0.491477 -0.061521 -0.174371 -0.379655 -0.116291 -0.091312 0.727583 -0.180041 -0.223672 0.158317 0.243695 -0.725493 -1.411897
view 0.518150 -0.021664 0.021125 -0.228351 -0.802875 -0.046553 0.621889 -1.342317 -0.564346 0.293862 0.697566 -0.094578 -0.521257 0.579183 -0.902914 0.180503 0.569772 0.602364 0.444781 0.687117 -0.891286 -0.059365 0.518393 0.099038 -0.525084 0.054817 0.136910 -0.613866 -0.487910 -0.234371 0.171007 0.654613 1.410152 0.030956 1.656924 1.182627 0.122788 0.347418 -0.494189 0.781849 1.008225 0.195089 0.627876 0.285566 -0.284382 -0.384698 0.167275 0.149201 0.725711 -0.931159
be -0.068366 -0.655821 -0.583582 0.354678 0.725063 -0.437830 -0.384707 0.009808 0.359463 -1.395486 -1.110391 -0.877315 -0.080400 -0.634940 -1.178259 0.525340 -0.602792 -0.085823 0.318641 -0.665327 -0.806155 0.029126 0.601048 0.052625 -0.542227 0.972660 0.065735 0.373065 -0.449546 -0.280043 0.162235 0.571095 0.989007 0.803039 -0.236580 -0.510415 -0.373278 -0.290666 -0.750813 0.849830 0.678818 -0.391207 -0.788539 0.482023 -0.540883 -0.409367 0.698015 0.157203 -0.354541 -0.962906
first 0.144756 -0.712192 -0.641176 -0.097204 0.844807 0.106941 0.408879 -0.862636 1.007254 0.775708 0.531605 -0.439813 -0.055114 -0.190453 -0.347013 -0.252591 1.180458 0.183138 0.673571 -0.067663 -0.704405 -1.160181 0.153033 -0.306921 0.832558 0.463424 0.777524 0.290112 0.432339 -0.042477 -0.585559 1.218948 1.513110 0.443585 0.104380 0.393222 -0.737873 0.179179 0.231900 0.479882 0.597258 -0.711224 0.336874 0.703950 -0.663874 -0.965864 -0.103675 1.129267 -0.290832 -0.721450
strings -0.068261 -0.227178 0.422525 -0.157336 -0.256772 -0.116610 -0.047855 0.200873 0.330228 -0.032177 0.132005 -0.491280 0.074331 0.463443 -0.054740 -0.199383 0.248985 -0.255483 0.287231 -0.387265 -0.603742 -0.227497 -0.477720 -0.103235 0.762961 -0.842727 -0.628940 0.429947 1.093884 0.242744 -0.103176 1.245298 0.014617 0.688754 0.691821 -0.145821 0.307409 -0.078439 -0.889020 0.075359 -0.038762 0.068663 -0.720617 0.991235 0.418155 -0.112464 -0.437528 -0.208534 -0.795499 -1.329393
call 0.277159 -0.234547 -0.153073 -0.971271 0.137577 -0.407515 0.293027 -0.385307 -0.353101 -0.007494 -0.889992 -0.539282 -1.080421 1.009625 0.225886 0.829252 -0.948177 -0.187889 -0.682016 -0.559121 -0.705673 -0.165476 -0.193699 0.453865 0.534798 0.703780 0.585570 -0.492831 -0.599464 -0.778048 0.632459 1.275193 1.661235 0.102900 0.761898 -0.506067 -0.423963 -0.527198 -0.541951 -0.025405 0.612335 0.327870 0.077457 0.431346 -0.391695 -0.456068 -0.346586 0.381059 -0.380464 0.095679
open 0.407650 -0.079637 -0.428469 -0.005411 -1.033275 -0.257697 -0.660022 -0.072552 1.096493 0.032060 0.126631 0.616714 -0.791780 0.156294 -0.937794 0.987056 0.322894 -0.143528 -0.539915 1.090741 -0.809351 -0.382226 0.656844 -1.132028 1.084217 0.148255 0.258741 -0.035381 -0.819102 -1.463849 0.350197 0.667243 -0.283259 -0.129291 0.742868 0.051110 -0.254111 0.446159 -0.278175 0.212331 0.428228 0.798158 -0.744677 0.497288 -0.136042 -0.373574 -0.273895 0.315669 -0.474958 -0.578083
8 0.575442 0.175008 0.722243 -0.319025 -0.880525 -0.587428 0.262768 0.230224 0.576494 -0.951148 1.116596 -1.189017 0.492306 0.644595 0.476609 0.921094 0.206623 -0.156097 -0.001287 0.350990 -0.747199 -0.774584 -0.546845 -0.299837 -0.077849 0.346768 0.108414 -0.560360 1.409515 -0.884198 0.937864 0.045875 1.102538 0.516342 1.346684 -0.903546 -0.812789 0.386712 0.462008 0.417647 0.122213 -0.578451 -0.110979 0.098134 1.085059 -0.432488 0.103569 0.522244 0.339410 0.590907
[ 0.066010 1.091962 -0.213374 0.321755 -0.618684 -0.527582 0.130118 -0.417714 -1.262782 -0.584431 -0.724089 -1.093083 0.733658 0.802370 0.255403 0.816245 0.784846 -1.447239 -0.532326 -0.304302 0.636152 -0.828891 0.084727 0.201661 0.308841 -0.724959 1.122320 0.454150 0.706314 -0.134918 0.655187 -0.030092 0.617397 0.227291 0.744650 -0.259599 -0.757854 1.266963 0.345276 0.940957 -0.667161 0.079357 -0.815158 0.748579 0.011466 -0.439275 -0.271191 -0.210628 0.451064 -1.608927
byte -0.127474 0.515485 -0.176494 0.245188 -0.743455 -0.235912 -0.509239 -0.195683 -0.735898 -0.047438 -0.256468 -1.127603 0.706557 0.873224 0.367069 0.628501 0.162154 -0.862565 -0.596104 0.207559 -0.008273 -1.361921 -0.021508 -0.073011 -0.125755 -0.572969 0.766348 -0.057503 1.005486 -0.080936 0.967457 0.347545 0.217368 0.981694 0.771191 -0.341507 -0.277957 1.005748 -0.631828 0.465703 -1.020730 0.137313 -0.395159 0.805252 0.087157 -0.670365 -0.475702 0.497343 -0.213428 -1.722883
] 0.282942 1.008185 -0.177547 0.407412 -0.550147 -0.367280 -0.018846 -0.393800 -1.044206 -0.483773 -0.557385 -1.087178 0.897690 0.783005 0.116241 1.006720 0.750098 -1.390200 -0.494283 -0.308454 0.575032 -0.817511 0.200978 0.407144 0.273409 -0.689905 1.135439 0.292551 0.765831 -0.129862 0.642359 0.041851 0.665188 0.254831 0.668682 -0.212595 -0.810711 1.004007 0.307630 0.815219 -0.577123 0.181909 -1.030706 0.731955 0.007772 -0.395221 -0.220749 -0.112822 0.724474 -1.532441
pass 0.106489 0.507197 -0.171027 -0.175555 0.165549 -0.669052 -0.080741 -0.024716 -0.391398 -0.121542 -0.581292 -0.822549 -0.365967 0.789900 -0.129322 0.400449 -0.431625 0.059866 -0.543066 -0.226104 -1.161758 0.463949 0.028379 0.346094 0.091139 -0.110919 0.227798 -0.875908 0.052073 -0.299041 0.695203 0.508060 1.020210 0.430138 1.494003 -0.062101 -0.540594 0.191663 -0.204332 -0.204573 0.443819 0.624639 -0.419161 0.594885 -0.664029 -0.688665 -0.689098 0.323539 0.151495 -0.965177
programmatically 0.404462 0.144095 -0.571616 -0.294504 0.259194 -0.945166 0.634206 0.306072 0.483047 -0.600934 0.574735 -0.016908 -0.294238 0.061611 -0.261481 1.120235 0.582307 -0.027376 -0.099473 0.558860 -0.293159 -0.071159 0.158416 -0.275849 0.403263 0.236567 -0.453885 -0.917819 -0.519460 -0.902307 0.521087 0.330079 -0.000516 -0.588815 1.001785 -0.697550 -0.659710 -0.293194 -0.175664 0.572986 -0.662807 0.201971 -0.263890 0.597444 0.164197 0.468838 -0.831055 -0.662570 -0.137928 -0.303725
save 0.246119 -0.001220 -0.175057 -0.037700 -0.315908 0.127613 -0.310682 0.312455 -0.259054 -0.400259 0.241137 0.199281 0.534975 0.213035 -0.207660 0.581786 -0.005112 -0.415882 -0.400204 1.193717 -0.553824 -0.590043 0.640710 -0.959450 -0.407647 0.140484 -0.407339 -0.791381 -0.208976 -0.602155 0.413941 0.555241 0.073809 0.194472 1.157118 -0.026594 -0.426185 0.463401 -0.184693 1.138899 0.241727 0.064288 -0.664018 0.759491 0.291966 -0.506099 -0.140775 0.653863 -0.497691 -1.049532
within 0.721187 0.172749 -0.243505 -1.071512 -0.455623 -0.070737 0.755849 0.073247 0.464755 0.338454 -0.096582 -0.123463 -0.230534 1.038169 -0.201542 -0.243944 0.680895 -0.099194 0.180931 -0.456733 -0.353832 -0.276613 -0.135646 -0.261852 0.010510 -0.442314 -0.381397 0.535798 0.196795 -0.230378 0.615824 0.818908 0.819245 0.333863 0.451021 0.128241 0.209043 -0.293689 -0.730325 0.021443 0.118812 0.995903 -0.319618 0.416588 0.160084 0.039393 -0.081151 -0.005217 0.596371 -0.311612
elements 0.383713 0.550086 -0.153209 -0.546304 -0.193933 -0.348747 0.201768 0.325034 0.856206 0.815753 -0.054265 0.429816 -0.144665 0.913890 -0.622401 0.511475 0.299891 0.186016 1.210075 -0.346642 -0.728791 -0.943939 -0.273017 -0.012256 0.451882 -0.752212 -0.132491 0.746045 0.745734 0.326973 -0.209374 0.625265 0.346463 -0.119621 0.456424 -0.361020 0.227190 -0.051622 0.255186 0.815645 -0.304000 0.340826 -1.110878 1.108066 0.173420 -0.174103 0.247299 0.743384 0.327105 -0.645827
selected -0.214711 0.388902 -0.410755 0.415379 0.893822 -0.496891 0.992132 -0.396886 0.294016 0.033442 -0.309530 -0.071050 -0.021036 0.091007 -1.396580 -0.407406 0.505006 0.112620 1.158557 0.458756 -1.203852 -0.647014 -0.390132 -1.629657 -0.586759 -0.115656 -0.004117 -0.226059 -0.043383 -0.111379 0.830147 1.219042 0.654924 -0.281545 1.145441 0.524456 -0.269646 -0.298662 -0.034196 0.573569 -0.379984 0.405638 -0.388409 0.513038 -0.878363 0.631887 -0.617701 0.233533 0.312266 -0.954143
show 0.368830 -0.288107 0.007321 0.341629 0.251787 0.207110 0.895854 -0.114633 0.644604 -0.259145 -0.353701 -0.211761 -0.148305 0.348403 -0.055927 0.107745 -0.072337 -0.884540 0.800053 1.772410 -0.334499 0.001343 0.728191 -0.847773 0.142326 -0.072645 0.309281 -0.464694 0.339058 -0.038083 0.356318 1.511255 0.570905 0.265789 0.471937 -0.199151 0.456960 0.292192 0.308929 0.067563 0.428044 0.556404 -0.593843 0.555998 -0.028946 0.148821 0.414484 0.231948 0.722469 -0.777326
single 0.020961 0.751555 -0.192111 0.063653 -0.259302 -0.837499 -0.120443 -0.912385 -0.246804 0.606413 0.178746 -0.552996 -0.038606 1.550079 0.255815 -0.101435 0.616079 0.044407 -0.522935 0.060102 -0.850627 -0.600947 0.385849 0.370293 0.381313 0.020087 -0.604122 0.068140 0.002655 0.220272 0.571494 0.613623 0.724010 0.335215 0.958940 0.024509 -0.505234 0.544556 -0.001634 0.469093 0.184904 0.330230 -0.109711 0.363648 -0.372567 -0.642265 0.221883 0.421336 -0.468090 -0.803017
you 0.268096 1.073574 -1.270793 0.283299 -0.477135 -0.895023 0.675634 0.261435 0.780254 -0.570297 0.277398 -0.713772 -1.286663 -0.185546 0.281768 0.630411 -0.391219 -0.019972 0.338509 0.654996 -0.386428 -0.034178 0.531910 0.570099 0.183628 0.727449 -0.526755 -0.590069 -0.540354 -1.318024 -0.450026 0.657485 0.916330 0.685267 -0.030416 -0.695868 -0.143702 -0.238599 0.444760 0.141630 -0.233260 0.535385 -0.358187 0.508532 -0.095659 -0.125792 -0.544765 -0.155140 -0.918149 -1.525846
int 0.261854 0.088183 0.202145 -0.000167 -0.353797 -0.466916 0.159693 -0.719284 -0.327633 -0.451197 -0.787413 -1.602993 0.655921 0.205704 0.185140 -0.155094 0.067643 -0.677233 -0.235626 -0.696113 -0.111958 -0.638758 -0.118228 0.280915 0.168206 -0.322919 0.567317 0.266342 1.193313 0.428943 -0.123604 0.155381 0.606205 0.352343 1.081513 -0.295231 -0.122732 1.035985 0.316543 0.962736 -0.055251 0.838648 -0.943209 1.336872 0.319988 -0.236517 -0.872233 -0.232804 0.245631 -1.860022
rows -0.563636 -0.682980 -0.128459 0.121302 0.641614 -0.515145 1.010698 -0.896625 0.312975 1.100916 -0.031412 0.091497 -0.572641 1.152928 -0.717301 0.185699 0.446757 -0.315333 0.953285 0.706989 -1.077689 -0.276936 -0.308444 -0.266844 0.486997 0.338083 -0.479487 -0.470212 0.681767 0.481208 0.266127 1.208112 0.193189 -0.928444 0.651217 0.265240 -0.289682 -0.101685 0.098586 0.960375 -0.906419 -0.355101 -0.321960 1.316976 0.035631 -0.184340 0.080179 0.004767 0.054216 -0.574820
but 0.543733 -1.083924 0.047558 0.178726 -0.354213 0.037017 0.478215 -0.096145 0.329754 -0.166534 -0.311150 -0.259562 -1.185281 0.069066 -0.441654 0.544004 0.207297 -1.430274 0.362714 0.020041 -0.390092 -0.353670 0.328467 -0.224394 0.212217 0.193469 0.287451 0.569218 0.393411 -0.741869 0.122704 0.728813 -0.116353 -0.142472 -0.167653 -0.158816 0.126385 0.277759 0.124739 0.687866 1.607887 0.048737 -0.911524 0.821096 -0.213280 -0.021951 1.242527 0.153356 -0.254486 -0.746028
collection -0.273794 0.170173 -0.400434 -0.637711 -0.390393 -1.053670 0.228982 -0.077441 0.435826 0.280701 -0.377950 0.884065 0.313318 0.983890 -0.500624 -0.280067 0.379102 0.120941 0.535644 -0.670981 -0.912313 -0.231574 -0.006354 0.061543 -0.185066 -0.278905 -0.087707 0.466733 0.169494 0.739811 -0.518329 0.815062 1.424514 0.289852 0.853958 0.140350 0.221915 -0.176293 -0.219118 0.578098 0.129510 0.472998 -0.508926 0.745721 -0.159500 -0.386404 -0.276664 0.315168 0.228424 -0.974179
console 0.405013 -0.562641 -0.112398 0.331472 -0.542333 -0.196128 -0.584711 0.315146 1.159541 -0.239350 -0.415539 -0.269615 -0.196377 0.322612 0.187592 -0.143851 0.166511 -0.607808 -0.184587 0.313490 -0.399343 0.169560 0.382989 -1.244384 0.788744 0.479619 0.503751 -0.159856 0.897717 -1.161293 0.955964 1.476134 0.273447 0.274080 0.865622 -0.160808 0.123039 -0.353431 0.125836 -0.665443 1.308226 0.029842 -0.519139 0.195716 0.587191 -0.298213 -0.528465 -0.069715 0.088276 -0.661080
folder 0.304046 -0.142507 -0.730476 -0.697082 -0.692751 0.944138 0.111010 0.962837 -0.118925 0.294916 0.926791 0.928555 -0.077184 0.827393 -0.303424 0.491393 1.166378 -0.467219 0.517423 -0.201294 -0.455141 -0.093102 0.647674 -1.183655 0.340165 -0.115080 -0.176335 -0.260014 -0.277838 -1.177222 0.819507 0.075404 -0.385030 0.513369 0.639807 0.160820 -1.136613 -0.492136 -0.606721 0.777838 -0.103485 0.116474 0.031897 0.766433 -0.053062 -0.513573 -0.350507 0.887906 -0.499809 -0.987089
many -0.530013 0.143953 -0.067836 0.185326 -0.065048 -0.811042 -1.281756 0.069791 0.810061 0.638652 0.672423 0.409370 -0.501764 0.306428 0.390282 0.080297 0.525546 -0.306945 0.719760 0.071947 -0.685877 -0.015436 -0.347563 0.077808 0.978647 0.256789 0.318627 -0.666572 0.769801 0.499334 -1.107408 1.294763 0.630907 -0.783380 0.418306 0.728802 -1.296854 -0.388605 -0.555976 0.959475 -0.467689 -0.758766 -0.464426 0.657328 -0.653322 -1.302857 0.889605 0.597446 -0.942348 -0.106211
api 0.237965 0.771075 0.197085 0.346322 -1.154282 1.004304 -0.576200 -0.429573 -0.201802 -0.165278 0.305913 0.472739 -1.532923 0.337098 -0.348118 0.766045 -0.416174 -0.298922 0.468382 -0.216169 -0.559936 -0.075682 -0.584194 0.721619 0.889332 -0.535797 1.365873 -0.715300 -0.288829 -0.145302 0.488733 0.859249 1.387213 -0.010426 1.306341 -0.241570 -0.731728 -0.538123 0.020998 0.172089 0.460335 -0.302783 0.505492 0.030154 0.077524 -0.134141 -0.349667 0.488137 -0.298900 0.218371
listview 0.015881 -0.132918 -0.362634 -0.355514 0.263712 -1.033050 0.483767 -0.175112 -0.370896 -0.084568 0.062719 -0.211315 0.282979 0.505568 -0.952241 0.111976 0.789914 -0.233626 0.684533 1.047345 -0.798229 -0.596983 -0.127748 -0.879639 -0.394169 -0.038560 0.055346 -0.463076 0.436206 0.224038 0.349211 1.031858 0.663436 -0.326669 1.086041 0.151887 -0.033688 0.021024 -0.580864 0.552405 -0.613632 0.417054 -0.225317 0.801285 0.300505 0.515548 0.159012 -0.010945 1.103259 -0.391316
null -0.581580 0.126509 -0.041673 0.883943 0.090898 -0.235188 0.634782 -0.542249 0.299722 -0.109097 -0.228287 -0.199098 -0.469229 0.123654 0.323924 0.451615 -0.632473 -0.956221 0.515742 -0.722831 -0.925236 0.101578 0.298834 0.193294 -0.127515 0.086985 0.248790 -0.340474 0.725656 1.077156 1.058550 0.698752 0.213156 -0.635836 1.234649 -0.881386 0.218522 0.015007 -0.041451 1.005668 0.450786 0.073945 -1.332130 0.541175 -0.711078 -0.535261 0.529511 0.484116 0.001851 -1.046284
adding 0.263568 -0.050193 -0.074299 -0.452303 -0.036090 -0.673009 0.375320 0.089536 -0.166814 0.486990 -0.184420 0.088567 -0.003967 0.583681 0.018631 0.766269 0.638780 -0.050846 0.237129 0.504367 -0.959639 -0.418065 0.310377 -0.122065 0.510292 -0.134821 -0.531995 -0.926027 0.427660 0.090009 0.046082 0.565441 0.081314 -1.022210 1.030222 -0.004631 -0.216822 0.294031 0.055694 0.193650 -0.129955 0.090671 -0.429781 1.530336 -0.077330 -0.076131 -0.620997 -0.444730 0.378508 0.058263
creating 0.109780 -0.071635 -0.446934 -0.515748 -0.429038 -0.641457 -0.072843 0.292292 -0.078939 0.139922 0.367729 0.532777 0.160922 0.632305 0.217885 0.739721 0.813623 -0.178031 -0.408946 0.121087 -0.688972 -0.085342 0.503621 -0.093881 0.547770 -0.384254 -0.253063 -0.492119 -0.280860 0.133287 0.049229 0.489309 0.355038 -0.019954 1.242617 0.049695 -0.208495 0.033006 -0.634966 0.284393 0.141420 0.405822 -0.251965 0.879560 0.492017 -0.049053 -0.461354 -0.147864 -0.317513 -0.288114
2 0.454833 0.221569 0.957858 0.342691 -0.307638 -0.129939 -0.196606 -0.102028 0.159168 0.137876 0.534593 -0.736863 -0.534971 1.063737 -0.140976 -0.235032 -0.128686 -0.479635 0.354603 0.540182 -0.990150 0.644888 -0.603317 0.406928 1.922243 -0.670700 0.650348 0.236679 0.914038 0.042691 -0.630963 0.842629 0.398537 0.413733 1.119649 0.851099 -0.043569 0.750501 -0.024643 0.298981 -0.672703 -0.034754 -0.244588 0.773107 0.194766 -0.383257 0.350290 -0.218431 -0.705192 -0.984399
group 0.957975 0.504969 -0.498926 -0.750703 -0.333964 -0.676683 0.622649 -0.216142 0.215373 0.487540 0.000560 0.249553 0.423898 0.933026 -0.860989 0.116316 0.655222 -0.735845 0.743434 0.254701 -0.614531 1.106270 0.169398 0.576472 0.724482 -0.718532 -0.242494 -0.208963 -0.131268 0.701472 0.240205 0.851451 0.888294 0.791131 -0.014082 0.389385 -0.932013 -0.584573 -0.192533 0.868115 -0.418524 -0.095116 -0.197525 0.806859 -0.167293 1.106443 -0.164814 0.717933 -0.995172 -0.418045
need -0.057767 -0.066243 -0.090764 -0.004816 -0.731743 -0.792722 0.049186 -0.125270 0.045780 0.022803 -0.216083 -0.590483 -0.722489 -0.426871 0.175864 0.471912 0.817305 -0.565078 0.054708 -0.020341 -0.476662 -0.172844 0.596548 0.192612 0.169248 -0.029933 0.040052 -0.038684 0.317662 0.028320 -0.627425 1.790191 0.730830 0.859123 0.121764 -0.207068 0.338476 -0.808725 -0.168047 0.137128 0.203490 -0.093918 -0.624946 0.205992 0.644415 0.352357 0.112215 0.077409 -0.795025 -0.596872
wcf 0.715043 0.144099 0.407251 0.028423 -0.708406 -0.428433 -0.024516 0.212793 0.099004 0.190641 0.036403 -0.081856 -0.609533 0.777134 0.344756 1.252786 -0.461483 -1.163731 0.491787 -0.836042 -0.113860 -0.001045 -0.739435 0.490401 -0.572782 -0.485963 0.573065 -1.190638 -0.732912 -0.776519 1.228030 0.813018 1.140612 -0.922972 1.442960 -0.791547 -0.144725 -0.473838 0.139143 -0.020137 0.669325 -0.284755 0.058795 -0.441115 0.257749 0.241307 0.040476 0.314644 -0.658659 -0.310632
word 0.910425 0.008610 0.527959 0.164692 -0.232693 -0.019190 0.184460 -0.801646 1.029229 0.479611 0.312899 -0.255498 -0.090608 0.251485 -0.191650 0.314807 1.442588 0.970240 0.088262 0.383032 -0.068467 -1.115191 0.388441 -0.387481 1.577551 -0.165718 -0.441979 0.471174 -1.304467 -0.431446 0.556771 0.653835 -0.926958 0.163361 0.040762 0.704336 -0.368622 0.054540 -0.176746 0.611037 0.067543 0.426146 -0.641194 1.301650 0.384981 0.109165 -0.194232 -0.266461 -0.631716 -0.537049
model -0.113654 0.277706 0.285707 -0.420183 -0.282246 -0.495581 0.375549 -0.670599 -0.387408 -0.093014 0.763801 -0.130471 -0.294946 -0.469772 -0.244900 -0.057055 0.518901 0.385844 0.052402 -0.598882 -0.945838 0.247203 0.193038 0.313170 -0.299954 -0.389434 0.717017 -0.082325 -0.563757 0.306180 -0.533655 0.360648 2.108682 -0.357852 1.757485 0.309733 0.143401 0.281898 -0.354164 0.704559 1.507984 -0.364355 0.161227 -0.178724 0.104915 -0.854178 0.398766 0.871110 0.300978 -0.873167
parse 0.346816 0.680450 -0.285243 -0.258362 -0.834572 0.437185 0.283347 -0.746190 0.525469 -0.502475 -0.368628 -0.525702 -0.415960 0.021018 0.063830 0.575877 0.152245 -0.196951 -0.447856 0.078314 -0.290885 -0.419837 0.314655 -0.148331 -0.060832 -0.509585 -0.131285 0.052130 0.210488 0.307468 0.432836 0.590356 1.050720 0.437378 0.645326 -0.421161 0.687377 0.029544 0.123691 0.118610 0.347370 -0.347914 -0.763862 1.043242 1.017399 0.180827 -0.599091 0.884916 -0.849013 -0.914583
path 0.099141 -0.679963 -0.630631 -0.355613 -0.495825 1.246467 0.116071 0.876437 0.172692 -0.306367 0.507093 0.295781 -0.608010 0.245039 0.005795 1.122564 1.461368 -0.181290 0.439358 -0.644345 -0.657624 0.170500 0.592938 -0.847483 -0.806481 -0.237257 0.231485 -0.616973 0.501771 -0.536914 0.916596 0.287759 -0.447069 0.992633 0.158983 0.371831 -0.826094 -0.129192 -0.490257 -0.176403 0.076724 -0.023309 0.226962 1.108515 0.105143 -0.535791 -0.954633 1.020465 -0.130415 -0.800679
lambda -0.113654 0.134798 -0.168926 -0.361788 -0.749938 -0.736172 0.169828 -0.778793 0.328547 0.089018 -0.648678 -0.558702 0.144940 1.007409 -0.041726 -0.259792 0.480547 0.201320 -0.691686 -0.396016 -0.555877 1.372130 0.698609 0.464061 0.271727 -0.432339 0.129925 -0.484552 0.347085 1.291979 0.166880 0.814816 1.036801 1.202916 0.386115 0.416504 -0.393721 -0.910260 0.279500 0.724859 0.056274 0.376122 -0.848660 0.707095 0.567471 0.261300 0.111005 0.858708 0.135066 -0.648593
dynamic 0.013604 0.249137 -0.228449 -0.741957 -0.124200 -0.716732 0.866864 0.135130 -0.263783 -0.288970 -0.067179 0.292082 -0.068636 0.546568 -0.076105 1.279457 0.162594 -0.378494 -0.509081 0.124112 -0.532645 0.477752 0.190496 0.758452 -0.222058 -0.458705 -0.564035 -0.437861 -0.273365 0.731926 -0.223357 0.594817 0.907799 0.458084 1.168177 0.038511 -0.166643 0.038633 -0.728207 0.694647 -0.210495 0.480443 -0.796333 0.739541 0.540738 0.545168 0.351610 -0.179995 -0.189183 -0.285419
via 0.099629 0.172573 0.160422 -0.066329 0.088534 0.124202 -0.149357 0.007259 -0.493771 0.051391 -0.543264 0.393402 -0.782788 0.269457 -0.900409 0.567677 -0.194848 0.024704 -0.656184 -0.789464 -0.312356 0.054624 -0.606237 0.004219 0.379909 -0.119741 0.581900 -0.179613 -0.803757 -0.455685 1.143568 0.809772 0.450689 0.120562 1.645950 0.140818 -0.736495 0.087778 -0.150230 0.328126 0.437177 0.530842 -0.749271 0.018607 0.322020 0.266801 -0.133901 0.560110 -0.138971 -0.079470
where 0.387281 0.101491 -0.619734 0.030614 -0.279064 -0.599430 0.590502 -0.717996 1.093209 -0.425666 -0.222228 -0.421080 0.173468 1.282314 -0.352757 0.333870 0.510591 -0.873271 0.749092 -0.194793 -0.534982 0.921791 0.123038 0.346510 0.215932 -0.264938 -0.303040 -0.363225 -0.309161 0.578680 -0.016989 0.365773 0.916989 0.051389 -0.077572 0.420158 -0.605850 -0.435395 0.041419 0.801278 0.418899 0.411180 -1.617112 0.867567 -0.340832 0.259440 0.591932 -0.219350 -0.254925 -0.796158
are -0.039618 -0.319270 0.367866 -0.172833 0.550278 -0.098783 0.093865 0.792774 0.961543 -0.285980 -0.362310 -0.340587 -0.760609 0.885367 -1.094157 0.432796 -0.530136 -0.668073 1.172104 -0.822754 -0.868045 0.556533 -0.460467 -0.511795 0.147910 -0.408342 -0.325203 1.116692 0.672984 -0.117943 0.151620 0.678744 -0.409319 -0.336018 0.390142 -0.472811 -0.373417 -0.793062 -0.672381 0.157601 -0.349581 -0.467413 -1.244584 0.619161 -0.596865 -0.091137 1.282288 0.087916 0.613526 -1.502222
url 0.381797 0.458089 -0.079087 -0.139615 -0.755746 0.813093 0.334729 -0.223539 -0.174684 -0.249335 0.451256 -0.277221 -1.159138 0.351603 0.215983 0.877443 0.251858 0.052702 -0.200755 -0.220545 -1.080447 -0.126170 0.486476 0.020322 -0.471607 -0.399027 -0.077812 -0.663116 -0.189449 -0.153611 0.838794 0.800787 -0.152072 0.802604 0.751813 0.187958 -0.587762 0.428828 -0.018446 -0.626073 1.143245 0.013265 0.057072 0.946655 -0.159562 -0.617411 -0.866470 0.897092 -0.234913 -0.002987
retrieve 0.230745 -0.027269 -0.465707 -0.433074 0.282106 0.030645 1.068651 0.059894 -0.164002 0.019754 0.201762 -0.369433 -0.507321 0.334130 -0.802255 0.254257 0.326182 0.164061 0.393888 -0.199591 -0.754357 0.340857 -0.044216 -0.075206 -0.312939 -0.343601 0.108161 -0.007550 0.017662 -0.064524 0.420342 0.530605 0.841801 0.041163 0.798649 -0.568658 -0.628518 0.102874 0.413933 0.516678 -0.376368 -0.042644 -0.031704 0.778826 0.552593 -0.193980 -0.707152 0.813719 -0.688530 -1.062855
box 0.363872 1.258054 0.361032 0.010989 0.070808 -0.262692 -0.128440 -0.071853 -0.296137 -0.466879 -0.002487 0.158997 0.293623 0.273301 -0.951953 -0.543848 -0.195329 -0.572322 0.405877 1.296055 -0.589301 -0.172198 -0.009464 -1.584410 -0.282445 -0.534917 -0.482032 0.554678 -0.384328 -0.457919 0.902564 1.311798 -0.159225 0.922653 1.069747 0.339636 -0.615337 -0.512833 -0.744224 1.001210 0.489956 0.637904 -0.406940 -0.082215 -0.417267 0.999500 0.348045 0.187734 -0.362430 -0.717598
