</s> 1.691241 -0.445382 -0.341901 -1.013497 0.049043 -0.593393 0.152631 -0.443266 0.589006 -0.262139 0.828917 -1.016112 0.472010 1.050278 0.220518 -0.461145 0.351960 -0.579731 0.249576 0.104987 -0.083074 -1.604170 -0.264790 0.187103 0.584091 -0.428455 0.909860 -1.353610 -0.230532 0.696155 0.257778 1.449259 0.342027 1.135728 2.379526 0.869049 -0.458839 0.021002 -0.753950 0.269209 0.454769 0.789651 -0.890018 2.097227 0.226625 0.273147 -0.273853 0.876033 -0.451564 -0.055691 -0.109088 0.356409 -0.971326 -1.136870 -0.086320 -0.805905 -0.696811 0.729833 0.181794 0.226248 -0.026203 0.984920 -0.171765 -1.805171 -0.099851 -0.706329 0.423461 -0.908500 0.200925 0.865176 -1.558967 0.146304 -0.894952 1.177638 -0.985270 -0.583812 -0.259143 0.775184 0.147430 -0.390137 0.651259 0.938544 1.079853 -0.945925 -0.018880 0.536189 -0.893134 -0.638715 -1.487746 0.612754 1.860587 1.383844 0.219754 0.535761 -0.146783 -0.652780 0.564902 0.456993 -0.097903 -0.275246
<s> 0.558742 0.380670 -0.663444 -0.393705 -0.197344 -0.326784 0.489600 -0.229812 1.278200 -0.338346 0.501596 -0.509758 0.171156 -1.235872 -0.655571 0.974833 -1.065334 0.361856 0.416153 1.327807 -0.085048 -0.060773 -0.108210 0.155022 0.592783 1.204248 0.136669 -1.269493 0.161928 -0.317779 1.463660 2.304303 0.314773 -0.626106 2.088705 0.529619 0.857312 -1.092492 -0.161113 -0.414840 -0.098257 0.108768 0.768645 0.535113 0.893173 0.281172 -1.054044 0.146838 0.316124 -0.497099 -1.242239 0.450710 0.205146 0.961755 -1.612276 -0.523014 0.649925 0.279636 -0.522019 -0.927072 0.017578 -0.073695 1.046299 -1.007202 0.463013 -0.709240 0.505092 -1.118368 -0.010735 -1.042125 -1.534435 0.670936 0.742253 0.699490 -0.636315 -0.061715 -1.495185 0.643229 -0.390962 -0.860798 0.213800 0.209189 0.305607 1.042445 -0.841305 0.953035 0.389648 0.486979 -2.128415 -0.894691 0.581265 0.662811 0.482531 -0.133286 -0.584813 0.306151 -0.696700 0.210161 -0.385305 1.098630
to 0.289767 0.659328 0.797795 -0.565413 -0.394962 -0.197257 0.204978 -0.811940 0.799946 -0.256006 -0.379555 -1.063891 -0.742416 -0.323609 0.180734 0.936005 -0.180474 0.050107 -0.394487 0.695080 0.510283 -0.250978 -0.469826 -0.183608 0.961749 0.417345 -0.173206 -0.806162 0.005503 -1.378094 -0.526039 0.631275 1.144385 -0.309463 1.447725 -0.610566 -0.701241 0.142479 -0.919753 2.044063 0.120428 0.176811 -0.542960 1.267937 -0.691064 -0.116099 -1.668719 1.246633 -0.131062 -1.593552 -1.422301 1.141471 0.070981 1.069313 -0.303769 -1.545561 -0.750121 -0.717652 -0.043109 -0.656003 0.021307 -1.202937 -0.855171 -2.395024 0.448718 -0.436104 0.290602 -0.627967 0.349519 -0.588912 -1.084771 0.384287 -1.513553 -0.008343 -0.474402 -0.892166 -1.475803 0.313933 0.406425 -1.355052 -0.577070 -0.000293 0.734034 0.219255 -0.254712 -0.502495 0.622498 0.792946 -0.681610 -0.224528 0.170632 1.241902 -0.023808 -0.533368 -0.528519 -0.873915 0.592750 1.622654 0.103306 -0.176452
a 1.221243 -0.592287 -0.168987 -1.948304 0.042703 -0.655030 1.036504 -0.951100 0.280851 -0.085112 0.342297 -0.217109 -0.991031 0.531581 0.093754 1.126627 -0.483497 0.872994 0.843002 -0.098750 -0.207848 -0.700186 -0.425380 0.390329 -0.820808 -0.207696 -0.487823 -0.869177 -1.089707 -0.758981 -0.140157 0.093857 -0.056950 0.300610 2.534753 -0.157431 -0.160941 -0.006373 -0.791975 0.236659 0.746180 0.117035 -0.270055 -0.366869 0.103813 0.135541 -0.658600 0.536940 -0.869835 -0.817421 -1.197595 -0.031532 -0.304007 0.345024 -1.876093 -0.525879 -0.103040 0.958570 1.347051 0.755158 -1.114409 -1.892644 0.135586 -0.190962 0.663324 -1.534920 -0.675318 -2.210940 0.725692 -0.423617 -0.097499 -0.237229 -0.613723 -0.176291 0.407450 -0.934491 -1.344829 0.024145 -0.791278 -0.696576 0.065123 0.323057 0.019830 -0.405302 -0.643840 0.047591 1.461598 0.492378 -1.405870 0.133313 1.632466 0.647280 0.565639 0.202524 -0.618682 0.809599 -0.557363 0.660255 -0.905986 0.570224
in 1.945069 -0.933597 -0.471623 -0.507738 0.756051 0.662174 1.681241 0.109274 1.187477 -0.415010 0.516333 -1.401450 -0.032846 1.506396 -1.185028 0.027024 -0.007182 0.325004 -0.118277 -0.434264 -0.789794 -0.735604 -0.136708 -0.769734 0.580476 0.355701 0.422703 -0.036733 0.727905 -0.476373 0.033317 0.360590 0.995646 -0.771849 1.133639 0.628698 -1.181837 -0.079628 -1.822303 0.421619 -0.116134 -0.001375 -1.221090 0.518395 -0.054466 -0.083633 -0.337959 1.058308 0.013724 -0.972258 -1.231250 -0.093595 0.168035 0.021500 -1.424925 0.894942 0.198307 0.664099 0.402774 -1.098804 0.368089 -0.288613 0.056450 -1.144990 -0.043665 -0.784483 0.473463 -1.369312 -0.214947 -0.543804 -0.554547 1.393348 -0.479732 -0.670480 -0.369723 -1.019987 -0.367138 0.806655 -0.776904 -0.315159 -0.519634 0.130469 1.196834 -0.438385 -0.319506 0.434210 -1.879856 -0.211375 -0.975420 -0.182851 0.652922 1.100481 -0.408481 -0.418063 -0.387946 0.137911 -0.637322 0.185621 -0.977724 0.988627
how 0.021876 0.935342 -0.682788 -1.064538 -0.647978 -0.372537 1.145041 -0.586302 0.787782 -0.565868 -0.066918 -0.425633 -0.786564 -0.383054 -0.431144 0.747921 -0.413799 -0.204062 0.419766 0.291610 0.363484 -0.171214 0.150964 0.109102 0.454269 0.596296 -0.204352 -0.662917 -0.309065 -1.518212 0.081469 0.602337 1.066125 -0.100353 0.912542 -0.285595 -0.537065 -0.136002 -0.084581 0.508277 -0.169795 0.679701 0.317630 0.402503 -0.200978 -0.675870 -0.914525 0.603128 0.070623 -0.716885 -1.946323 0.621806 -0.280557 0.921992 -1.535009 -0.576922 0.244217 -0.476117 0.743878 -0.354926 0.113671 -0.392137 -0.027346 -1.526638 0.395646 -0.825034 0.387297 0.219554 -0.575958 -1.198692 -1.240390 0.117448 -0.433908 0.337427 -0.467279 -0.494137 -0.697847 0.215222 0.033051 -1.070196 -1.016065 -0.451202 0.875954 0.331554 -0.301229 0.288119 0.863424 0.468652 -1.071827 -0.766133 -0.305889 1.547606 -0.594830 0.094622 -0.536923 0.008675 0.392574 0.482462 0.199689 -0.056263
? 0.793840 -0.388543 -0.440362 -0.889611 0.198872 -0.541747 0.473484 -0.003137 0.394463 -0.565727 0.500704 -0.188397 -0.858716 1.219296 -0.241909 0.134084 0.522355 -0.987615 -0.431377 -1.118705 -0.019781 -0.366124 -0.021071 0.082021 0.247534 0.040291 1.005309 -0.439652 -0.227990 0.165246 -0.691024 0.530448 0.874827 1.064041 1.770331 0.448981 -1.034630 -0.009034 -0.359736 0.460005 0.268050 0.862899 -0.387538 0.857805 -0.324768 -0.844039 0.271691 0.737549 0.164236 -0.599246 -0.518971 0.394947 -0.358742 -0.659703 -0.452830 -0.422478 -0.020050 0.231732 0.416987 0.443514 0.156218 -0.146428 -0.209273 -0.887423 -0.252623 -0.701884 0.261993 -0.425364 0.367398 0.494704 -0.844090 0.018297 -0.458309 0.634594 -0.338810 -1.204852 0.110128 0.438820 -0.180930 -0.866980 -0.314073 0.745536 0.709829 -0.919459 0.235159 0.755410 0.004225 -0.164123 -1.207326 -0.280286 1.427898 0.516134 -0.445713 0.131322 -0.072470 -0.441063 -0.024260 -0.267764 -0.408829 -0.663791
c 0.335451 -0.047316 0.249043 -0.664251 0.240369 0.170725 0.056536 0.070136 0.532829 -0.066225 -0.882977 -0.290922 -0.288881 0.664182 -0.442122 0.465819 -0.172357 -0.959577 -0.617963 0.210947 -0.791542 -1.007094 -0.638787 -0.020937 0.161346 0.351648 0.227890 0.029452 -0.198499 -0.338815 0.814589 0.525861 0.645089 0.180696 2.123877 0.395727 -0.537554 -0.150832 -0.584587 0.588983 0.657735 0.506738 0.031458 0.669824 1.045526 -0.709938 -0.460511 0.556095 0.183913 -0.800977 -0.891275 0.018853 -0.535150 -0.154363 -0.923955 -0.299892 0.032646 0.754836 0.603998 -0.222564 0.539740 -0.424194 -0.386262 -0.668720 0.268420 -0.496043 -1.042617 -0.518433 0.636953 -0.729305 -1.445298 0.503395 -0.864988 0.289525 0.179671 -1.290177 0.551181 0.978897 -0.318421 -0.745910 -0.319514 0.113975 0.160410 -0.277986 -0.338988 0.655493 -0.851619 -0.029175 -1.658031 -0.834352 0.078237 0.419234 0.065624 0.022568 0.155102 -0.551344 -0.266841 -0.646185 -0.750996 1.095661
# 0.187541 0.021312 0.223192 -0.669816 0.130638 0.111137 -0.125657 0.141397 0.640755 0.019208 -0.784729 -0.255425 -0.468163 0.520378 -0.446765 0.513214 -0.294818 -0.941764 -0.384000 0.318840 -0.817250 -0.870351 -0.354866 0.065085 0.325779 0.376571 0.485043 -0.080293 -0.325170 -0.308946 0.617515 0.860439 0.562674 0.275996 2.008993 0.484051 -0.263509 -0.288841 -0.416454 0.463351 0.681683 0.673030 0.184954 0.642491 0.989386 -0.627427 -0.444504 0.528409 0.200097 -0.637497 -0.908586 0.009057 -0.519487 -0.119587 -0.828196 -0.291261 0.170562 0.459919 0.559018 -0.109510 0.432135 -0.289434 -0.421892 -0.426151 0.366769 -0.559671 -0.880789 -0.591771 0.653737 -0.534064 -1.651806 0.335442 -0.575356 0.365272 0.093469 -1.179848 0.545268 0.935001 -0.370967 -0.646914 -0.311657 -0.075178 -0.145163 -0.204815 -0.263806 0.751551 -0.944060 -0.133015 -1.733591 -1.000423 -0.171468 0.413465 -0.153172 0.121817 0.211193 -0.385554 -0.160619 -0.727077 -0.430993 0.966268
from 0.083184 -0.630575 0.265718 -1.344767 1.764369 0.232705 0.824025 -1.611330 0.237392 0.246243 -0.570075 -0.651456 0.243593 0.616440 -0.666760 0.372202 -0.013758 -0.476847 0.276586 -0.300350 -0.339155 -0.757555 -0.324378 -0.983548 -0.294059 -0.650130 -0.037601 0.361156 0.197351 -0.899295 -0.037189 1.578499 0.091526 -0.354782 2.116312 -0.777928 -0.308141 0.286986 0.234600 0.468800 0.153825 0.417789 -0.132640 1.662355 0.758567 -0.714669 -0.848596 0.951138 0.111979 -0.490854 -0.424128 0.533263 -0.132974 0.231757 -0.748548 -0.688678 -0.374312 0.629205 -0.571592 0.085468 -0.349551 0.265691 -0.140437 -0.060143 -0.010747 0.678623 -0.114296 -0.158459 -0.482797 -0.475561 0.243977 -0.223327 -1.296800 -0.265601 -0.076352 -0.764296 -1.001860 1.083033 0.462352 0.100207 -0.480026 1.043871 -0.131301 -0.232964 0.374361 1.243471 0.666906 -0.498079 -1.083343 -0.632819 1.134254 0.890747 0.195383 0.022652 -0.528583 -0.237667 -0.674281 -0.024375 -0.322391 1.024639
of 0.569577 -1.215275 0.659672 -1.607998 0.754312 0.051815 0.860403 0.758142 1.072090 0.649714 -0.517985 -0.007669 -0.789689 0.104754 -0.525525 0.612538 0.148439 -0.595332 0.915537 -0.439362 -0.973800 -0.947730 -0.149813 -0.233476 0.458153 -1.389168 0.400767 0.412593 1.571939 0.486441 -0.334302 1.366791 0.342403 0.963181 1.047897 -0.413546 0.448545 -0.057432 -0.188174 0.092259 -0.558133 -0.140507 0.519963 0.415470 -0.364857 1.191752 -0.863718 0.792800 -0.478640 -0.227558 -1.222041 -0.322015 -0.479903 0.747091 -0.653839 0.006272 0.692835 -0.307331 1.018755 0.142037 0.150422 -0.948367 0.388880 -1.287588 0.223499 -1.092770 0.447255 -1.191182 -0.853891 -0.197612 -0.750937 -0.108663 -0.174162 -0.440293 -0.532183 -1.033093 -1.341960 0.056029 -0.051660 -0.719018 0.033583 1.220742 0.984630 -0.911588 -0.030947 0.216099 -0.172842 1.362571 -1.121671 -0.783132 0.769486 -0.092264 0.852939 0.062944 0.484517 0.055375 0.785569 -1.457813 0.268370 -0.116101
the 1.056065 -0.603350 -0.018688 -0.918220 0.671426 -0.364450 1.704065 -0.147347 0.838232 0.307572 -0.555887 -0.200121 -0.471426 -0.822791 -0.513885 0.492591 0.898391 -0.410042 -0.016464 -0.549326 -0.658175 -0.348124 0.536440 -0.444340 -0.052282 -0.519332 0.654337 1.155731 -0.062284 0.454131 0.199660 0.712543 -0.960075 -0.095051 0.524213 -0.408179 -0.354844 -0.095616 -0.018758 0.745952 0.578456 0.355933 0.122196 1.170333 -0.709398 -0.052375 -1.418199 0.949249 0.098288 -0.479325 -0.617478 -1.111656 -0.252538 1.707611 -1.965120 0.167344 -0.322123 -0.899400 0.664428 -0.943641 0.313392 -0.347207 0.295240 -0.609847 0.623563 -0.282711 0.649053 -0.990429 -0.378973 -0.316681 -0.757483 0.942610 -0.229169 1.029782 -1.089309 -0.620903 -0.658531 0.461795 -0.762862 -1.312315 -0.518599 -0.392018 -0.205318 -0.417474 0.324919 0.327670 0.873610 -1.050242 -1.302420 -0.105334 0.733816 0.875892 -0.524704 -0.148507 -0.224531 0.059270 0.358015 -0.358698 -0.323860 -0.905162
with 0.889852 0.231612 0.733682 -0.515483 -0.431670 -1.153763 0.432833 -0.215069 0.633011 -0.294968 0.112676 -0.257670 -0.245078 0.619339 0.067045 0.250087 0.771331 0.118543 -0.275985 -0.158699 -0.735909 0.943703 -0.613547 -0.168701 0.527575 -0.592289 0.127691 -0.098002 -0.887133 -0.543243 1.562401 1.467033 -0.373942 0.520458 1.948864 1.714694 -0.264804 -0.940864 -0.972041 0.868365 0.680913 -0.322921 -0.845857 0.758117 0.169413 -0.514787 0.470497 0.459618 -1.349028 0.154098 -1.611773 0.650270 -0.839763 0.853825 -0.935339 -0.375942 1.264795 -0.684243 0.537267 0.331406 0.168645 0.470644 0.120344 -1.668283 -0.070446 -0.246400 0.299265 -0.244829 0.187991 -0.558905 0.184619 -0.143754 -0.252387 -0.310257 -0.670815 -0.836472 0.210736 0.241938 0.019933 -0.237810 -0.668859 0.391594 -0.282557 0.043002 -0.152283 -0.494186 -0.754776 -0.340582 -0.594930 -1.607794 0.786595 0.052265 1.437973 0.613086 -0.107590 0.134015 -0.258586 -0.949709 -0.282396 0.582632
. -0.034538 0.223529 0.144768 0.222477 1.258608 1.414841 0.389111 -0.405101 -0.574014 -1.504648 0.358871 -0.068923 -0.273855 0.406451 0.211493 0.944948 -0.328158 -0.576474 -0.630274 -0.711635 -1.313672 -0.451502 0.676058 -0.895724 0.302641 0.522896 0.042299 -0.611406 0.213469 -0.937896 0.327938 0.500099 0.620145 -0.416203 1.773342 0.461369 0.329316 0.505026 0.492796 0.952742 0.689240 -0.720167 -0.860618 0.814647 1.104728 -0.141145 -0.816714 0.773591 0.393218 -0.320536 -1.050213 0.274509 0.160982 -0.526131 -0.429015 0.142051 0.877962 -0.134560 1.672304 0.348832 -0.796478 0.154753 -0.564621 -1.429562 -0.253924 -1.255184 0.627829 -0.396243 0.201617 -0.069726 -0.155271 0.787622 0.029755 0.841949 -0.974506 -1.013875 -0.259960 1.152075 -0.675630 -0.128854 0.515694 -0.825101 -0.571662 0.483022 0.812281 0.243878 0.624351 0.098813 -0.219281 -0.969476 0.194049 0.868922 0.592110 0.125084 -0.090832 -0.254886 0.000806 -0.622768 -0.345740 -0.481879
using 0.174729 -0.094068 -0.356656 -0.212003 -0.194068 0.372239 -0.623384 -0.418684 0.488620 0.005274 0.207214 0.254401 0.143610 0.410302 -0.816800 0.354246 0.481825 -0.218701 -0.153256 0.290623 -0.508917 -0.262318 -0.132893 0.220558 0.491152 -0.258436 0.551027 0.204388 -0.135592 0.339177 0.714958 0.713530 0.267206 -0.163647 2.319137 0.362855 -0.537156 0.041235 0.280202 1.331753 0.654174 0.609865 -0.545094 0.851720 0.876881 -0.455058 -0.000266 0.738994 -0.841206 -0.562330 -0.465039 0.169475 -0.198955 0.162058 -0.734073 0.244802 0.899350 0.558018 -0.009344 -0.316887 -0.266554 0.247673 0.882429 -1.026028 -0.252733 -0.144012 -0.203291 -0.413261 0.374636 -0.031523 -0.332519 -0.162723 0.473759 0.521529 -0.160544 -0.909826 0.404203 1.030825 -0.676331 -0.596152 -0.760426 -0.221944 1.194152 -0.170178 0.962975 0.723514 -0.513942 -0.243739 -1.006025 -0.683878 0.290918 0.833473 -0.058115 0.230540 -0.874707 -0.075547 0.044195 0.039842 -0.847320 0.380966
- 0.254634 0.982251 -0.327149 0.312825 0.496112 0.072118 -0.519837 0.686069 0.722187 0.309419 0.256240 -0.933663 -1.039597 -0.346092 -0.159925 0.580926 -0.364501 -0.701437 0.847040 0.322798 -0.965972 0.046773 0.561906 0.252728 0.802206 -0.147094 1.167150 -1.139965 -0.515617 0.051719 -0.746584 1.162006 0.485789 -0.527088 2.276974 -0.438606 -1.636518 1.377295 0.080312 0.208525 0.337625 0.143907 -0.162751 0.232031 0.101326 0.267015 0.505642 1.031310 0.255121 0.109132 -1.549759 -0.724103 -0.401215 0.784787 -1.547710 0.438695 -0.637313 -0.984167 0.340718 0.436992 -0.176981 0.088401 -0.346044 -0.623449 0.467917 1.000333 0.382209 -0.566139 0.711218 -0.806527 -0.597139 0.128964 0.082786 0.459176 0.138087 -0.265784 -0.635407 1.239192 -0.280832 -0.511753 0.613985 0.253927 -0.714618 -0.488950 -1.235537 -0.934787 -0.846823 -0.116625 -0.740078 -1.115883 0.804282 1.009548 -0.297261 0.991523 0.096625 0.034889 0.012197 -0.750259 -0.861701 0.731234
i -0.200803 0.400911 -1.115437 -1.026726 -0.242765 -0.603597 1.693726 -0.580737 0.211456 -0.788958 -0.662752 -0.466493 -1.161571 -0.552259 -0.612773 0.749567 -0.186351 -0.759042 0.784361 0.466380 -0.474193 -0.203583 0.604466 0.612940 -0.376543 0.648030 -0.346780 0.242756 -0.545904 -0.845126 0.151919 0.622302 0.619596 0.342715 0.529168 -0.190164 -0.476788 -0.020504 0.120950 0.079603 0.182488 0.859913 0.006874 0.550239 0.167974 -0.338997 -0.035678 0.239148 0.065680 -0.903491 -1.491281 0.721172 -0.228045 0.833761 -1.472557 -0.398042 0.056925 -0.223223 1.115460 0.042051 -0.382436 -0.114048 0.454520 -0.587227 -0.064625 -0.186742 -0.409759 0.155838 -0.507309 -0.818846 -1.007087 -0.337462 -0.110436 0.262144 -0.666436 -0.303579 -0.716900 -0.286194 -0.010078 -0.550662 -1.058081 -0.719599 0.222195 0.263465 0.067308 0.306549 0.507415 0.389915 -0.948321 -0.705165 -0.240559 1.322890 -0.367077 -0.053702 -0.415265 0.189605 0.088068 0.104382 0.623313 -0.072037
string 0.910349 0.199195 -0.367235 -0.608263 0.254360 0.627996 -0.071789 -1.019162 0.376849 0.035156 -0.006583 -1.482907 0.183779 0.086988 0.749834 0.045751 0.236821 -0.416782 -0.100833 -0.733020 -0.207494 -0.681038 0.220326 0.156479 0.223695 -0.303240 -0.326619 0.918282 0.343219 0.253246 0.355028 1.360059 0.510484 0.593330 0.994847 -0.385462 -0.769377 0.800055 -0.214187 -0.023311 0.654225 -0.357065 -0.210677 1.575986 0.359845 -0.863297 -0.536621 0.779613 -0.302095 -0.737021 -0.900399 0.579455 -0.086847 0.616492 -1.265669 -1.115625 0.000228 -0.339194 0.620388 0.241058 0.979008 -0.756647 -0.203815 -1.012628 0.663623 -0.198469 -0.754853 -0.705292 0.144658 0.636907 -0.696336 0.056441 1.116804 0.035868 -0.030071 -0.380164 -0.260070 -1.006442 -0.984020 -0.664348 -0.172422 -0.027546 -0.903717 -0.934990 0.214653 0.243838 -0.121361 0.989908 -1.048119 -1.073510 0.369309 0.214034 1.013987 -0.187135 0.486148 0.829019 -0.522573 -0.125924 -0.105915 1.132277
and 0.997302 -0.117841 0.245797 -1.274187 -0.268707 -0.382448 0.706392 -0.467946 -0.089373 -0.066392 -0.768277 0.081367 -0.576340 0.871956 -0.067320 -0.157557 -0.440841 -0.642286 -0.194483 0.247783 -0.432485 -0.226712 -0.200986 0.321812 0.887960 0.460913 -0.373153 0.032898 0.043533 -0.516036 0.504667 1.006919 0.130016 -0.056414 1.380800 -0.119592 -0.009952 0.407600 0.235886 1.143050 1.091388 -0.490599 -0.168151 1.466642 0.458594 0.590959 0.484551 0.654257 -0.578250 -1.064918 -0.670244 -0.485521 -0.067953 0.192590 0.061387 -0.215517 0.126114 -0.299014 0.158858 0.007988 0.577488 -1.106373 0.459327 -0.754394 -0.403423 0.520135 0.185448 -0.547346 -0.191014 -0.997609 -0.337577 0.001787 0.190607 0.409285 -0.872339 0.029250 -0.070886 0.634853 -0.742947 -0.847771 -0.493714 -0.098139 0.225418 -0.262118 -1.055376 1.038704 -0.355136 -0.325445 -0.872163 -0.450452 0.065401 0.763417 0.179942 0.181581 0.073735 0.753200 -0.246035 -0.441896 -0.361892 -1.098883
get 0.191961 -0.282885 0.021911 -0.885002 0.428487 0.351442 1.190298 -0.508903 0.309315 0.162660 0.062503 -0.608788 -0.721735 -0.729536 -1.069784 0.553814 0.460342 -0.115035 0.807347 0.348124 -0.238919 -0.136517 0.295052 -0.807210 -0.326797 -0.295714 -0.067429 -0.282409 0.025203 -0.613168 0.999335 0.462965 0.419132 -0.019741 0.929505 -0.630830 -0.339263 -0.143513 0.722726 0.708208 -0.220005 0.063598 0.531971 0.723290 -0.298450 -0.290384 -0.641202 1.143324 -0.148298 -0.127354 -0.719369 0.031614 -0.206165 0.543926 -0.392771 -0.417117 0.290368 -0.288569 0.052325 0.130929 0.515761 -0.138050 0.267232 -0.710357 -0.219016 0.073816 -0.381266 -0.208313 0.200750 -0.095803 -0.084857 0.196462 -0.153775 0.080165 -0.724441 -1.015336 -0.418575 0.006287 0.165847 -0.907169 -0.268679 0.538649 0.617858 -0.368477 0.204992 0.804678 0.299049 0.167281 -0.346934 -0.757821 0.255180 1.088690 -0.490489 -0.117458 -0.398974 0.293660 0.538849 -0.619243 -0.174058 -0.341305
an -0.372800 -0.047591 -0.069851 -0.860166 -0.593661 -0.696297 0.104329 -0.030777 0.026637 0.485606 -0.381931 -0.355635 0.278601 0.266853 0.171078 0.868417 -0.133793 -0.116457 -0.147961 -0.139444 -1.910188 -0.908573 1.077678 -0.089776 -0.464722 0.478265 -0.566054 -0.026834 0.000973 0.450191 0.105662 0.941488 0.805056 -0.426653 0.880719 -1.046109 0.088483 -0.376520 0.054215 0.561916 0.255654 0.435337 -1.065820 0.838576 0.170545 -0.541922 -0.353753 0.656207 0.419186 -0.205246 -1.180529 1.081771 -0.022937 0.536242 -0.371841 0.921763 1.192251 -0.379969 -0.832714 0.360134 0.255635 -1.029082 0.250582 0.064402 -0.490758 -0.069795 1.341816 -0.421621 0.667936 -0.232046 -0.740978 0.407205 -0.368436 -0.255106 -0.732476 -0.300395 -0.514533 0.750466 -0.549038 -0.239592 -1.539256 0.739929 0.582271 -0.182302 0.738037 0.065766 -0.679816 0.275502 -1.122160 -0.525552 0.246798 1.240474 0.910339 -0.851983 0.675844 -0.026149 -0.433136 0.154330 1.200101 0.509481
for 0.421677 -0.260091 -0.548633 -0.851781 -0.046115 -0.108367 -0.094626 -0.114367 0.969181 -0.059024 1.157603 -0.834626 -0.848387 0.092634 0.323408 0.422691 0.695666 -0.269291 0.456618 0.694312 -1.689458 0.494107 0.460445 0.056161 0.445967 0.376760 -0.774127 -0.752616 -0.029965 0.247262 0.844670 -0.016328 0.133657 -0.271123 1.508810 -0.626953 -0.387555 -1.336277 0.905837 -0.239132 0.397007 0.048813 -0.643645 0.925847 0.278682 -0.898401 -0.789105 0.877007 0.440173 -0.504332 -0.823942 -0.390492 0.139224 -0.146982 -0.019855 -0.427024 -0.630852 0.101188 -0.208087 0.545588 -0.614144 -0.651332 0.696165 -0.907656 0.597262 -0.252153 0.304158 -1.627260 -0.407447 -0.072522 -0.719348 -0.296509 -0.189362 0.522108 -0.156198 -0.983078 0.406681 -0.635272 -0.945240 0.020855 0.186162 -0.438099 0.222562 -0.284875 0.076265 -0.031517 -0.500216 -0.283364 -1.262493 -0.771883 0.759261 -0.192925 -0.014575 -0.100136 -0.235229 -0.335425 0.509921 -1.421229 -0.576623 -0.192636
list 0.384480 0.031336 -0.574312 -1.150651 -0.123307 0.085112 0.275174 -0.275971 0.477709 0.528390 -0.124330 -0.246662 0.371530 0.644899 -1.257282 -0.634334 -0.183034 -0.399972 0.671566 0.932317 -0.342438 -0.440456 -0.413371 0.410164 -0.347998 -0.804768 -0.578741 0.285170 0.750444 -0.135402 -0.523411 0.635749 0.067574 0.003029 0.971437 -0.224267 0.152747 -0.283962 -0.268559 0.611548 0.324956 0.202278 -0.055625 1.524822 0.108282 0.081884 -0.727418 0.172507 -0.248476 -0.698841 -1.026183 0.658317 0.441926 0.972063 -0.789689 -0.755963 -0.113788 -0.016137 0.045713 0.921107 0.633107 0.101274 -0.060018 -0.519905 0.158906 -0.638107 0.123263 -0.850991 0.216716 -0.586788 -0.154082 -0.315799 0.078040 0.866766 -0.501289 -1.229884 -0.643759 -0.011783 0.158503 0.153048 0.126294 0.002366 0.310144 -0.559772 0.220115 -0.501479 -0.326203 0.818409 -0.649703 -0.373770 1.181539 1.042585 0.820865 -0.171852 0.857872 1.391076 -0.656910 -0.716777 -0.572099 -0.568204
on 1.108988 -0.354810 0.234805 -0.967457 0.475262 -0.807663 0.168231 -0.223075 0.654676 0.289235 1.459564 -0.858403 0.029825 0.584730 -0.478461 0.476791 0.476555 -0.480921 -0.723630 0.496100 -0.279488 -0.050264 0.346575 -0.919947 -0.127712 0.452325 0.137346 0.698007 0.515514 -0.007249 0.023551 1.466475 0.223771 1.072878 1.352758 -0.833729 -0.631448 -0.501218 -0.786180 1.040939 0.808445 1.200108 0.723267 0.822868 0.309050 0.509320 0.106922 -0.118976 0.166870 0.368809 -0.763408 -0.484111 0.395661 0.418114 -0.630202 0.521415 -0.103488 0.321661 -0.044717 0.297764 -0.643883 -0.794608 -0.357029 -0.126298 0.337272 -0.846366 0.098288 -0.217788 0.189514 -0.529865 0.254189 0.014338 -0.277405 0.471445 -1.380945 -0.365397 0.083172 0.539779 -0.205121 -0.175378 -0.139006 -0.800933 0.374329 -0.493491 0.338749 -0.690268 0.183404 -0.251402 -0.519871 -0.207788 -0.278264 1.180189 0.049635 0.159831 -0.250786 0.632156 0.544022 -0.319256 0.056246 0.145497
file 0.501700 -0.303371 -0.453498 -0.302567 0.311682 1.191615 -0.946790 -0.085588 0.096177 -0.656312 0.117749 -0.836136 -0.103174 0.812585 -0.230011 0.430178 -0.112989 -0.786339 0.073942 0.312576 -0.894960 -0.847981 0.159101 -0.842505 -1.048121 0.421753 -0.242275 0.313437 -0.639695 -0.881161 -0.192728 0.334594 -0.885140 0.093884 1.314559 -0.057036 -0.737933 0.402566 -0.378288 0.204553 0.179381 -0.321307 -0.816819 0.713147 0.707800 0.130399 -0.270786 1.319660 -0.337943 -1.204513 -0.046016 0.602706 -0.717040 -0.169242 -0.874693 0.584915 0.092297 -0.546496 0.623076 -0.009057 -0.486508 -1.476517 0.312955 -0.888296 0.099461 0.063798 0.831550 -0.287571 -0.403753 0.140921 -0.463047 0.060278 -0.223116 1.044874 -1.148509 -1.070227 -0.697220 0.734162 0.232391 -0.037148 -0.888141 0.968455 0.159108 0.472064 0.074066 1.051337 0.458179 -0.154293 -0.771271 -0.169016 -0.464458 -0.072267 0.856641 0.293604 -0.656509 -0.030251 0.223618 -0.348305 -0.279114 0.898144
value 0.566746 0.134891 0.706842 -0.947516 1.328905 0.634526 1.009375 -0.828435 0.827700 -0.644803 -0.519535 -0.438276 -0.176302 -0.539594 -0.807449 0.170285 -0.234094 0.239580 0.268242 0.285317 -0.597470 -0.733654 -0.081327 0.874718 -0.526466 -0.181332 0.396667 0.134060 0.787003 0.529632 1.027204 0.637879 0.463769 -0.090659 1.524748 -0.185064 0.134212 0.057342 -0.080588 1.357439 0.556593 0.319787 -0.599211 1.023805 -0.423836 -0.421910 -0.138779 0.219092 0.319722 0.489935 -0.317529 -0.470433 -0.750342 0.442602 -0.246666 -0.880452 -0.030903 -0.975707 -0.234964 0.673600 0.278977 -1.458046 -0.622345 -0.583828 -0.023288 -0.344147 0.228852 -0.911673 -0.500319 -0.377756 0.201558 0.216487 0.840036 0.461980 -0.368798 -0.604254 -0.422969 -0.112303 -0.492456 0.261888 -0.500154 0.379711 -0.091210 -0.309175 0.387627 0.395633 0.104183 0.843535 -0.745407 0.093357 0.620878 1.010135 -0.151398 0.231628 0.329184 0.408801 -0.431353 0.071132 -0.146451 -0.170373
can -0.284990 0.341860 -0.833250 -0.776948 -0.321815 -0.183183 0.907542 -0.312072 0.178875 -1.115375 -0.171786 -0.126940 -1.089965 -0.168440 -0.700655 0.604193 -0.331502 -0.720842 1.030300 0.263135 -0.749191 -0.060549 0.167652 0.743831 -0.255202 0.669761 -0.241187 0.158345 -0.622935 -0.783333 0.012612 0.634524 0.662585 0.308505 0.410267 -0.516628 -0.467444 -0.203696 0.011303 0.131361 0.120911 0.754177 -0.387525 0.307890 0.501354 -0.401235 -0.033145 0.360810 0.145504 -0.751181 -1.391440 0.063798 -0.349993 0.511037 -1.192981 -0.366057 0.241492 -0.605004 0.819029 -0.225686 -0.443976 -0.037068 0.373009 -0.502201 0.073897 -0.376692 -0.061315 -0.054620 -0.709365 -0.787727 -0.753507 -0.077921 0.385778 0.469258 -0.368406 -0.197451 -0.444649 -0.167006 -0.007741 -0.480683 -0.871923 -0.761959 0.078927 0.442529 0.108180 0.348188 0.486339 0.256551 -0.569498 -0.358651 -0.201036 1.371944 -0.339875 -0.071924 -0.320977 0.499347 -0.007433 0.142467 0.812456 -0.017513
, 1.227426 -0.817333 0.441546 -1.438657 -0.648435 -0.161861 0.100166 -0.767383 0.378152 0.427921 -0.521067 -0.659862 -0.116111 -0.167912 -0.623092 0.384774 -0.000745 -0.868412 0.594878 -0.375939 -0.395270 -0.345642 -0.021758 0.401935 0.632388 0.634923 -0.172247 0.497662 0.380430 -0.370079 -0.050949 0.037593 0.230213 -0.455590 1.506077 0.413078 -0.791594 0.013715 0.849326 1.019063 0.949380 0.303928 -0.413381 1.558007 0.086770 0.717590 0.522856 0.385151 0.254066 -0.749893 -0.906179 -0.565694 0.323643 0.176838 -0.378894 0.059574 0.393903 0.037741 1.309298 0.420997 -0.041235 0.384960 0.013568 -0.065393 1.001154 0.419209 -0.347779 -1.113503 0.367012 -0.628588 -1.029829 -0.323013 0.793683 0.516614 -0.188984 -0.036889 -0.370312 0.932152 0.254618 0.046493 -0.180790 -0.397125 -0.066626 -0.113713 0.462623 0.346638 -0.546772 0.459656 -0.053927 -1.154402 0.348390 0.520988 0.878885 0.061540 -0.245478 -0.266633 0.301662 0.021999 0.363190 0.418592
data 0.641081 -0.839517 -0.123097 -0.109510 -0.028582 -0.397405 0.483746 -0.587411 0.291230 0.113321 0.255100 -0.500031 -0.223737 -0.204924 0.297716 0.194789 -0.462379 -0.153330 0.310819 0.365261 -0.799813 -0.144061 -0.573206 0.148219 -0.276787 -0.979111 0.524004 0.518794 -0.141083 0.651168 -0.185247 0.716169 0.594257 -0.924542 1.538179 -0.889903 -0.115004 -0.459980 -0.667517 1.038370 -0.249996 -0.962645 0.985396 1.508349 0.179212 0.150662 0.476379 0.915411 0.297835 -0.339262 -0.902137 0.089872 0.249092 0.351304 -0.511339 -0.451827 -0.356403 0.231988 0.050655 0.101456 0.137903 0.210056 0.305983 -0.869470 0.177865 0.685336 0.538427 -0.631887 -1.559404 0.577559 -0.813701 -0.965044 -0.708430 0.085372 -0.621736 -1.475023 -0.441760 0.567120 -0.131150 0.705943 -0.771239 -0.460028 -0.764347 0.295693 -0.270246 1.224553 0.295156 0.767172 -0.678379 -0.383829 0.417423 0.517637 -0.321201 0.440851 -0.302170 0.247516 -0.250216 -0.166189 0.423940 0.654934
is 0.680722 -0.205917 -0.117450 0.174377 0.469776 0.119887 0.342737 -0.053857 0.965166 -0.497197 -0.447586 -1.156490 -1.333467 -0.386605 -0.578709 0.478860 0.179148 -0.655254 -0.100171 0.161390 -0.464922 -0.329714 0.112671 -0.593657 -0.159790 0.716645 0.833518 -0.036344 -0.256811 0.347888 0.073739 0.179738 0.151294 -0.040655 1.322703 -0.110868 -0.326385 -0.787033 -1.099142 1.094939 0.017655 -0.258956 -0.207069 0.844923 -0.949196 -0.128629 -0.218031 0.169297 0.360235 -0.463395 0.638058 0.456275 0.220259 -0.011367 -0.810444 0.345913 -0.136882 0.250436 0.621468 0.211950 0.134300 -0.897460 0.224944 0.487824 0.920475 0.030381 0.149731 -0.816135 0.968644 0.269318 -0.386378 -0.182408 0.467771 0.273283 -0.376822 -1.420422 -0.707717 0.396285 0.187607 -0.379620 -0.142617 0.905882 -0.008511 -0.046049 0.969685 0.234651 0.383188 0.836650 -0.419333 0.127647 1.111526 0.806583 -0.113493 0.077401 0.292184 -0.050066 -1.006616 0.084636 0.372527 0.258947
net 0.150744 0.225383 0.288861 -0.013672 0.473615 0.973499 0.676616 -0.414644 -0.449708 -0.603397 -0.028272 -0.002554 -0.378394 -0.038253 0.205585 0.289574 -0.392063 -1.061679 0.218193 -0.327523 -1.323595 -0.354817 0.279551 -0.545020 -0.029223 0.327692 0.151463 -0.681426 -0.380521 0.059194 -0.179388 0.727650 0.498000 -0.521599 1.696630 0.903008 0.254994 0.112012 -0.042523 0.629067 0.991357 -0.167901 -0.047880 0.477507 1.102737 -0.114860 -0.510740 0.229484 0.201005 -0.522549 -1.054227 -0.277075 0.263107 -0.400148 -0.113412 0.651642 0.031055 0.098908 0.954859 0.233724 -0.829813 0.553165 -0.859083 -1.169115 0.105387 -0.897074 0.386610 -0.341560 0.760181 0.432105 -0.290371 0.385070 -0.430841 -0.084238 -0.461483 -0.135846 0.700249 1.175476 -0.138529 0.035886 0.365507 -0.484233 -0.219238 0.180950 0.735648 0.124642 -0.433519 0.332300 -0.661345 -0.996931 0.261077 0.486374 0.351049 -0.096236 -0.226194 -0.598647 -0.423525 -0.228532 -0.377251 -0.326448
linq 0.339205 0.072734 -0.511949 0.051578 -0.355549 -0.072282 0.191056 -0.519840 1.308744 0.851511 -0.333240 0.402965 -0.104021 0.856482 -1.266358 1.031191 -0.266500 -0.732077 -0.347784 0.823421 -0.625777 0.763399 -0.249428 0.603013 0.394112 -0.451232 -0.092612 -0.268716 0.221101 0.568180 0.414946 1.104076 0.238424 0.182777 0.799839 0.535383 -0.358321 -0.837528 -0.168589 1.332838 -0.335872 0.474144 -0.936423 0.326204 0.606066 0.252845 -0.047194 1.016523 -0.891946 -0.618097 -0.631711 0.931866 -1.011379 0.756930 -0.736506 -0.311550 0.118740 0.100482 -0.197038 0.200307 0.437154 0.816447 -0.356754 0.091581 -0.366158 0.124477 -0.230188 -0.739877 -0.082987 -0.409386 -0.306869 -1.152159 0.201799 0.202825 0.332584 -0.402354 -1.361929 0.284313 -1.109373 0.278437 -0.253858 -0.311848 0.447046 -0.056721 0.952356 -0.417499 -0.228762 0.580765 -0.530945 -1.129783 0.559307 0.688047 0.386091 0.315148 0.172008 0.542364 0.249309 -0.103866 -1.178086 -0.513390
do -0.076236 0.455346 -0.816156 -0.927219 -0.471785 -0.415081 1.188654 -0.408026 0.184557 -0.580640 -0.520414 -0.361195 -0.754924 -0.180030 -0.374397 1.006220 0.100029 -0.499823 0.343061 0.101137 -0.244845 0.178795 0.542858 0.563681 -0.105271 0.317883 -0.474379 -0.004560 -0.229619 -0.661616 -0.102579 0.478168 0.518990 0.249174 0.377952 -0.101188 -0.229907 -0.111469 0.068217 -0.020587 0.473852 0.348304 0.043522 0.399671 0.033377 -0.155266 -0.233766 0.385208 0.106300 -0.934593 -1.408387 0.559739 0.063052 0.916337 -1.302330 0.146728 0.019814 0.093544 0.905739 -0.188617 -0.203285 0.021405 0.440035 -0.646979 -0.066382 -0.179968 -0.380693 0.211923 -0.442273 -0.800640 -1.098273 -0.352926 0.013886 0.123302 -0.494772 -0.149923 -0.705347 -0.052012 -0.504731 -0.486899 -0.871235 -0.845665 0.425168 0.322678 0.118202 0.047874 0.078765 0.266533 -0.818407 -0.660941 -0.119129 0.847002 -0.064899 -0.107349 -0.141513 0.019707 0.161248 0.271661 0.409246 0.028184
' -0.292609 -0.606373 -0.633434 -0.274238 0.767757 -0.276571 0.918272 -0.085327 0.325515 -1.568075 0.112431 0.132699 -0.779942 0.676405 0.103063 0.268926 0.335896 -1.087450 0.472804 1.381993 -1.015582 -0.821947 -0.577709 0.236467 -0.153414 -0.343739 0.914499 -0.186293 -0.276043 0.126054 0.507495 0.681674 0.499510 0.417431 1.209907 -0.628060 -0.093532 0.026808 -0.223657 1.262450 0.640261 -0.385831 -0.383218 0.179711 0.755177 -0.588084 0.042957 0.499502 0.294378 -0.662340 0.061463 -0.038993 0.432881 0.611067 -0.550727 -0.069104 0.314337 -1.398342 0.196095 0.032173 -0.094499 0.415351 0.422279 -0.621086 0.167053 -0.279951 -1.787365 -1.283566 0.331776 0.190952 0.553641 0.440461 0.089042 0.095151 -0.824108 -0.719657 -0.409111 -0.361991 0.378475 -0.782223 -0.471710 0.635285 -0.294413 0.304469 -0.711390 0.118964 0.170964 -0.213796 0.316153 -0.312538 0.466759 1.390759 0.124258 -0.658992 0.044499 -0.317315 0.326478 -0.096677 1.291134 0.244133
xml 0.415799 0.452887 -0.193377 -0.083315 -0.596452 0.401163 -0.232072 0.385379 1.002174 0.702267 0.353851 0.264241 -0.496847 0.672233 -0.705773 1.751970 0.052510 -0.226792 -0.368316 0.353052 -0.968413 0.076408 0.269458 0.391542 -0.574633 -0.496228 -0.618910 -0.095849 0.135057 0.199563 0.279843 0.960938 0.247293 -0.482875 0.950422 -0.178542 -0.085080 0.080967 -0.187840 0.433258 0.367549 0.164563 -0.879239 0.961389 0.770850 -0.493756 0.346536 1.681762 -0.335241 -0.149464 -0.532815 0.167081 -0.498212 1.049101 0.057780 -0.243466 0.327904 -0.462733 0.029917 0.637537 -0.035664 -0.664334 -0.800040 -0.375376 -0.078456 0.425709 -0.077622 0.671941 -0.101595 0.616365 -0.922333 0.256709 -0.446504 0.839975 -0.273182 -0.757441 -0.971922 -0.007496 -0.248491 0.673319 -0.509429 0.521279 0.105399 -0.118169 -0.192414 1.359891 0.161670 0.081303 -1.308998 0.018632 -0.123273 0.680533 0.895157 0.166771 0.693910 0.034228 -0.296423 0.119268 -1.017900 0.695719
array 0.226059 0.173624 -0.003401 -0.418206 -0.484158 -0.254797 -0.390214 0.793337 -0.665875 -0.008980 -0.738270 -0.091669 0.242055 1.008942 0.089111 0.311668 -1.246694 -0.236236 0.018499 -0.043549 -1.241591 -1.705964 0.173184 0.003282 -0.327027 -0.488762 0.194241 0.302876 0.995113 -0.328631 0.626691 0.606371 0.294778 0.542077 0.913749 -0.408353 0.392465 0.595632 -0.582609 0.023384 -0.620793 0.417968 -0.547639 0.620712 0.388293 -0.407154 -0.199768 0.268002 0.403780 -0.977441 -1.480846 0.489907 -0.504086 0.516030 -0.951747 -0.635017 0.428387 0.013586 -0.224307 0.511232 1.239695 -1.132002 -0.794647 -0.632286 0.438185 0.216645 -0.247617 -1.412780 -0.416933 0.234699 -0.269611 -0.308238 -0.448336 0.648332 0.184570 -0.507387 -0.420140 -0.137857 -0.185954 -0.941488 -0.063398 0.095215 -0.094349 -0.709731 -0.050360 -0.456368 -0.802988 0.777555 -0.483434 -0.123293 0.269076 0.624866 0.342732 -0.037001 0.214595 0.490989 -0.488792 -0.690068 -0.138756 0.469320
windows 0.878939 0.078468 0.018377 -0.795181 0.051087 -0.906210 -0.156715 0.682020 0.335079 -1.633049 1.026225 -0.435962 -0.676905 0.624787 -0.035395 0.684175 0.248605 -1.044509 0.370387 0.645371 0.239066 0.063172 0.354132 -0.332953 -0.394396 0.450115 0.338274 -0.156366 0.570454 -1.103228 0.409679 0.193521 0.574457 -0.177687 1.631987 -1.014166 -1.471968 -0.185567 -0.938345 0.266785 0.676360 -0.106594 0.383951 0.413819 0.686148 -0.451225 -0.147652 0.736105 0.247956 0.400424 -0.375305 -0.521741 0.779412 -1.150043 -0.232318 0.184188 0.139827 0.563984 0.270203 -0.584554 0.161283 -0.101292 0.052903 -0.166516 -1.146384 -0.145653 0.416411 0.179637 -0.151440 -0.063739 -0.723107 0.464135 -0.605022 0.656088 -0.368725 -0.971295 -0.617806 0.415314 -0.162306 -0.685720 -0.107714 -0.431744 -0.138677 -0.031114 -0.270923 0.213483 -0.489863 -0.531987 -0.154244 -0.004343 0.026231 0.328904 0.338050 0.304839 -0.501246 -0.025113 -0.229100 -0.733884 -0.265171 0.155828
( 0.312297 0.390933 -0.194634 -0.538813 0.595414 0.419293 -0.113400 -0.405337 0.654776 -0.594437 -0.322153 -0.048289 -0.383314 0.907988 0.543415 0.486158 -0.065255 -0.366123 0.286953 -0.030601 0.008333 -0.093561 -0.216360 -0.307133 0.446731 0.067517 0.352656 -0.160292 0.400165 -0.030746 0.060308 0.414522 0.496994 0.423174 1.123287 0.132356 -1.131371 0.158325 0.212718 1.174503 0.129363 0.017300 0.379206 0.703951 0.235319 -0.145501 -0.076978 0.682867 0.225487 0.125480 -0.581645 -0.127644 -0.395982 -0.176642 -0.506490 0.448437 0.291798 -0.086605 0.562334 -0.165412 0.330762 0.186818 -0.098865 -0.492747 0.056247 -0.198684 -0.528126 -0.960739 -0.156621 -0.042988 -0.385340 -0.001789 -0.019585 0.568730 0.163399 -0.720438 -0.133217 0.319867 -0.403291 -0.578805 -0.198984 0.193506 -0.035315 -0.051067 0.331811 0.545542 0.214671 0.353930 0.043226 -0.812844 0.116486 0.395770 0.917975 0.347223 -0.140359 -0.351181 0.008922 -0.456144 0.093306 0.011731
) 0.355249 0.015508 -0.150663 -0.496232 0.448004 0.313911 -0.268821 -0.574900 0.587541 -0.552675 -0.227866 -0.127052 -0.468780 1.077984 0.561808 0.468286 0.040513 -0.556544 0.154486 -0.317789 -0.135986 -0.372540 -0.182834 -0.258841 0.679422 -0.107993 0.354548 -0.188679 0.487153 0.068991 -0.057197 0.245957 0.706522 0.554258 1.187961 0.064898 -1.138635 0.172883 0.323240 1.118783 0.154320 0.120255 0.008322 0.729887 0.176648 -0.125335 0.110343 0.769066 0.359028 0.117018 -0.438246 -0.076005 -0.356509 -0.433867 -0.180254 0.424844 0.231490 0.077385 0.604605 0.046045 0.163330 0.367227 -0.176547 -0.348988 -0.029499 -0.053400 -0.505285 -0.987350 -0.259321 0.362080 -0.376867 -0.289565 -0.067700 0.596619 -0.098010 -0.609904 0.149895 0.322560 -0.387386 -0.481654 -0.140524 0.309178 -0.033238 -0.309304 0.420028 0.577646 -0.032663 0.153620 0.090302 -0.491777 0.271734 0.368307 1.005672 0.250388 -0.045978 -0.410811 0.217011 -0.388433 0.137117 -0.239697
object 0.568797 0.146547 -0.387960 -0.694545 -0.140818 0.142289 0.531761 0.018792 -0.189992 -0.159011 0.072546 0.144754 0.079958 -0.226296 0.056158 0.395055 0.031050 -0.246448 -0.207252 -0.570244 -0.874707 -0.230854 0.569582 0.201132 -0.183996 -0.676733 0.084308 -0.003172 -0.025160 -0.008156 -0.411612 0.756497 0.805858 -0.613275 0.870804 -0.572498 0.664825 -0.218096 -0.491278 0.566602 0.450562 0.384320 -0.507883 0.351509 0.307142 -0.380231 0.076335 0.497184 -0.143291 -0.671259 -0.794345 0.085232 -0.145642 0.582366 -0.903525 -0.639271 0.638364 0.378676 -0.650564 -0.173981 0.335212 -0.338543 -0.130099 -0.173707 -0.193837 -0.342690 -0.074831 -1.057116 0.818931 0.424933 -0.651668 -0.544707 -0.029477 0.115419 0.170444 -1.013997 -0.611318 0.278667 0.932241 0.406047 -1.064298 -0.241083 -0.140928 -0.429292 0.798514 -0.546259 -0.042766 0.451117 -0.510312 -0.760036 0.988983 0.936595 0.386640 0.408537 0.481748 0.740915 -0.515594 -0.456663 0.596738 0.151467
into 0.125174 -0.115420 -0.435537 -0.516928 0.557114 -0.613535 -0.120857 -0.300486 -0.727192 0.094015 -0.277812 0.050169 0.017337 0.724881 0.154299 -0.570649 -0.923538 -0.526195 -0.279668 0.407727 -0.567634 -0.111867 -0.133551 0.728546 -0.386026 -0.768883 -0.404863 0.726855 0.595495 0.865839 -0.103598 0.210969 0.231339 -0.069482 0.747453 -0.514326 -1.072584 0.775929 -0.522672 0.691638 0.210835 -0.203999 -0.079283 0.628457 0.875002 -0.888905 0.064558 0.474737 -0.061885 -1.175881 -0.954911 0.660159 -0.190440 0.089877 -0.101773 -0.281261 0.219895 0.327549 -0.110443 0.260060 0.649371 -0.322264 -0.856535 -0.886412 -0.026716 -0.225824 -0.125882 -1.577373 -0.720592 0.576881 -0.520130 -0.327378 -0.716880 -0.102171 0.125555 -0.391037 -0.424786 0.567272 -0.576043 -0.423244 -0.856303 -0.115764 -0.491340 0.302062 -0.184532 1.099623 0.387720 0.100363 -1.332161 -0.128988 0.303455 0.439627 0.444915 -0.301033 0.539487 0.658884 -0.244779 -0.311771 -0.234380 0.364405
text 0.006773 0.246502 0.272661 -0.808270 1.232219 0.738636 0.315546 0.050534 0.330324 -0.654785 -0.541574 -0.867914 -0.550504 0.378236 -0.380966 -0.440205 0.388771 0.444504 0.263992 0.898595 -0.742097 -0.619496 -0.773579 -0.421770 -0.446047 -0.258240 -0.450580 0.961384 0.248902 0.285339 -0.152031 0.838072 -0.063375 0.668390 0.577108 0.260676 -0.734864 0.681794 -0.175235 0.195048 0.717925 -0.108146 -0.241561 1.035440 -0.074340 0.303973 0.576852 0.432475 0.015550 -0.622008 -0.146062 0.140624 -0.553651 0.505726 -0.813448 0.110010 0.278483 -0.594498 0.554379 -0.142170 -0.816268 -1.322431 -0.335517 -1.042463 0.226200 -0.435765 0.095353 0.423261 -0.939954 -0.186548 -0.783552 0.095705 -0.181939 -0.359391 -0.203274 -0.791800 -0.363001 -0.340937 -0.775105 -0.155129 0.109235 0.225184 -0.252276 0.119474 -0.536762 1.194014 -0.326584 0.269180 -1.033016 0.463244 -0.494339 0.126783 0.370491 0.159656 0.120798 -0.054517 -0.232043 0.115378 -0.532149 0.559229
asp 0.200331 0.340536 0.158281 -0.309549 0.865403 0.918181 1.145488 -0.601439 -0.528598 -0.171354 -0.058360 -0.307464 -0.117662 0.128214 0.075594 0.012504 -0.379306 -0.589445 0.288642 -0.199558 -0.562386 -0.374753 -0.031983 -0.874276 0.040892 0.201217 -0.254352 -0.401891 -0.177731 -0.057489 -0.009745 0.686538 0.272668 -0.309935 1.401418 0.515342 0.002356 0.026967 -0.048521 0.654798 0.843570 -0.169760 0.217123 0.713905 0.577525 -0.198911 -0.649511 -0.233196 0.264982 -0.263478 -1.393175 -0.154586 0.652136 -0.078930 -0.216961 1.446694 0.024576 0.152409 0.394650 0.175009 -0.814168 0.031768 -0.734745 -1.077209 0.276784 -0.624729 0.371763 0.042322 0.145228 -0.037794 0.352547 0.521065 -0.540602 -0.529765 -0.508656 -0.375082 0.851114 1.308959 -0.028427 -0.152463 0.133194 -0.433374 0.431993 0.115393 1.014542 0.242322 -0.087134 0.521517 -0.588675 -0.780469 0.563622 0.517178 0.051781 -0.112699 -0.395141 -0.264404 -0.442124 0.123557 -0.551999 0.049911
method 0.366134 -0.071861 -0.083728 -0.309750 0.141279 -0.024185 0.053613 -0.570710 0.749337 0.138680 -0.734758 -0.918529 -0.436343 0.903782 0.251519 0.891113 -0.224305 -0.468659 -0.145282 -0.388600 -0.958662 0.209682 0.052515 0.059273 -0.114470 0.170464 0.594070 -0.521287 -0.932148 -0.252274 1.061120 0.672600 0.983390 0.898041 0.524980 -0.690316 -0.016783 -1.046186 0.499682 0.072930 0.326700 0.414811 -0.229787 0.347159 -0.816904 -0.405724 -0.258207 0.099792 -0.232799 -0.084417 -0.026204 -0.434426 0.153079 0.309711 -0.769767 -0.222670 0.282784 0.084606 0.214010 0.409692 0.019970 0.006797 0.734188 -0.241087 -0.015011 -0.287150 0.360192 -1.113487 0.468119 -0.484142 0.010455 -0.773098 -0.424294 0.196744 -0.125886 -0.101527 -0.424286 0.188641 0.644865 -0.035347 -0.316039 0.020607 -0.501570 0.543094 1.041425 0.251473 -0.234809 -0.064690 -0.791761 -0.902270 1.155595 0.916770 0.422084 -1.012023 0.041104 -0.173159 -0.487911 -0.185096 0.515752 0.047773
values -0.078090 -0.270761 0.483877 -0.573268 0.883693 0.151553 0.661895 -0.395772 0.311277 0.350358 0.116052 -0.217251 -0.263048 0.441273 -0.709513 -0.271388 -0.372136 -0.063958 0.756960 -0.064062 -0.566312 -0.286316 -0.111330 0.272637 -0.096308 -0.582917 -0.693479 0.075427 1.328289 -0.209288 0.661837 0.833405 -0.075140 -0.478875 1.315193 -0.551128 0.265457 -0.123608 0.094055 0.712887 0.333443 0.618428 -0.618227 0.970150 -0.348373 -0.249175 -0.000187 0.128563 0.231071 -0.850976 -1.179572 0.409027 -0.623194 0.143404 -0.114521 -0.485363 -0.621203 -0.467216 -0.209184 0.363858 0.647834 -0.700668 -0.621204 -1.296860 0.301087 0.299093 -0.597084 -0.558902 -0.352424 -0.055986 0.285482 0.157712 0.517044 0.607365 -0.762428 -0.129961 -0.351765 -0.107996 -0.426233 -0.257352 0.179971 -0.255773 0.072880 -0.387976 0.175098 0.888178 -0.491378 0.387997 -0.581191 -0.441230 0.260398 0.047811 -0.055352 0.017115 0.263386 0.270871 -0.344932 0.659881 0.211009 0.136431
that 0.012713 -0.739909 -0.650942 -0.685918 0.306476 -0.179703 0.286961 -0.192702 1.386333 -0.272560 -0.068898 0.255943 -0.976609 0.944649 -0.679370 -0.033026 0.218888 -0.874351 0.940792 -0.391658 -1.114890 -0.153240 -0.240316 -0.282749 0.383122 0.555728 -0.116152 0.710222 -0.881629 -0.517254 0.296329 0.943953 0.236959 0.669109 0.408856 -0.871667 -0.011608 -0.148722 -0.233843 0.199772 1.079855 -0.116191 -0.687560 1.006776 -0.437687 -0.908961 -0.101938 -0.174241 -0.084849 -0.556420 -0.451118 0.246008 -0.082353 0.161890 -1.365162 -0.253060 0.251731 -0.035738 0.634285 0.595510 -0.673335 -0.582697 0.046277 -0.243979 0.148002 -0.482095 0.211107 -1.036138 0.266123 0.186056 -0.297532 -0.688325 -0.646078 0.680352 0.304539 -0.220782 -0.310919 -1.022181 0.071474 -0.027409 -0.960042 -0.300336 -0.193513 0.107539 0.515145 -0.306370 0.412962 0.158396 -0.113797 -0.315390 0.213135 0.739955 0.127454 0.503882 0.029502 -0.189121 -0.268267 0.251729 1.082022 -0.208151
control 1.063040 0.629969 0.113930 -1.578317 0.153199 -0.494544 0.568186 0.342269 -0.202124 -0.794338 -0.005735 0.037195 -0.603683 -0.172010 -0.101611 0.260835 0.603507 -0.066173 0.613593 0.431288 -0.108673 -0.319849 -0.277970 -0.491916 0.556866 0.165199 0.608780 0.311808 -0.446699 -0.268285 -0.047264 0.968786 0.069554 0.116792 0.729337 -0.756187 -0.224917 -0.298944 -0.230763 0.461240 0.182645 -0.296558 0.163668 0.788619 0.132689 0.363647 0.273790 -0.112087 0.603080 0.037062 -0.786892 -1.414261 0.443338 0.184997 -0.465594 1.001621 0.354024 -0.204739 0.193812 -0.103455 -0.963239 -0.416304 -0.474865 -0.760348 0.719585 -0.055227 -0.437485 -0.310064 0.171412 0.153179 -0.100808 -0.141648 -0.362297 -0.899044 0.326855 -1.408897 0.532665 0.417319 0.194246 -0.596199 0.088219 0.145337 0.184880 0.585275 0.278605 0.651852 -0.214750 -0.016182 -0.300770 0.112702 0.870006 0.329403 -0.020811 -0.295860 -0.222594 -0.473731 -0.779217 0.484382 -0.092272 -0.209669
application 0.071981 -0.384490 -0.076065 -0.354705 0.128123 -0.383853 0.122349 0.126413 0.364498 -0.481042 0.014345 0.288420 -0.614590 -0.197663 0.236000 0.401095 -0.218902 -1.805690 0.739028 -0.029675 -0.568927 -0.308062 0.699141 -0.487902 -0.252325 0.693231 0.672003 0.015693 0.581656 -0.787303 0.102608 0.017033 0.021782 0.050305 1.176351 0.049932 -0.754839 0.077744 -0.438468 -0.047183 0.968717 0.684945 0.380333 -0.015904 -0.071357 -0.072216 -0.855638 0.572714 0.624394 -0.020549 0.000900 -0.143895 0.521797 -0.439578 0.159437 1.130837 -0.292602 0.858957 0.953354 -0.094768 -0.075189 -0.059167 0.048175 0.219412 -0.369680 -0.335748 -0.196779 0.226034 0.689439 -0.306268 -0.918248 0.639915 -0.593318 0.550951 -0.836100 -0.642910 -0.410563 0.655264 0.136248 -0.692500 -0.422901 -0.075311 0.089453 -0.019088 0.377047 0.520041 -0.250420 -0.529512 -0.533511 -0.756595 0.589472 0.164739 0.520828 0.482311 -0.053503 -0.438861 -0.023983 -0.697806 0.522523 0.453672
/ -0.498807 0.182069 -0.448767 -0.117219 0.072946 0.630695 0.988807 -0.480946 0.794543 0.121428 -0.265338 0.186649 -0.611934 0.959630 0.511215 -0.118427 0.194496 -0.149935 0.730452 0.503385 0.131013 0.080730 0.844874 -0.841241 0.128854 0.460409 -0.577830 -0.495449 -0.226074 -0.074745 -0.318787 0.127726 0.760660 0.268448 0.946554 -0.185663 -1.245054 0.223950 0.756737 1.119332 0.793789 0.091673 0.372395 0.162602 0.247712 0.617179 0.299282 -0.258296 -0.354633 -0.560482 -0.403288 -0.582519 -0.478475 -0.932639 -0.825408 0.404910 0.559388 -0.309956 0.157772 -0.906733 0.467061 -0.892718 -0.157694 -0.295918 -0.859934 0.120149 0.302466 -0.389008 -0.145128 0.435295 -0.566874 -0.357687 -0.524080 0.222004 0.066117 -0.075354 -0.801975 0.764077 0.006727 0.376884 0.448851 0.119553 -1.089848 -0.222897 -0.186376 0.265566 -0.623146 0.148612 -1.576375 -1.013719 -0.272485 1.139561 0.483963 -0.402023 0.593366 0.014832 0.692792 -0.389366 -0.250877 -0.719210
add 0.423864 0.886387 -0.559987 -0.748674 0.323797 -0.473293 0.471036 -0.106831 0.208632 -0.061188 0.094876 -0.248535 -0.532223 0.133864 -0.177236 -0.131227 -0.007789 0.276801 0.303607 0.605896 -0.269680 -0.229890 0.056523 0.125744 0.636096 0.450668 -0.844624 0.103258 -0.103063 -0.285928 -0.490786 0.445758 0.435242 -0.348134 0.700881 -0.301358 -0.693791 -0.231364 -0.227730 0.443170 -0.072297 0.090379 -0.358280 0.515890 0.302516 -0.155072 0.031350 0.177629 0.413376 0.033082 -1.237802 0.239989 -0.250090 0.260288 -0.124572 -0.008982 0.410081 -0.413600 0.226220 0.070009 -0.217711 0.381257 -0.103137 -0.781253 0.321792 0.130426 -0.143721 -0.514211 -0.458866 -0.622264 -0.015618 0.403729 -0.260868 0.124836 -0.567380 -0.459821 -0.039095 0.198513 0.165051 -0.607603 -1.046077 -0.126642 -0.135707 0.218799 -0.058914 0.379605 -0.011978 -0.069575 -0.923240 0.140096 0.003044 0.733476 0.342603 -0.766855 0.704884 0.057213 -0.235545 -0.119797 0.305543 -0.093047
by 0.669004 -0.193767 -0.955669 0.172794 0.614830 0.660764 -0.524835 -0.254992 0.014686 0.467178 0.191286 0.089392 0.034266 -0.061577 -1.455498 0.064548 -0.263838 -0.665517 0.076709 0.225050 -0.284805 -0.210374 -0.847538 0.204690 -0.042975 -0.016370 -0.050714 0.011332 0.123731 -0.439122 0.304252 0.751310 -0.265004 0.858127 1.088852 -0.407968 -0.387766 0.087978 -0.014405 0.376974 0.593265 -0.220269 -0.092404 0.486930 -0.358031 0.714804 0.092953 0.353873 -1.053913 0.274419 -0.381987 -0.631406 -0.708375 0.293967 -0.404122 -0.008107 0.084931 0.278032 0.075291 0.750419 0.443109 -0.291086 -0.962834 -0.606025 0.027222 0.930160 -0.472308 -0.409856 0.222025 0.340983 0.318499 -0.042902 0.751653 0.272950 -0.598599 -0.931773 -0.212703 0.112801 -1.006642 -0.431337 -0.843433 -0.347744 0.451943 0.155144 0.988661 -0.043236 -0.843816 -0.010242 -0.587144 -0.412790 0.886183 0.964005 0.325429 0.002502 -0.259456 1.113301 -0.176386 -0.583241 0.154015 0.037835
: -0.173207 0.596773 -0.311977 -0.222809 -0.207662 0.951725 0.212356 -0.806427 0.208602 -0.411366 0.175954 0.000704 -0.308724 0.013108 0.599898 1.331927 0.363889 -0.928357 0.498908 0.746120 0.028518 -0.448980 -0.260271 -0.255340 0.302972 0.348819 -0.355455 -1.090996 0.027835 -0.196227 0.513380 0.761128 0.515245 -0.079557 1.447453 0.015814 -0.010537 -0.471673 0.041331 0.380010 -0.014467 0.103006 0.183780 0.424237 0.457561 0.193564 -0.540671 0.283933 0.445041 0.560286 -0.891274 -0.271543 0.087593 0.682971 -0.937629 1.143542 -0.005206 -0.210766 0.089706 -0.132917 -0.046430 0.772449 -0.692165 0.004354 -0.165850 0.355595 -0.434228 -0.261148 -0.182678 -0.361520 -1.081979 -0.049797 0.475503 0.210306 0.493257 -0.522895 0.005620 1.033370 -0.693881 -0.486808 -0.063916 -0.215853 -0.684578 -0.070226 0.416104 0.314223 -0.831431 0.619194 -0.175963 -0.887443 0.138730 0.627811 0.107789 0.210708 0.614642 0.223088 0.157939 0.393686 0.164244 0.178972
as 0.164780 -0.477261 -0.154939 -0.264156 0.198565 0.212559 -0.648368 -0.486547 0.545331 -0.409331 -0.397385 -0.048193 -0.215015 0.000928 0.201508 0.058466 -0.949323 -0.097150 0.359433 0.198409 -0.514117 -0.032103 0.013205 0.277021 0.280878 -0.818498 0.042985 -0.568662 0.087673 -0.022225 0.548368 -0.668044 0.779620 0.159947 0.829332 0.003563 -0.499771 0.035491 -0.272787 0.447438 0.936632 0.067441 -0.739104 0.912140 -0.704267 -0.436144 -0.057882 0.807790 -0.303395 -0.418576 -0.942077 -0.149133 -0.229607 0.502134 -0.959799 0.691717 -0.177529 -0.178229 -0.138343 0.759052 0.992883 -1.459118 0.257581 -0.498491 0.725653 -1.095910 -0.520867 -0.355678 -0.929064 0.638690 -0.082975 -0.137689 -0.333152 0.320739 -0.586906 -0.292988 0.260557 0.854570 -0.192448 -0.551702 -0.765402 0.519269 -0.403062 -0.667404 0.898838 -0.091332 0.195337 -0.425132 -0.296479 0.123311 0.465086 0.663861 0.647168 0.486628 0.284219 0.600643 -0.946960 0.167309 0.454452 0.194326
set 0.031003 -0.034321 0.036889 -0.428180 0.849597 -0.081329 0.498301 -0.217510 0.523233 -0.835460 -0.162061 -0.481494 -0.132435 -0.704505 -0.604837 0.533565 0.596248 0.073361 0.788413 0.135708 0.050460 -0.107975 0.210565 -0.007443 -0.013944 0.015700 0.184813 -1.132907 0.057088 -0.377781 0.534175 0.515721 0.317571 0.156853 1.292216 -0.221695 0.098032 -0.240437 -0.204476 0.576377 0.149968 0.631123 -0.017816 0.088537 -0.692414 0.446753 -0.018558 -0.062463 -0.060022 -0.035474 -0.799037 -0.247583 -0.772125 0.172737 -0.266296 0.282200 -0.151845 -0.120886 -0.243885 -0.485825 -0.558984 -0.792649 -0.082696 -0.903690 0.203791 -0.360694 -0.335947 -0.406705 0.064939 -0.327168 -0.815140 0.086992 0.259899 -0.113189 -0.676813 -0.866643 -0.121694 -0.149530 -0.045999 -0.819653 -0.543840 0.321754 0.151395 -0.262680 0.201986 0.101440 0.298914 0.005997 -0.236844 -0.106283 0.394180 0.380053 -0.316792 0.404377 0.069139 0.625395 0.121285 0.505379 0.396476 -0.884927
convert -0.294248 0.518750 -0.396759 -0.498347 0.064921 0.445772 0.139605 -0.571176 -0.557368 -0.824425 -0.563682 -0.783060 0.421593 -0.348121 0.151052 0.182338 -0.072913 -0.600257 -0.632956 0.388877 0.308715 -0.347738 0.080180 0.610082 -0.766840 -0.242340 0.198243 -0.584529 0.254415 0.376186 -0.314688 -0.060739 0.885093 0.626478 0.303199 0.178482 -0.269867 0.620805 0.129863 0.437067 -0.488734 -0.345742 -0.120822 0.749060 0.950118 -0.687879 -0.493401 0.522508 -0.168903 -1.039052 -0.918461 1.375328 -0.357914 -0.266517 -0.559663 -1.202331 0.185270 -0.653996 -0.059598 0.188721 0.483351 -0.566715 -0.027539 -0.202437 0.310416 0.029488 -0.255673 -0.794066 -0.498440 -0.221939 -1.207042 -0.090116 0.153195 -0.037176 0.606963 -0.092185 -0.513762 0.051210 0.017546 0.090408 -0.584066 0.307278 -0.457388 0.075935 0.188314 0.057028 0.298977 0.955652 -0.274247 -1.247290 0.258877 0.781756 0.108385 -0.376364 -0.359516 0.215937 -0.295654 -0.065511 -0.326428 0.435409
one 0.661402 -0.403900 0.432377 -0.635174 0.351979 -0.512530 -0.615275 -0.382160 -0.003835 -0.021299 -0.197217 -0.481888 -0.287504 -0.319676 -0.220883 -0.527283 -0.238251 -0.380472 0.437083 0.554179 -0.943922 -0.023687 0.201720 -0.100541 0.813747 0.120806 0.471409 0.577008 0.562326 -0.613265 0.062252 0.527561 0.182466 0.148640 0.527189 -0.198651 -0.723347 -0.113770 -0.371411 0.618298 -0.227330 0.708980 -0.648507 0.177555 -0.395198 -0.476952 -0.028997 0.356752 -0.170512 -0.094308 -0.357684 0.698086 -1.002070 1.314391 0.010241 -0.561307 0.066437 0.005637 0.760446 0.428068 -0.376986 -0.066913 -0.303538 -0.134442 0.429623 0.382718 0.167039 -1.079014 -0.441875 -0.194589 -0.072811 -0.252254 0.120889 -0.254132 -0.266732 -0.503668 -0.976443 0.600078 0.405035 -0.565133 -0.572610 -0.425354 0.152492 0.247067 0.811747 0.183555 -0.101446 0.273392 -1.157439 -0.363177 1.212970 0.755229 0.075189 -0.166939 0.081765 0.890572 0.052429 -0.321706 0.132108 0.483372
sql 0.251231 -0.401453 -0.626711 0.050799 0.974899 -0.135242 0.198532 -0.551135 0.466611 0.302976 -0.069210 -0.326958 -0.420734 0.144253 -0.399541 0.538398 -0.314561 -1.204968 -0.891026 0.218618 0.168058 0.962811 -0.199374 0.614097 0.208970 -0.204854 -0.051682 -0.489754 -0.149991 0.864574 0.824066 1.141257 -0.324511 -0.685836 1.092571 -0.592210 -0.804092 -0.216139 -0.913278 1.011211 0.408112 0.154561 -0.900870 0.132091 1.303754 0.014209 -0.454220 0.538793 0.000079 -0.589698 -0.361712 0.678993 -0.671418 -0.183964 -0.399194 0.165843 -0.326696 -0.260052 0.046523 -0.170935 0.059602 0.224085 -0.590602 -0.452669 0.054217 -0.033749 -0.106987 -0.949779 -0.250573 -0.509398 -0.291494 -0.658373 -0.207981 -0.529598 -0.393136 0.405972 -0.292355 0.588999 -1.004585 0.151205 -0.565290 -0.142023 0.269963 -0.164268 0.217340 0.050978 0.453405 0.172256 -0.414783 -0.667066 -0.059608 0.021919 -0.130442 0.772449 -0.236842 -0.053824 0.432829 -0.105140 -0.104443 0.656020
multiple -0.190758 -0.014720 0.250792 -0.473604 0.337983 -1.148991 -0.452528 -0.181728 0.549145 0.498342 -0.230992 -0.180299 -0.251261 0.926848 -0.516513 -0.146023 0.195740 -0.533012 0.533928 -0.092490 -0.862087 0.115063 -0.369077 -0.076873 0.532617 -0.806113 -0.631927 0.278815 0.495785 -0.141375 0.252474 0.606566 0.290810 -0.409073 1.039264 -0.298145 -0.929931 -0.889748 -0.251349 0.301427 0.374420 0.055055 0.217911 0.030471 -0.270281 -0.122889 0.299900 0.301466 -0.615404 -0.596054 -0.856200 0.545639 -0.141926 0.568254 -0.169987 0.191935 0.182634 0.195095 0.205366 0.362060 0.202539 0.552500 0.012529 -1.369495 -0.888078 -0.518135 0.026035 0.314478 -0.767717 0.043958 0.149348 -0.582299 -0.538142 0.122653 -0.448373 0.568357 -0.441467 0.173918 -0.972039 -0.163385 -0.339028 -0.850007 0.711492 0.390606 0.058229 0.118553 -0.844041 -0.172869 -1.445781 -0.391565 -0.003495 -0.078930 0.282430 -0.174889 0.333426 0.128728 -0.282124 0.447724 0.165525 0.720961
it 0.240498 0.034988 -0.402253 -0.219140 0.013203 -0.423719 0.288337 0.473312 -0.013191 -0.952840 -1.047725 -0.432691 -1.419048 0.646890 0.064707 -0.024192 -0.726789 -0.859450 0.044705 0.430135 -0.733615 -0.288984 0.134661 0.423241 -0.262728 1.019578 0.379998 0.377466 -0.149387 -0.230599 -0.147789 0.706731 0.124576 0.005296 0.569660 0.114937 -0.210670 0.322840 -0.818650 1.343926 0.958361 -0.077682 -0.178356 0.830819 -0.455382 -0.097635 0.601811 -0.105439 0.193509 -0.914813 0.435063 0.520920 -0.024640 0.630153 -0.380205 0.174144 0.052242 0.011201 0.545151 0.125584 0.041394 -1.111555 0.607031 -0.064460 0.398246 0.566673 0.467838 -0.936582 0.294366 -0.173378 -0.541286 0.001475 0.350939 0.581739 -0.573905 -0.326360 -0.430614 -0.137648 0.003226 -0.699876 -0.402215 0.186103 -0.133672 0.292801 -0.060901 0.664385 0.334666 0.546356 -0.015289 0.006881 0.646804 0.152525 0.474810 0.507215 0.092365 0.556896 -0.828757 0.541388 0.403349 -0.473404
use -0.071210 0.093021 -0.178697 -0.109357 -0.340535 -0.000982 0.063481 -0.027114 0.231973 -1.159332 -0.419313 -0.175098 -0.969582 0.237077 -0.138330 0.722878 -0.302675 -0.325844 -0.068940 0.061919 -0.524719 0.471355 -0.143370 0.684087 0.639120 0.459920 0.333654 -0.150635 -0.105702 -0.582247 0.465143 0.148881 0.673954 0.163411 0.539927 0.467710 -0.480545 -0.485782 0.113427 0.535150 0.386111 0.066282 -0.368418 0.333992 0.059825 -0.144108 -0.254591 0.533856 -0.341380 -0.675880 -0.724328 0.038721 -0.371564 0.943243 -0.693258 -0.055264 0.085120 0.069012 0.355755 -0.354491 0.140478 -0.054222 0.218767 -0.645166 -0.315974 -0.695787 -0.190730 -0.498292 -0.185617 -0.338080 -0.423349 -0.214219 0.515438 0.291486 -0.293859 -0.661291 -0.335282 0.236811 -0.426484 -0.289870 -0.301440 -0.189736 0.374650 0.620044 0.762507 0.168488 -0.209613 0.084827 -0.260871 -0.904223 0.572465 0.307478 0.078589 0.064024 0.214901 0.216341 -0.126313 0.174066 0.000863 -0.726603
wpf 0.341339 0.126341 -0.001740 -0.773049 0.180156 -0.478207 0.319990 -0.246019 0.428208 -0.491439 0.466485 0.304910 -0.006704 0.011677 -0.197505 0.512061 0.356570 0.496457 0.499884 0.690541 -0.023485 -0.093535 0.009480 -0.683761 0.323510 0.760655 0.297153 -0.555345 0.374053 -0.289789 -0.592483 0.364663 0.034174 0.497765 0.976322 0.418555 -0.233942 -0.172242 -0.432958 0.660698 0.278744 0.395325 0.675589 0.354284 0.010381 0.227133 0.020896 -0.320871 0.365497 0.478871 -0.644097 -0.673169 0.408587 0.077956 -0.023269 0.790894 -0.106410 0.400195 -0.372428 -0.705343 -0.735239 -0.206889 -0.370770 -0.483109 0.854187 0.517985 -0.616976 -0.176353 -0.251725 -0.461223 -1.218935 0.366946 -0.521341 -0.335124 0.448130 -1.439216 -0.246223 0.425831 -0.135311 -0.624075 -0.117571 0.219694 -0.287850 0.270471 0.097691 1.166132 -0.460657 -0.752731 -0.528780 -0.172428 1.027029 0.506941 -0.002959 0.220728 0.351075 -0.295479 -0.624903 0.081473 0.002629 0.177311
class 0.187105 -0.253926 0.029379 -1.062085 0.066246 0.243330 -0.145772 0.028004 0.642338 -0.087705 -0.072732 -0.181641 -0.320820 0.940920 0.268275 0.220611 0.187486 -0.246358 0.235345 -0.391030 -1.080146 0.131390 0.165937 0.295511 0.004861 -0.038627 0.222825 0.145576 -0.451207 -0.541514 -0.746466 0.631572 0.491072 0.401188 0.768225 -0.553361 0.525561 0.152936 -0.029102 -0.545326 0.600207 0.495684 -0.366313 0.396854 -0.354554 -0.354221 -0.258193 0.443399 -0.454169 -0.416428 -0.529469 -1.078361 0.031884 0.475841 -0.923431 -0.307248 -0.352950 0.328590 -0.388960 -0.263060 -0.325922 -0.013872 -0.160114 -0.412583 -0.207900 -0.267521 0.310976 -0.840425 0.789025 -0.522897 0.073532 -0.504393 0.151615 0.419574 0.448626 -1.121919 -0.259891 0.552087 1.427515 0.465648 -0.943184 0.807253 -0.125514 0.439388 0.192148 -0.391549 0.035651 -0.170094 -0.543497 -0.683494 0.903196 0.379581 0.220458 0.138161 1.248073 0.091492 0.019856 -0.170216 0.603604 -0.189742
all -0.369782 -0.493478 0.058609 -1.233425 0.438666 -0.014115 0.946875 0.623788 0.871346 0.613664 0.185782 0.036486 -0.598827 0.872329 -0.658449 -0.075767 0.506050 -0.539445 1.040464 0.147585 -0.332341 -0.342122 0.427425 -1.109638 0.421232 -0.135402 -0.756998 0.304719 0.422683 -1.220964 0.085585 1.324102 -0.136356 -0.516555 0.449874 -1.026922 0.357224 -0.276942 -0.008249 -0.169507 -0.049736 -0.195084 -0.065692 0.867748 -0.436851 -0.101079 0.069430 0.555247 0.547357 -0.954017 -0.870560 0.514345 -0.292422 0.436451 -0.765475 -0.437249 -0.199945 -0.285202 0.448218 0.359485 -0.276769 0.013619 0.420945 -0.443951 -0.543250 0.255911 -0.144650 -0.013996 0.000945 -0.395970 -0.270265 0.071269 -0.247400 0.977627 -0.522082 -0.335268 -0.259286 -0.490459 0.187300 -0.299987 0.170667 0.030465 0.381605 0.031977 -0.471859 0.789283 -0.317335 0.265909 -0.201184 -0.424462 -0.320590 0.127128 -0.167631 0.233640 0.607101 0.582572 -0.236658 0.357621 -0.210764 -0.675445
> 0.363893 -0.158720 -0.363757 -0.547083 0.224540 0.105568 -0.501907 -0.464809 0.324979 0.261383 -0.057808 -0.451277 0.790376 0.626502 -0.841950 -0.049621 0.401115 -0.343754 0.044498 -0.413742 0.533048 -0.046214 -0.498725 0.559049 0.190568 -0.627295 -0.070049 0.377943 0.734352 0.344991 -0.855718 -0.186924 0.537240 -0.385693 0.880997 -0.099780 -0.816707 0.169555 0.778264 1.045425 0.753674 0.396188 -1.174500 1.157059 0.678772 0.034718 -0.094087 -0.056918 -0.010976 -0.481597 -0.859193 0.248938 0.707185 -0.110858 -0.354325 -0.810260 0.583041 -1.039016 -0.224308 0.463877 0.419887 0.406962 -0.400815 0.236662 0.371414 -0.539718 -0.645535 -1.047827 0.486328 0.027043 -0.447277 0.020589 0.485620 0.845653 -0.050274 -0.789804 -0.098842 0.217542 0.646988 0.405618 -0.187819 0.255581 -0.213629 -0.697303 0.486274 -0.472673 -0.202531 0.226551 0.591522 -0.679272 0.752793 0.894509 0.967541 -0.813632 0.408763 0.408037 -0.345797 -0.304594 0.707612 0.227929
if 0.356439 0.736423 0.001174 -0.820370 -0.264128 -0.039766 0.649245 -0.696875 1.162593 -0.626826 0.006702 -0.671522 -0.305010 -0.056175 -0.144777 -0.372261 0.221756 -1.131809 0.888020 0.161067 -0.554342 -1.044163 0.487143 -0.274056 0.581771 0.349432 0.300328 0.777020 -0.639384 0.314961 -0.022530 0.204004 -0.466644 -0.077043 0.587943 -0.565473 -0.214439 -0.860623 -0.613989 0.754242 0.287478 -0.179627 -0.884828 0.280683 -0.829664 -0.057914 -0.517264 -0.256698 0.822594 -0.824361 0.227565 0.224677 -0.592289 -0.284426 -1.176000 0.550451 -0.009173 -0.400092 0.875787 0.456908 0.139053 -0.931278 0.062620 0.159330 0.441247 -0.762108 0.233234 -0.394396 1.010051 -0.082489 -0.504612 -0.518201 0.969402 0.207311 0.061128 -0.406731 -0.613820 0.078375 -0.746774 -0.085659 -0.363704 -0.099957 0.482582 -0.052815 0.647920 -0.163201 -0.171422 0.884951 -0.497441 -0.150902 -0.237446 0.803192 -0.562261 0.368817 -0.032143 -0.379308 -0.759290 0.113016 0.454284 0.242682
two -0.291499 -0.298691 0.933228 -0.824247 0.082607 -1.190087 -0.144378 -0.156379 0.763902 0.030201 0.194625 -0.249046 -0.020422 0.547080 -0.257504 -0.585051 -0.224422 -0.065555 0.728584 0.377305 -0.689866 0.267715 -0.197619 0.215032 0.905564 -0.826857 -0.491464 0.822704 0.867458 -0.014277 -0.684609 0.798801 -0.038625 0.502654 1.008113 -0.110964 0.173032 -0.613723 -0.515949 0.448012 -0.945761 0.762062 0.157780 0.764441 0.293219 -0.424601 0.364269 0.061173 -0.261760 -1.672570 -1.170488 0.125513 -0.451740 0.306805 -0.635026 -0.599874 -0.694627 0.785257 0.107404 -0.321375 0.645618 0.250157 0.179260 -0.791817 -0.145303 -0.072473 0.238482 -0.213789 0.235861 -0.341788 -0.201357 -0.147353 1.012954 0.552075 0.383430 0.226683 -0.184815 -0.267265 -0.272900 -0.898246 -0.695820 -0.426812 0.115607 0.337871 0.245337 0.183028 -0.221416 0.111500 -1.181235 -0.934155 -0.834252 0.603979 -0.112521 0.135291 0.273341 0.773483 0.394517 -0.324927 -0.396431 -0.010712
< -0.176216 0.080033 -0.413511 -0.762334 -0.153693 0.055919 -0.278659 -0.698528 -0.026600 0.357597 -0.267995 -0.255764 0.848185 0.251043 -0.619923 -0.184448 0.177837 -0.160473 0.547108 -0.242136 0.507339 -0.130594 -0.380428 0.924515 -0.188474 -0.537489 -0.623917 0.187997 0.648379 0.197732 -0.952961 -0.122622 0.628702 -0.203910 0.504570 -0.128281 -0.294447 0.039613 0.893898 0.651844 0.611755 -0.062390 -0.751429 0.980577 0.768142 0.026036 -0.526391 -0.214133 -0.278901 -0.683321 -1.206501 0.379234 0.884560 0.101922 -0.648113 -0.919513 0.468628 -0.903093 -0.189073 0.501997 0.344511 0.245449 -0.032705 0.304690 0.535477 -0.719811 -0.489488 -0.901149 0.426954 -0.477468 -0.475253 0.117530 0.554292 0.419908 0.246233 -0.543635 -0.439766 0.052402 0.527348 0.688665 0.191888 0.251704 -0.217919 -0.375378 0.425598 -0.588378 -0.045908 0.633906 0.227399 -0.885489 0.787538 0.847504 1.153334 -1.147389 0.519515 0.744104 -0.589620 -0.177678 0.723714 0.440502
create 0.136319 0.448288 -0.467753 -0.471788 -0.287296 -0.261303 -0.182108 0.215820 -0.485338 -0.084363 -0.055662 0.036922 -0.568309 0.265818 0.134877 0.559516 -0.305059 -0.023710 0.034434 -0.033346 -0.670735 0.123092 0.320065 0.044328 0.207660 0.423355 -0.689791 -0.506337 -0.426191 -0.534649 -0.489883 0.432263 0.163031 -0.185212 0.917049 -0.496965 -0.054621 -0.475691 -0.429252 0.392393 -0.347801 0.297074 -0.332707 0.022018 0.756600 0.241651 -0.547721 0.099823 -0.051098 -0.460201 -0.921185 0.246406 0.124942 0.220934 -0.345478 -0.101176 0.057249 0.163161 0.267833 -0.291921 -0.292377 -0.607036 0.044940 -0.532928 -0.335425 -0.270974 0.244127 -0.835023 0.087838 -0.211575 -0.238636 -0.755096 -0.251077 0.202534 -0.124697 -0.770346 -0.798465 0.286049 0.514248 -0.197313 -0.570149 -0.358330 0.481734 0.224157 0.344231 -0.445091 0.180682 0.784631 -1.041959 -0.333572 0.484129 0.330284 0.598355 -0.141904 0.460457 0.226908 -0.006148 -0.450913 0.282140 0.500712
when 0.019410 -0.260140 -0.466353 0.302957 0.670261 -0.671955 0.846812 0.099660 0.827559 0.159374 -0.333122 -0.361485 -0.854044 -0.621208 -0.407748 0.396951 0.054553 -0.118789 -0.579794 0.205755 -0.235456 -0.361497 0.503800 -0.553986 -0.024155 0.273143 0.114025 0.559432 0.367904 0.274174 0.242493 0.611199 -0.086671 -0.528549 1.709145 0.000494 0.065208 -0.314542 -0.427540 0.603351 0.944723 0.409665 -0.007679 0.072257 -0.380099 0.838888 0.440947 -0.166929 0.350814 -0.758087 0.168781 0.001460 0.363038 0.190216 -0.543029 0.208469 0.006836 0.609401 -0.037088 0.123976 -0.282217 -0.261753 0.368313 -0.456998 0.327087 0.357640 -0.497207 -0.351336 0.330697 0.216498 -0.500066 -0.009636 -0.304239 0.365376 -0.583242 -0.688610 -0.863858 0.122881 -0.334027 -0.098045 0.243562 -0.461522 -0.473966 0.208948 -0.232894 0.140009 -0.233886 0.019535 -0.947222 -0.145425 0.542415 -0.017528 0.374590 0.015456 -0.199667 -0.298651 -0.497676 0.014722 0.572462 0.342839
database 0.599951 -0.683510 -0.181930 -0.471740 0.821928 0.122292 0.493896 -0.735420 0.037371 0.152007 0.004208 0.070965 -0.132802 -0.111551 -0.292300 -0.557523 -0.372268 -0.770573 -0.333272 0.071829 -0.158037 0.216699 -0.120003 0.284625 -0.370939 0.400108 -0.144667 -0.032912 -0.125226 0.489609 0.402322 0.606185 -0.501224 -1.362868 1.189261 -0.444968 -0.697038 -0.182817 -1.153771 1.027474 0.608120 0.340686 0.037343 0.262908 0.825926 -0.383468 -0.154986 0.327671 0.146017 -0.340052 -0.161524 0.742668 -0.559633 0.137345 -0.033027 0.596963 -0.178069 -0.026071 -0.135076 -0.389085 0.109476 -0.133043 -0.408420 -0.984484 -0.134832 -0.001730 0.824994 -1.171291 -0.375728 -0.436534 -0.617704 -0.203087 -0.365694 -0.248262 -0.570159 -0.359139 0.483118 0.702922 -0.544947 0.008342 -1.082133 -0.002490 0.332107 -0.322339 -0.238060 0.627259 0.305764 0.055606 -0.367112 -0.561165 0.653763 -0.333660 0.017900 0.825467 -0.061140 0.196531 0.375167 0.148853 -0.082770 0.158724
" 0.479106 0.510696 -0.929434 -0.659094 0.778230 -0.001705 0.631958 -0.396428 -0.081777 -0.024347 -0.502900 -0.924240 -0.415445 -0.191854 0.810641 0.578233 0.211352 0.027353 -0.355617 0.067928 0.672166 -0.388519 -0.037215 -0.756323 0.894175 -0.237331 -0.093804 -0.245915 -0.173914 -0.108918 0.576786 0.219610 -0.108757 0.231782 0.941051 -0.295102 -0.973630 -0.336415 -0.089923 0.471448 -0.624914 -0.091470 -1.465045 0.470280 -0.084586 0.660359 -0.293098 0.582642 1.030734 -0.777640 -0.632084 -0.047049 -0.589733 0.085274 -1.002729 0.111428 0.538443 0.065988 0.567884 0.161424 -1.089726 -0.092743 0.104379 -0.116583 0.007867 0.233472 -1.232991 -0.378539 -0.227959 0.212495 -0.036820 -0.288243 0.007204 -0.134136 -0.820734 -0.253117 -0.169883 0.146945 -0.179118 -0.577524 -0.403017 0.080851 -0.411793 0.102790 0.786304 -0.595596 0.107627 0.028305 0.413384 0.135648 -0.316967 0.769805 0.073163 0.467063 1.014036 0.151146 0.354978 -0.784986 -0.202127 -0.796430
property 0.190456 -0.072144 0.231106 -1.168427 0.102243 0.206502 0.376903 -0.205540 0.457943 -0.469775 0.491746 0.107290 -0.064061 -0.285145 -0.509481 0.029600 0.645779 0.464419 0.343345 0.385424 -0.349921 0.131753 0.690845 0.226734 -0.014053 -0.015557 0.358317 -0.368345 -0.168003 -0.200475 -0.167421 0.431641 0.767286 0.309397 1.102588 -0.418928 0.429423 -0.087314 0.094616 0.453533 0.704070 0.449412 -0.406176 0.569068 -0.270491 0.175955 0.695037 0.175919 -0.219774 -0.259474 -0.573048 -0.857417 -0.275855 0.596721 -0.612349 -0.305576 0.101853 -0.499359 -1.018262 -0.118497 -0.323654 -1.233833 -0.030393 -0.763483 -0.005399 0.006037 -0.502606 -0.731060 0.202166 0.029601 -0.300312 -0.372095 0.567857 0.118142 0.116804 -1.447969 -0.295768 0.276980 0.409292 0.324379 -0.440079 -0.005712 -0.037282 -0.256354 0.356654 -0.536757 -0.666726 -0.040819 -0.270236 -0.206231 0.970125 0.629366 -0.029328 0.233294 0.495551 0.485335 -0.264639 -0.056893 0.666469 -0.667225
table 0.461100 -0.793750 -0.357951 -0.291045 0.474997 0.114968 0.413584 -0.447043 -0.062728 0.337388 1.025577 0.458312 -0.339497 0.401297 0.092996 -0.377751 -0.555169 -0.062802 -0.122840 0.621677 0.037614 0.584086 0.183129 0.168130 0.285200 -0.003798 -0.001445 0.447358 -0.313679 0.445848 0.402368 0.684610 -0.680148 -0.752366 0.966181 -0.392246 -0.910612 -0.297454 -0.838759 0.922271 -0.291111 -0.272060 -0.498553 0.208633 0.534403 -0.321972 0.360186 0.682783 0.112584 0.120590 -0.545144 0.391146 -1.021988 0.350951 -0.369999 0.450082 -0.537925 -0.496033 0.424068 0.244581 0.215149 0.065041 -0.406311 -0.536453 -0.313123 0.039059 0.247501 -1.152687 -0.577926 0.149265 0.593093 -0.526785 0.183349 0.315424 -0.250410 -0.703454 -0.052526 0.804834 -0.118970 0.315520 -0.833067 0.064131 0.420650 -0.155145 0.130502 0.284639 0.381231 0.542521 -0.714313 -0.425536 0.527638 0.362507 0.008934 0.196988 -0.182046 0.438424 0.535631 0.082055 0.269627 0.456059
another 0.325714 -0.324740 0.209350 -0.654614 0.252651 -0.603005 -0.066166 -0.063450 -0.175372 -0.202678 -0.144073 0.170733 0.142433 0.678502 -0.138258 -0.425964 -0.618847 -0.682586 -0.014711 0.204564 -0.513268 -0.478820 0.186942 -0.237800 -0.177755 0.201245 0.521254 0.969252 0.476954 -0.413275 -0.209296 0.572329 -0.339290 0.650323 0.771545 -0.258052 -0.283098 0.633238 -0.287938 1.113463 0.600762 0.580226 -0.316850 0.739394 -0.271872 -0.302968 -0.442721 -0.175864 -0.634839 -0.310476 -0.206220 0.123116 -0.019073 0.158441 -0.032284 -0.029869 -0.398983 0.316712 0.405482 0.195459 -0.052209 -0.564408 -0.672855 -0.217250 0.313706 -0.202231 0.093911 -0.972181 0.525593 0.027870 0.518380 -0.189314 -0.651826 -0.080801 0.027776 -1.139072 -0.744129 0.605005 0.569536 0.000011 -0.297283 0.008713 0.442015 0.364888 0.956977 0.393043 0.248437 0.161790 -0.918862 -0.359930 1.336312 0.960074 0.219210 -0.269960 -0.016562 0.280248 -0.557387 0.069342 0.375591 0.049088
without -0.311828 -0.030536 -0.707121 -0.409698 0.309235 0.208273 -0.165560 0.093223 0.075411 0.313484 -0.237219 0.157352 -0.135157 0.625526 0.329209 0.556394 -0.239609 -0.129421 -0.285016 -0.443555 -0.668342 -0.041976 1.120336 0.287188 0.055789 0.002625 0.012805 0.054375 0.660500 0.264894 -0.376368 0.891700 -0.499884 -0.403276 1.529945 0.448151 -0.105638 0.020661 0.279015 0.839372 0.516609 0.759936 -0.173181 0.484380 -0.240914 -0.637464 -0.213140 0.358830 0.041836 -0.280141 0.074526 -0.138755 -0.287610 0.152784 -0.272494 0.195293 -0.204728 0.473185 -0.242222 -0.167065 -0.482708 -0.239137 0.966284 -0.162164 0.287373 0.650459 -0.256709 -0.859457 0.402261 -0.106551 -0.339647 0.556990 0.318129 0.891716 -0.134905 -0.792337 -0.004446 0.551187 -0.296627 -0.470101 -0.203166 0.248480 -0.303885 -0.696789 0.650988 0.727463 0.327258 -0.295535 -0.709931 -0.051333 0.740615 -0.363290 0.719903 0.183612 0.228922 0.439943 -0.479549 0.178212 -0.451346 -0.777237
find 0.435665 -0.095847 0.172091 -0.486420 -0.344546 0.300761 0.585313 -0.433729 0.723995 0.057499 -0.409289 0.274485 -0.324511 -0.027172 -0.506568 0.844006 0.965719 -0.287541 1.192335 0.325521 -0.344050 -0.808412 -0.382783 -0.351867 0.321853 -0.047018 0.259731 0.088893 -0.214148 -0.059619 0.369767 1.149886 -0.225745 0.207961 -0.142288 -0.262816 0.360836 0.016643 0.133289 0.525259 -0.088439 -0.535403 0.159911 0.732048 0.057270 0.245773 -0.719392 0.177908 0.388743 -0.191101 -0.179744 -0.198895 -0.515533 0.679567 -0.927636 -0.006300 0.448372 -0.945877 0.628491 -0.261502 0.789057 -0.101359 0.172905 0.110961 -0.226698 -0.109286 0.157402 -0.079978 0.649855 -0.322296 -0.570531 -0.102023 0.587083 0.451356 -0.183452 -0.551459 -0.287383 -0.474588 -0.807327 -0.724637 0.061858 0.385725 0.484281 0.134891 -0.282450 0.294144 -0.250940 0.406269 -0.477171 -0.313544 0.079013 1.116214 -0.164956 -0.445423 -0.038095 0.372745 0.114106 0.174197 0.376646 -0.034893
type 0.188734 -0.347339 0.020038 -0.465408 0.544339 -0.711772 -0.319010 0.095304 0.470648 -0.398102 -0.386602 -1.044637 0.145939 -0.434501 -0.277307 0.325874 0.528843 -0.204570 -0.528001 -0.626326 -0.901669 0.341858 0.308272 0.295341 -0.189097 -1.124202 0.500976 -0.113651 0.226043 0.336268 -0.369601 0.080872 0.661426 0.674152 0.824433 -0.643797 0.136830 -0.203046 0.110596 0.277775 0.146331 -0.032690 -0.352155 0.548073 -0.694695 0.158172 -0.399842 0.443985 -0.442795 -0.569491 -0.859553 -0.686574 -0.068893 -0.081133 -0.784378 -0.509490 -0.005096 -0.365420 -0.251679 0.507904 0.444137 -0.451971 0.382810 -0.386505 0.077427 -0.687305 0.194431 -0.480018 0.221667 -0.008349 -0.239164 -0.244814 0.306411 0.041567 -0.489083 -0.618360 -0.058261 0.222732 0.786045 0.437976 -0.528715 0.768580 -0.178304 0.064137 0.285333 -0.394542 -0.003149 0.158388 -0.702533 -0.472510 0.254512 0.924067 -0.274321 -0.424379 0.398417 0.466694 -0.441538 -0.467628 1.124799 0.192487
not 1.192463 -0.634230 -0.424787 0.254890 0.129397 0.187210 0.136272 -0.565256 0.999896 -0.451364 0.097150 -0.311339 -0.537403 0.100958 -0.514058 0.793586 0.156552 -0.338798 1.119788 -0.627545 -0.671700 0.661072 0.461727 -0.738583 0.620380 1.033792 0.007872 -0.085365 0.151582 0.100419 0.646686 1.047657 0.157419 -0.001932 0.617570 0.278413 0.134619 0.048860 -0.961613 0.036357 0.646061 -0.306753 -0.123250 1.396026 0.327369 -0.245413 0.178101 0.212167 0.777231 -0.336579 -0.512294 -0.184515 0.442929 0.511036 -0.275346 0.589420 -0.034465 0.450555 -0.155527 0.430985 0.335831 -0.047570 0.125649 0.266452 0.997579 0.361471 -1.004449 -0.225264 -0.471143 0.612293 -0.868346 0.137324 0.153513 0.079990 -0.620410 -0.499310 -0.220666 -0.139554 -0.412507 -0.594254 0.038930 0.181208 -0.538723 -0.246863 0.141202 0.819326 0.462856 0.017287 0.375041 0.765153 0.490679 0.651193 0.284214 0.772003 0.102688 0.448687 -1.338330 0.675789 0.774984 0.180005
image -0.193023 -0.176830 -0.417922 -0.802468 -0.192080 -0.365327 0.049612 0.189356 -1.194201 -0.336386 -0.321693 -0.540520 -0.009932 -0.186092 0.555429 0.111675 -0.131257 0.021515 0.200037 0.530260 -0.144822 -0.518132 0.744515 -0.505359 -0.779841 0.401016 -0.039594 -0.198310 0.280436 -0.578305 0.306166 0.511451 -0.434488 0.132983 0.626589 -0.374596 -0.460962 0.421338 -0.255393 0.447722 0.093176 0.277178 0.154083 0.786281 0.246820 0.036933 -0.133073 -0.078529 -0.108091 -0.341008 -0.827195 0.184967 -0.126432 0.114174 -0.594809 1.248804 0.218744 -0.321359 -0.387376 -0.291106 -0.321179 -1.314858 0.453906 -0.772280 0.885031 0.740456 0.402648 -0.575704 -1.551835 0.168652 -0.579514 0.464474 -0.386327 -0.225737 -0.379690 -0.456730 -0.075363 0.640233 0.246839 -0.754536 0.072739 0.421647 0.201534 -0.196803 0.232035 0.526966 0.282336 -0.103409 -0.206809 -0.223716 0.474504 -0.233816 0.145304 0.017163 -0.824851 0.389892 0.177999 0.405855 0.501614 0.968115
access 0.296863 0.101372 -0.215353 -0.620218 0.904493 0.491158 0.398958 0.005979 -0.028879 -0.333907 -0.267515 -0.108354 -0.538720 0.026397 0.316461 0.517031 -0.210441 -0.284112 0.661059 0.058682 -0.151344 -0.149469 0.309219 0.173228 -0.292592 0.106075 0.534463 0.302162 -0.506372 -0.108019 0.507787 0.474763 -0.327795 -0.793421 0.621526 -0.937839 -0.411701 0.080493 -0.061216 0.284385 0.377852 0.358428 -0.013062 0.449198 0.670893 -0.330668 -0.206870 0.289117 0.781425 -0.227164 -0.410260 0.019047 -0.468298 0.772246 -0.130973 0.528140 -0.490062 -0.272285 -0.079420 -0.589000 -0.212585 0.124269 -0.228486 -1.306126 -0.784618 -0.487649 0.080737 -0.541042 0.112315 0.029007 -0.096639 -0.969877 -0.725819 -0.153518 0.030043 -0.966862 -0.300082 -0.020417 0.975275 0.101795 -0.530732 0.487013 0.276227 0.926298 -0.001691 0.433778 0.478033 0.312906 -0.427489 -0.312197 0.619475 0.047845 -0.101406 0.338393 0.371052 -0.265861 0.613681 0.157479 0.352642 -0.049154
s -0.103489 -0.455701 -0.512876 -0.487557 0.833319 -0.038509 0.482492 0.445553 0.359885 -0.850433 -0.058858 0.120486 -0.581306 0.380434 -0.215204 -0.050285 0.674886 -0.568943 -0.058524 0.921663 -0.729980 -0.086581 -0.137645 -0.345565 -0.351479 -0.467638 0.732576 -0.201912 0.184477 0.480263 0.263232 0.547799 0.098276 0.554682 0.794308 -0.392037 -0.228959 -0.345445 -0.051450 1.075769 0.268066 -0.461267 0.319781 0.368956 -0.287999 -0.254254 -0.148002 0.690538 0.052879 -0.247471 0.210786 -0.592436 0.419762 0.395990 -0.441111 0.073038 -0.127064 -0.771443 -0.043440 -0.424530 -0.032536 -0.050493 0.232776 -0.559825 0.083804 0.225837 -0.850417 -1.181998 0.313959 0.356309 0.530541 0.329213 -0.099262 0.226153 -0.649482 -1.139534 0.010643 -0.263149 0.279708 -0.957952 -0.422838 0.695679 -0.049144 0.071711 0.076058 0.274196 -0.084793 -0.343116 0.016200 -0.453095 0.535568 0.757618 0.302818 -0.662852 0.191519 -0.226048 0.248582 -0.352506 0.349797 -0.473496
code 0.026523 -0.809807 -0.232113 -0.662335 0.757190 0.875914 0.201609 -0.379306 0.067821 -0.486523 0.531716 -0.220302 -0.321709 -0.882739 -0.177665 -0.135535 -0.291315 -0.954004 -0.365526 0.278871 -0.594501 -0.659086 -0.050144 -0.147210 0.458078 0.487962 0.968890 0.194851 -0.649774 -0.315818 -0.782822 0.674734 0.712080 0.273503 0.667696 -0.059523 -0.400072 0.307929 -0.062958 -0.814097 0.010098 -0.135364 0.222593 -0.085915 0.297790 -0.330302 0.079698 0.797082 0.603126 0.114998 0.266125 0.495277 -0.805988 0.696983 -0.872100 -0.136408 -0.193638 -0.105255 0.015400 0.384594 -1.145344 -0.211045 0.049496 -0.792433 0.429083 0.171737 0.035925 -0.401162 -0.303904 0.066994 -0.830627 0.155317 -0.239170 -0.361754 0.130871 -1.049883 0.647573 0.890578 -0.429793 -0.138969 -1.096927 0.032686 -0.296206 -0.133269 0.510833 -0.233989 -0.261647 -0.267830 0.096047 -1.034651 1.005056 -0.100449 0.101350 0.040073 -0.733094 -0.537792 0.057398 -0.246348 -0.451302 -0.118015
change 0.000206 -0.029271 -0.393913 -0.560654 0.515903 -0.020975 0.554896 0.677334 0.056307 -1.166432 0.312849 -0.183267 0.029535 -0.528229 -0.557124 0.358687 0.667523 -0.073382 0.144933 0.098218 0.090454 -0.108617 0.189107 0.503316 -0.390904 0.075693 0.304282 -0.052345 0.826110 0.234786 0.087060 0.576081 -0.009335 0.349278 0.637298 0.290412 -0.083881 0.309524 0.091780 0.285308 0.569280 0.431927 0.181768 0.462005 -0.277493 0.418053 -0.441980 -0.090579 -0.146907 0.358618 -0.926580 -0.410916 -0.167142 -0.152992 -0.299882 0.451556 -0.091291 -0.691592 0.079351 -0.885823 -0.374379 -0.547688 -0.324075 -1.056732 0.327775 -0.293765 0.131371 -0.498699 -0.504024 -0.545756 -0.671311 0.858388 0.339481 0.450978 -0.414000 -0.893854 -0.265212 -0.173398 -0.028499 -0.414743 -0.205318 -0.125788 0.750596 0.001315 0.025958 0.563383 -0.230835 0.383771 -0.779860 -0.208736 0.193156 -0.135384 -0.311921 -0.397009 -0.612514 -0.414988 0.383953 0.051862 0.503033 -0.063178
name 0.820138 -0.322392 -0.605920 -0.958314 -0.114365 0.817296 0.660079 -0.551319 -0.199708 -0.152585 0.158100 0.054428 -0.427197 0.150261 0.262968 0.460576 0.785909 -0.772873 -0.329330 0.266335 -0.298217 -0.331082 0.313745 -0.167908 -0.335319 -0.234705 -0.137225 -0.243914 0.021309 -0.142052 0.894169 0.277259 -0.205879 0.546463 0.799389 -0.170969 -0.039244 -0.019401 0.076811 0.241842 0.659917 -0.093900 0.063441 0.795204 -0.673321 0.024434 -0.102417 0.699889 -0.468449 0.113891 0.114339 -0.860001 -0.284236 0.976965 -0.567075 0.943991 -0.136831 -0.412757 -0.086316 0.449129 0.720041 -0.662266 -0.541348 -0.322007 -0.362276 0.232656 -0.170981 -0.625636 -0.083609 -0.033140 0.573876 -0.353796 0.825347 1.015127 -0.282068 -0.877707 -0.134653 0.757407 -0.014813 -0.343975 -0.823080 0.297204 0.448699 0.181871 0.444228 0.135534 -0.184082 0.007690 -0.651907 -0.599275 0.669117 0.268265 -0.075326 -0.003420 -0.212251 0.175732 0.473650 0.074164 0.972065 0.042635
user 0.892386 0.621952 -0.551036 -0.921770 0.562429 -0.219433 0.105615 -0.027419 0.019106 -0.468445 0.699681 -0.258146 -0.426632 -0.886365 -0.684901 -0.443843 0.390915 -1.147550 0.355367 0.973477 -0.752942 -0.164766 0.596857 -0.589504 0.207041 -0.153005 0.246080 0.211037 -0.164713 -0.001771 0.133351 0.044177 -0.225786 -0.038809 0.714822 -1.154195 -0.447795 -0.492851 0.373445 -0.243313 0.603705 -0.406741 0.644823 0.601873 0.261780 0.241634 -0.156165 0.500983 0.297536 -0.855425 0.285108 -0.501496 0.545396 0.389799 -0.694781 1.120656 0.034057 0.545763 -0.081724 0.272993 0.279303 -0.661207 -0.827226 -1.020983 -0.249588 -0.406927 -0.170242 -0.096182 0.750876 0.687796 -0.164000 -0.235315 0.078706 -0.708759 0.048006 -0.349610 -0.258889 0.097962 -0.252893 -0.423787 -0.277402 -0.304257 0.853438 0.848735 0.121244 -0.173297 0.215375 -0.537940 -0.866388 0.094117 0.212024 0.717615 -0.501227 -0.145012 -0.557396 -0.226928 -0.610467 -0.071325 0.128234 -0.087406
way -0.442702 -0.180390 0.387882 -0.011132 -0.202371 -0.244714 -0.719571 0.378264 0.120098 -0.448275 -0.677781 -0.934361 -0.984525 -0.915185 -0.142509 0.848642 0.193469 0.000461 0.103011 0.907150 -1.006052 0.216107 0.511505 -0.415791 -0.572276 0.538410 0.321186 -0.535319 -0.456753 0.534556 -0.457438 0.171114 -0.274000 -0.198728 0.307212 -0.429313 -0.075106 -1.433057 -0.402473 0.628410 -1.212122 -0.726448 0.938735 0.397155 -0.425259 0.556967 -0.475265 0.771123 0.671442 -1.324473 -0.151936 0.372454 0.025815 0.644742 -0.681220 -0.759112 -0.603557 -0.453186 0.328965 -0.870202 0.015475 -0.366644 0.361250 0.098748 0.542626 0.235338 -0.150535 -1.168037 0.546796 -0.199735 -0.891448 -0.117486 0.158599 0.186744 -0.133178 -0.382218 -1.323532 -0.109878 -0.041197 -0.755845 0.341426 0.326022 -1.131727 0.344672 0.209428 -0.014725 0.317874 0.714946 -0.740955 -0.237387 0.185694 0.860021 0.150870 -1.556229 0.940508 -0.232486 -0.265470 0.312804 -0.547333 -0.674955
json 0.409679 0.418982 -0.059591 0.603394 -0.690989 0.998498 0.039692 0.093988 -0.173360 -0.227785 -0.203429 0.371619 -0.135595 -0.466196 0.029845 0.972681 -0.772703 -0.159327 -0.095434 -0.232614 -0.908225 -0.220228 0.289227 0.146999 -0.627799 -0.839186 0.010863 0.049541 -0.061906 -0.048702 0.782908 0.486168 0.939727 -0.171919 0.827263 0.096609 1.008269 0.277359 -0.406595 0.280960 0.064268 -0.444858 -0.076254 0.792881 0.768377 -0.491437 0.201537 0.983530 -0.810197 -0.832698 -0.903160 0.015626 0.032013 0.135137 -0.504647 -1.040806 0.302383 0.558906 0.008987 0.111386 0.339085 -0.331364 -0.024855 -0.766333 -0.144322 -0.135972 0.014737 0.191648 0.073294 1.498449 -0.373279 -0.376406 -0.256144 0.361262 -0.152005 -0.427436 -0.291776 -0.095013 0.682394 0.679677 0.004485 -0.710453 -0.584954 -0.281966 0.864320 0.349635 0.052068 0.703340 -0.835691 -0.523253 -0.150078 0.794288 0.656412 0.197007 -0.298976 0.385222 -0.471010 -0.312663 -0.700236 0.427147
button 0.764232 0.630901 -0.867063 -0.737623 0.697690 -0.316736 0.768443 0.303638 0.128176 -0.236455 0.024749 -0.465453 -0.330017 -0.112958 -0.243740 -0.355212 0.116779 -0.398264 -0.156348 0.704095 0.441665 -0.318907 0.258773 -0.698174 0.458610 1.396928 0.233583 0.484899 -0.056878 -0.592558 -0.304510 0.682586 -0.178923 1.040291 0.903698 -0.001593 -0.623282 -0.284029 -0.159002 0.476043 0.554693 0.640866 0.581306 0.658714 -0.123174 0.939038 0.098017 -0.770065 0.436125 0.138429 -0.335695 -0.291822 0.375925 -0.321764 -0.672580 0.599665 0.102071 -0.173254 0.068465 -0.178513 -1.161664 -1.048610 -0.091753 -0.597185 0.426718 -0.022052 -0.193986 0.089847 -0.148542 -0.073306 0.341820 -0.023351 -0.392095 0.351651 -0.826234 -0.781847 0.021791 0.517726 0.106883 -0.271610 0.338713 -0.712074 0.397169 -0.188007 0.539109 -0.333707 -0.420270 0.318330 -0.915795 0.060946 0.716320 0.348969 -0.032823 -0.757529 -0.295392 -0.232074 -0.272689 -0.292336 0.043805 -0.206347
custom 0.459984 0.609305 -0.607596 -0.973051 -0.080271 0.209391 0.634908 0.230792 0.563926 -0.109708 0.641991 -0.069301 -0.161008 0.205851 0.065016 0.382285 0.368673 -0.316877 -0.674429 0.162587 -0.694556 0.136517 0.032999 0.006537 0.196909 -0.660748 -0.713374 -0.645826 0.061624 0.473498 -0.042013 0.366733 1.048999 0.330587 1.132121 -0.554476 0.680031 -0.524192 -0.412584 -0.264219 0.219311 0.018458 -0.507630 0.266805 0.466323 0.167773 -0.072015 0.229381 -0.201626 -0.208819 -1.091695 -0.877449 0.887747 0.245753 -0.225637 -0.017381 -0.101019 -0.017405 -0.102993 0.181400 -0.791342 -0.258843 -0.382790 -0.679048 0.311284 -0.141197 -0.056585 0.133417 -0.279570 -0.114690 -0.356996 -0.234448 -0.369605 -0.543372 -0.182780 -0.979550 0.390317 0.251927 0.181826 0.344145 -0.479194 -0.087492 0.091595 0.330664 0.034049 0.562771 -0.064791 -0.007855 -0.250912 -0.338846 -0.229154 0.541769 0.346903 -0.142219 0.509590 -0.223046 -0.906552 -0.250844 0.047120 -0.025008
column 0.216513 -0.520180 -0.692073 -0.264941 0.451943 0.117591 1.246953 -0.378072 0.178829 0.426010 0.499237 0.577828 -0.158678 -0.079286 -0.298193 -0.590041 0.192640 -0.025662 -0.166931 0.203759 -0.267323 -0.188601 0.180665 0.271319 0.034556 -0.261954 -0.378134 -0.323290 -0.080047 0.412451 0.058156 -0.119622 0.091414 0.010946 0.825846 -0.248891 0.134811 -0.258640 -0.660316 1.297125 -0.239965 0.099318 -0.338096 0.406390 -0.331088 0.175268 0.035090 -0.042518 -0.471277 0.114296 -0.963797 -0.348895 -0.609166 -0.107523 0.212375 0.145825 -0.323008 -0.478297 0.405432 0.467692 0.339406 -0.583265 -0.726153 -0.427710 0.459267 0.696974 0.156102 -1.031797 -1.037809 -0.547536 0.725074 -0.353037 0.312512 0.532978 -0.253746 -0.810153 -0.160966 0.657863 -0.517037 -0.053067 -0.700351 -0.221863 0.435561 -0.336055 -0.117500 0.681861 -0.056589 0.371893 -0.805618 -0.402455 0.220070 0.747521 -0.841530 0.284611 0.166679 0.480782 0.040872 0.004001 0.530850 0.295661
specific 0.486489 -0.271170 -0.255670 -0.720480 0.259701 0.211703 0.403079 -0.146211 0.849905 0.424866 0.089560 -0.603223 0.058418 0.364919 -0.071506 0.162043 1.358203 0.025168 0.100714 -0.168164 -0.850210 -0.604055 0.241187 -0.738774 -0.210331 -0.470795 -0.362096 0.183985 -0.108595 -0.017484 0.154042 0.553716 0.121135 0.423758 0.622705 -0.644281 -0.107432 0.040716 0.280103 0.392894 0.030411 -0.222538 -0.038591 0.597294 -0.376111 -0.235900 -0.126027 0.516911 -0.758074 -0.085544 -0.455676 -0.219853 -0.318531 0.013602 -0.554325 -0.355724 0.407424 -0.173382 0.541286 0.282614 -0.045117 -0.687122 0.067046 -0.119542 -0.158798 0.095752 0.511509 -0.446588 -0.131555 -0.001673 -0.020540 -0.109881 -0.110962 0.304870 0.090920 -0.416218 -0.423763 -0.242865 -0.560778 -0.218195 -0.449784 0.187029 0.359150 0.055464 -0.443703 0.679461 0.032339 0.272453 -1.345137 -0.278933 -0.130121 0.756058 -0.272049 -0.156388 -0.225139 -0.014003 -0.038434 -0.031076 0.020181 0.443588
server 0.509161 -0.371409 -0.212441 -0.139559 0.471567 0.042694 0.186970 -0.203010 -0.227584 0.607729 -0.068148 -0.446012 -0.695379 0.200903 0.008453 0.287370 -0.467349 -1.673431 -0.422848 -0.130890 0.207592 0.473021 -0.105860 -0.104977 -0.339664 -0.048002 0.067643 -0.222858 -0.346358 0.736681 1.027162 0.740795 -0.181795 -0.632810 1.195278 -1.141185 -0.709409 -0.098195 -1.028238 0.735963 0.163609 0.378001 -0.469135 0.130904 1.041384 -0.119885 -0.568036 0.061652 -0.079617 -0.571254 -0.061288 -0.233497 -0.126212 -0.733176 -0.254126 0.810271 -0.339434 -0.133167 0.007499 -0.323116 -0.328236 -0.262635 -0.687851 -0.198570 -0.107517 0.058211 0.258700 -0.584802 0.231935 0.452028 -0.404662 -0.627746 -0.634589 -0.221791 -0.560959 0.187002 0.745408 0.921864 -0.224887 -0.093886 -0.472955 -0.167888 0.207225 -0.342461 0.597775 0.193847 0.274984 0.278115 0.082047 -0.472731 -0.250256 0.122794 -0.183481 0.651622 -0.149923 -0.164826 0.383199 -0.066708 0.108425 0.278324
my 0.184233 -0.377618 -0.209440 -0.659819 -0.340983 -0.296973 0.946555 -0.244364 0.367374 -0.517651 0.146102 0.126663 -0.459840 -0.098408 -0.479494 -0.032944 -0.021599 -1.167068 0.323327 0.035485 -0.306759 0.334555 0.202947 0.349285 -0.362236 0.020480 0.568501 0.403816 -0.169294 0.014158 -0.254288 0.678320 0.556018 0.254291 0.323754 -0.086668 0.189446 -0.078959 -0.575279 0.053770 0.663254 0.533743 -0.546513 0.100868 -0.147425 -0.871194 -0.741547 0.196925 0.389163 -0.642985 -0.122631 0.381304 0.657172 0.408753 -0.070710 -0.066642 -0.711377 0.097200 1.019129 -0.371042 -0.876815 0.080630 0.145030 -0.102332 0.201406 -0.271170 0.156466 0.209600 0.194042 -0.409338 -0.904588 -0.046880 -0.279420 -0.375396 -0.725084 -1.145793 0.086663 0.395226 -0.029777 -0.151825 -0.559654 -0.066992 0.405429 0.133994 0.093118 0.689625 0.063529 -0.181291 -0.071247 -0.838184 0.561454 0.137260 -0.189710 0.308937 0.075286 -0.213291 -0.319372 -0.322283 0.118416 -0.009014
query 0.276932 -0.454605 -0.400197 -0.088216 0.106951 0.132719 -0.074873 -0.595496 0.541925 0.621087 0.046590 -0.277286 -0.371246 0.196359 -0.747772 0.767828 -0.191079 -0.818973 -0.504668 0.220336 -0.437358 0.731799 -0.093282 0.343354 0.247012 0.089759 -0.115332 -0.690535 -0.376761 0.454790 0.351753 1.077527 0.392121 -0.017937 0.392541 -0.229815 -0.785237 -0.181707 -0.248696 0.544480 0.125698 0.165019 -0.387198 0.379801 0.433298 -0.144362 -0.044873 1.054543 -0.374961 -0.232525 -0.319368 1.163604 -0.713736 0.882396 -0.653691 -0.201325 -0.177135 -0.024359 -0.163888 0.390099 0.186965 0.421058 -0.632110 -0.416502 -0.252399 -0.117100 0.294886 -0.620684 -0.217814 -0.084081 -0.254620 -0.894877 -0.395116 -0.750687 0.051096 0.189306 -0.437864 0.263914 -1.135841 0.098700 -0.438487 -0.231546 0.085185 -0.450690 0.884941 -0.508614 0.229157 0.115733 -0.363668 -0.643302 0.598371 0.476642 0.044466 0.001531 0.051799 0.432241 0.337651 0.341334 -0.489581 -0.132227
t -0.117022 -0.492019 -0.769508 -0.180084 0.227747 -0.472311 0.030288 -0.351237 0.740913 -0.812844 -0.002730 -0.164352 -0.271261 0.468851 -1.142022 -0.070952 0.357501 -0.711889 0.840737 0.544217 -0.022528 0.254044 -0.565803 0.790862 -0.170954 -0.187376 0.374096 0.089351 0.143530 0.296940 -0.864259 0.208512 0.495604 -0.200508 0.216108 -0.482441 -0.563724 0.102795 0.212890 0.945792 0.956536 0.470115 -0.698275 0.830866 0.734273 -0.050091 -0.050143 -0.189087 0.314730 -1.042698 -0.861962 0.611774 0.689125 0.234425 -0.659730 -0.422121 0.268899 -1.591414 0.289929 0.254086 -0.140501 0.625004 0.397816 -0.177627 0.293555 -0.643456 -0.998204 -0.448431 0.067922 -0.297193 -0.666975 0.102755 0.248842 0.202802 -0.798467 -0.507435 -0.208174 -0.563449 0.728443 0.132064 -0.257191 -0.056019 -0.202144 -0.137157 -0.421439 -0.230648 0.109496 0.212486 0.681303 -0.266386 0.078849 1.280596 0.458684 -0.557825 -0.239862 0.333659 -0.433078 0.064144 1.679505 0.360075
number 0.535856 -0.477961 0.996224 -0.708452 0.387044 -0.437646 0.269057 -0.619559 0.324566 -0.393708 -0.027583 -0.863089 -0.239647 0.002253 -0.099303 0.896188 -0.029850 0.181411 0.532872 -0.167224 0.022505 -0.437429 -0.541224 -0.258432 0.030115 -0.297352 -0.411309 0.155737 0.502861 0.064786 0.198932 -0.056268 -0.397833 0.642836 0.926742 0.434074 -0.385139 0.037818 0.245450 -0.169872 -0.306189 -0.821174 0.655356 1.045053 -0.242265 0.409065 -0.412701 0.686620 0.818379 0.282497 -1.314485 0.583829 -0.887400 -0.100296 -0.187363 -0.086447 -0.043890 0.302924 0.708604 1.069263 0.909936 -0.664951 0.273966 0.101172 0.227554 -0.326864 0.137473 0.000817 -0.321403 -0.462795 -0.296057 0.398252 0.091346 0.463079 -0.375458 0.129413 -0.493147 -0.131540 -0.855320 -0.703572 -0.527851 0.521386 -0.082993 -0.495720 0.043215 -0.295952 0.030219 0.795859 -0.612016 0.378288 -0.634239 0.253154 -0.093176 -0.076356 -0.623228 -0.161741 0.653301 -1.113632 0.130174 -0.137091
datetime 0.073545 0.151758 -0.383465 0.180100 0.744079 0.617986 0.456580 -0.553042 0.568950 -0.625074 0.049090 -0.466577 0.211000 -1.054925 0.274251 -0.107036 0.209018 -0.563236 -0.760883 -0.293530 0.101215 0.671432 0.613542 0.183966 0.367821 -0.530550 -0.162060 -0.882068 0.563159 0.722166 -0.016143 -0.198308 0.641654 0.031571 1.054799 0.499448 0.531968 0.382420 -0.508958 0.981311 -0.013832 -0.197144 -0.398596 0.659943 0.602148 0.579257 -0.133370 0.444813 -0.668847 -1.022416 -0.995648 -0.066123 -0.212692 -0.645818 -0.057453 -0.844089 -0.227636 0.365997 0.218395 0.098009 0.398516 -0.242387 -0.163402 -0.554034 0.233955 -0.217574 -0.413539 -0.362131 0.392350 0.386969 -0.644987 0.360605 0.834823 -0.488626 -0.057285 0.113885 0.051818 -0.313755 -0.137278 0.058101 -0.373379 0.214328 -0.614144 -0.115989 0.554847 -0.070822 0.380673 0.532767 -0.396048 -1.108119 -0.269502 0.711171 0.181971 0.791308 0.054050 0.427030 -0.402677 -0.233630 0.176585 -0.003236
date 0.781616 -0.161688 -0.318234 -0.299359 0.693325 0.737340 0.952969 -0.237810 0.831805 -0.242971 -0.503676 -0.607001 0.149400 -0.668190 0.021581 -0.567641 0.904951 -0.856946 -0.003570 0.565859 -0.105068 0.039471 -0.192410 -0.458605 -0.239032 -0.727211 -0.059667 -0.540059 0.191633 0.878044 0.674288 -0.012291 0.506409 0.529412 0.556797 0.113557 -0.089799 0.418806 -0.366993 0.890608 0.023267 -0.120296 -0.090860 0.688764 0.313696 0.478906 0.074783 0.290999 -0.809640 -0.780709 -0.468966 -0.265302 -0.097977 -0.447840 -0.014054 -0.424582 0.164953 -0.042641 0.333089 0.092288 0.216296 -0.622940 -0.319748 -0.200021 -0.014579 0.254731 0.260054 -0.253664 0.057578 0.375299 -0.524947 0.200730 0.501450 -0.454772 -0.052793 0.267719 0.125519 -0.446864 -0.336046 -0.320233 -0.237643 -0.123475 -0.360747 0.315000 -0.324681 0.372424 0.128114 0.606593 -0.502053 -1.339795 -0.463076 0.851063 -0.475041 0.891817 -0.542718 0.357428 0.186299 -0.531174 -0.436325 0.201134
page 0.494443 0.228595 0.541770 -0.622610 0.065510 -0.232273 0.297070 0.103063 -0.214437 -0.764400 0.514280 -0.476246 -0.286619 -0.419671 -0.136588 0.409588 -0.603138 0.567558 0.289347 0.573034 -0.103825 0.020003 0.855030 -0.948239 0.377973 -0.321971 0.850760 0.875027 0.586908 -0.295635 -0.132912 0.765556 0.042227 0.119883 0.570984 -0.186405 -0.078721 0.660206 0.170302 0.079734 0.488518 -0.818581 0.539465 0.770468 0.126591 -0.439744 -0.151407 0.537222 0.462092 -0.046369 -0.406191 -0.207315 0.150963 0.247011 0.139511 0.561840 0.293277 0.397907 -0.057680 0.643819 -0.713153 -0.625950 0.441552 -0.756316 0.455153 -0.326386 0.381081 0.340290 0.165435 0.847106 0.117485 0.769025 -0.555655 -0.244881 -0.766072 -0.547837 0.469176 0.588893 0.404146 -0.495191 -0.391678 0.348772 0.607391 0.436617 0.599737 0.080151 0.402168 -0.218378 -0.794877 0.217551 0.296632 1.088427 0.353804 -0.370736 -1.097125 -0.010892 -0.192422 -0.473376 -0.420111 -0.512182
getting 0.115670 -0.248338 0.137683 -0.087843 0.432011 0.229697 0.792472 -0.412440 0.228281 0.411339 -0.051174 -0.293762 -0.190905 -0.478707 -0.361449 0.551531 0.454138 -0.322393 0.532332 0.260891 -0.669529 -0.270267 0.489315 -0.374429 -0.430255 -0.461950 -0.026515 -0.062907 0.315647 0.389417 1.061636 0.513769 -0.173065 -0.485620 1.122987 -0.260360 0.356604 -0.277243 0.096704 0.470054 0.234514 0.140773 0.136124 0.542778 0.022508 0.150633 0.146589 0.490866 -0.001560 -0.279816 -0.366389 -0.540254 -0.046605 0.494983 -0.325409 0.427819 -0.165616 -0.229046 -0.647966 0.328258 0.382702 0.060081 0.120489 -0.223230 -0.211157 0.650997 -0.634313 -0.212735 -0.072976 0.266362 -0.075314 0.128156 0.175358 0.193490 -0.591040 -0.461376 -0.432804 0.192300 -0.108063 -0.133314 0.247578 0.250160 -0.294637 -0.078145 0.060355 0.591161 -0.374133 -0.094338 -0.353693 -0.136908 0.108938 0.318859 -0.186571 0.470590 0.124943 0.471881 0.160528 -0.042616 0.287017 0.266326
or 0.198719 0.404457 0.358152 -0.495452 0.040243 -0.019516 -0.015174 -0.858498 -0.031797 -0.632230 -0.335608 -0.214904 -0.438605 0.731950 0.013629 0.331945 0.345080 -0.169930 0.524844 0.037897 -0.550258 0.402652 0.365926 -0.352076 0.276530 0.360916 -0.093846 0.254577 0.289498 0.112364 0.043631 0.310178 0.257039 0.537112 0.775917 0.343301 -0.685702 -0.012006 0.418993 1.123388 0.300008 0.382487 -0.240423 0.358641 0.415627 -0.338939 0.146112 0.235636 0.239564 -0.429898 -0.413060 0.152747 -0.697990 -0.442311 -0.086150 -0.156447 0.550550 0.105782 0.210445 -0.235998 0.427609 -0.411871 -0.567256 0.331741 0.334179 -0.100549 -0.542430 -0.571998 0.173035 0.034908 -0.364304 -0.125065 -0.071334 0.066608 0.343493 -0.489979 -0.356935 0.135873 -0.147692 -0.447345 -0.349753 -0.296855 -0.029188 -0.247743 0.670017 0.034306 0.094540 0.249784 -0.784552 0.140288 -0.013502 0.702829 0.413532 -0.356523 -0.010428 -0.288746 -0.035822 -0.315397 -0.063260 -0.266344
app 0.320726 -0.554295 0.423819 -0.162899 -0.052842 -0.114061 -0.037777 -0.001627 0.042367 -1.137827 0.639659 -0.201786 -0.140282 0.353960 -0.231426 0.744838 -0.554126 -0.698414 -0.022210 -0.313838 -0.082980 -0.618288 0.674081 -0.441920 -0.632994 0.637590 0.759765 0.555401 0.765261 -0.887185 0.242656 0.159697 0.472416 -0.140986 1.290443 -0.442193 -0.444232 0.690977 -0.045745 -0.268671 0.825777 0.354197 0.164383 0.003433 0.288605 -0.575430 -0.512424 0.219561 0.768864 0.257969 0.258717 -0.425950 0.677885 -0.310703 -0.251199 0.618851 -0.111866 0.426210 0.904632 -0.475128 -0.438358 -0.201513 -0.107787 0.321810 -0.524907 -0.494014 0.485860 -0.037200 -0.243830 0.008483 -1.263771 0.455238 -0.074626 0.846133 -0.577157 -0.775594 -0.494734 0.869572 -0.659687 -0.291589 0.470874 -0.000901 -0.288690 0.062315 -0.329404 0.804298 -0.244271 -0.684511 0.212546 -0.617702 0.304808 -0.179689 0.413469 0.542523 -0.383914 -0.461435 0.054398 -0.283767 -0.253328 0.484140
row 0.331485 -0.282663 -0.604119 -0.177872 1.022958 -0.048886 1.175948 -0.280957 -0.077755 0.494383 0.571789 0.018772 0.012649 -0.404263 -0.353358 -0.398164 0.238222 0.562372 -0.014506 0.528264 -0.432446 -0.299143 0.412942 -0.354023 0.479596 0.114444 -0.314119 -0.023207 0.138589 0.549375 0.034749 0.362371 -0.364282 -0.224507 0.593456 0.226848 -0.300203 -0.374816 -0.210877 1.096842 -0.270807 -0.294440 0.349476 0.332459 -0.303058 0.260740 -0.190584 -0.019509 0.291013 0.559401 -0.176457 0.116329 -0.673998 0.111950 0.276491 0.148107 0.440324 -0.375575 0.395295 0.134254 0.117863 -0.328593 -0.480248 -0.396180 0.754746 0.376924 -0.068911 -1.400122 -1.015755 -0.646564 0.297700 0.217894 -0.188587 0.666100 -0.308972 -0.840781 -0.510707 0.534162 -0.213076 -0.553823 -0.305344 -0.371436 0.334212 -0.610621 -0.338408 0.634814 0.584190 0.308612 -1.503125 0.715833 0.450687 0.527122 -0.721252 -0.101054 -0.090813 -0.037190 0.440777 -0.286489 0.501680 0.336503
datagridview 0.408502 -0.144634 -0.016007 -0.133877 0.457289 -0.744058 0.660279 0.107197 0.327713 0.019862 0.166279 0.358738 -0.161499 -0.061557 -0.468227 -0.330469 -0.036789 -0.031885 -0.115939 0.563570 -0.092495 -0.137471 -0.313097 0.127265 -0.097454 0.191689 0.069323 -0.192861 0.355136 0.069626 0.385934 0.169976 0.150199 0.068208 1.038039 0.183073 0.032007 -0.615839 -1.053957 1.418635 -0.105248 0.529472 0.629971 0.190780 -0.535444 0.098279 0.103609 -0.437744 0.137320 0.488468 -0.623247 0.012953 -0.114894 -0.317672 0.144948 0.047033 -0.053254 0.030040 0.490555 0.031968 -0.034146 -0.495348 -0.395859 -0.430455 0.837017 0.235370 -0.349585 -0.682265 -0.939793 -0.688585 -0.371613 0.060178 -0.657014 0.312397 -0.433948 -1.068500 -0.177464 0.346630 -0.381904 -0.227649 0.095310 -0.797762 0.216162 -0.488346 -0.311023 0.889902 0.020309 0.341542 -0.717698 0.397306 0.144485 0.147243 -0.505747 0.481935 -0.139815 -0.170379 -0.464928 0.192628 0.314576 0.542221
