4138 50
</s> 0.433336 0.433895 0.428142 -0.428806 -0.147282 -0.925851 0.326350 -0.096263 1.049296 0.071390 0.504684 -1.056619 -0.062447 0.263636 -1.244163 -0.169257 0.976481 -0.619890 -0.665711 -0.038858 -0.085304 -0.624865 0.084359 -1.488196 0.350140 -1.014593 1.185859 -0.800127 -0.672928 -0.462478 0.804763 2.032040 0.669014 0.685560 1.814101 0.313981 -0.874985 -0.056924 -0.431488 0.745269 -0.001042 0.701629 -0.277051 1.011550 -0.131760 -0.211196 0.619398 1.346860 0.062240 -0.577870
<s> -0.251144 0.207534 -0.298807 -0.526050 -0.508029 -0.846498 0.468309 0.092818 1.640206 -0.280017 -0.349581 -1.480684 0.673860 -0.805807 -0.994818 1.076059 0.061355 0.401429 0.584398 0.694004 -0.235437 0.002730 0.510803 0.080999 0.115590 -0.732657 0.228836 -0.435220 -0.229185 -0.470309 1.128100 2.584454 0.255962 -0.819076 2.613511 0.131118 0.586518 -0.417465 -0.576035 0.857247 0.348967 0.555522 0.168866 1.227342 0.605038 0.356242 -0.571404 1.498490 -0.133205 -0.571480
to -0.134828 0.910827 -0.648848 -1.030807 0.024359 0.002592 -0.034068 -0.907046 1.378767 -0.671247 -0.572239 -0.902302 -0.981685 -0.546448 -0.603005 0.353336 -0.374140 -0.138508 -1.371780 1.038459 0.168512 -0.011712 0.485960 -0.735155 0.322842 0.135862 0.571705 -0.154771 -0.095156 -1.193405 -0.056456 1.910904 0.966161 -0.031448 2.245736 -0.674528 -0.368936 0.332895 -0.311297 2.172190 -0.700945 1.402599 -0.294421 1.082537 -1.020497 0.064197 -0.876862 1.811827 0.319453 -2.509775
a 1.258133 0.506972 -0.298424 -1.744060 0.230071 -0.910783 0.894738 -1.114836 1.643279 0.045572 0.695698 -1.398089 0.567248 0.364175 0.491842 0.931651 -0.323476 0.316435 0.562499 0.028514 -0.742323 -0.363199 -0.439971 0.097736 -1.083643 -0.484487 -0.105353 -0.216796 -0.449449 -1.043277 0.680662 1.690098 -0.433797 0.823651 3.084294 -0.197115 -0.531416 -1.091120 -0.737140 0.897583 1.037135 0.172649 -0.166284 0.705199 -0.279016 0.250551 -0.996522 0.450549 -0.318198 -2.239848
in 1.707969 0.302137 -0.190773 0.041673 0.207736 0.302677 1.405418 0.754597 1.460409 0.247887 0.281863 -1.967858 -0.145154 0.816544 -1.363057 -0.201542 0.796525 0.031542 -0.204828 -0.245211 -0.160705 -0.366228 0.003161 -0.919047 0.214008 -0.455826 -0.190940 -1.031624 0.067168 -0.934686 1.103707 2.141776 1.171289 -0.363640 1.878808 0.201894 -1.379917 -0.379080 -1.108819 0.789598 -0.179518 0.935024 -0.259325 0.655084 0.402214 -0.481576 0.038157 0.678987 0.406554 -0.894806
how -0.124151 0.708022 -1.219995 -0.485236 0.025222 -0.644615 0.915394 -0.234772 1.051700 -0.552565 0.068271 -0.730777 -0.712181 -0.546939 -0.490074 0.255368 -0.194850 -0.149427 0.072678 0.238339 0.046579 -0.217506 0.553489 -0.109551 0.162330 0.248295 -0.293589 0.067495 -0.280126 -1.482727 0.365857 1.703562 1.020666 0.289832 2.233361 -0.823510 -0.132280 0.518708 -0.089104 1.197178 -0.727147 1.638708 -0.421042 1.223445 -0.189576 0.043133 -0.795234 1.492376 -0.211747 -1.617372
? 0.760213 0.263953 0.121905 -0.328791 -0.031260 -1.089210 0.652495 0.167896 0.737490 -0.563972 0.439336 -0.784691 -0.495907 0.490424 -0.762735 -0.229290 0.655898 -0.660445 -0.661388 -0.730666 -0.461495 -0.855766 0.205670 -1.329158 0.528158 -0.354151 1.037900 -0.608474 -0.535433 -0.651973 0.525687 1.178704 1.077416 1.036215 1.905831 -0.085611 -1.138698 -0.090036 -0.238743 0.934712 -0.459313 1.215493 -0.517524 1.253953 -0.012486 -0.326141 0.550190 1.547796 0.495849 -1.158573
c 0.510861 0.393576 0.686904 -0.838109 -0.000200 -0.528687 1.111743 0.563790 1.561663 0.125617 -1.701074 -1.108363 0.258870 0.408572 -0.199193 0.423326 0.136868 -0.188241 -0.611250 0.386757 -0.552958 -0.301975 -0.341013 -1.164233 0.449775 -0.509846 0.855695 0.153434 -1.036451 -0.540997 2.158804 1.215937 0.935617 0.608216 2.183152 -0.220352 -0.842222 0.000600 -0.502963 0.795701 -0.066748 1.125239 -0.477340 1.176073 1.412441 0.257239 0.205169 0.537523 0.183944 -0.729669
# 0.293945 0.243173 0.929788 -0.892085 -0.232194 -0.446230 0.966458 0.565135 1.539321 -0.082140 -1.509824 -1.082009 0.373625 0.199973 -0.101816 0.680624 0.226315 -0.266414 -0.595592 0.339309 -0.594017 -0.321092 -0.265299 -1.190220 0.516684 -0.483001 0.863948 -0.006704 -0.950133 -0.422437 2.080405 1.389961 0.908514 0.570006 2.250949 -0.071351 -0.704926 -0.000245 -0.510632 0.806227 0.030327 1.173214 -0.560835 1.120887 1.620238 0.312117 0.135011 0.632188 0.153731 -0.606851
from -0.159022 -0.441979 0.429711 -1.882528 1.026787 0.433466 0.630728 -1.048879 1.155254 0.706338 -0.379606 -0.550916 0.023495 0.410112 -0.809290 0.118427 -0.365781 -0.333373 0.398227 -0.405072 -0.437349 -0.233894 0.033252 -1.211186 -0.416496 -0.678456 0.939682 0.329271 -1.169364 -0.440609 0.692106 1.632392 0.616537 -0.686156 1.898881 -0.748274 -1.113024 0.537841 0.034986 0.854413 0.366842 0.626103 0.631939 1.539042 0.319122 -1.271903 -0.336379 1.066091 -0.011399 -0.692888
of 0.801408 -0.597318 0.194372 -1.129703 -0.459347 -0.078706 0.806802 0.969998 1.164628 0.897142 0.313230 -0.928000 -0.339979 0.190444 -0.209332 0.203593 0.348474 -0.974338 0.768621 -0.271133 -1.170291 -1.305894 0.022569 -0.815464 -0.137518 -1.477209 0.676436 0.372068 1.460745 0.277759 0.873921 1.895204 -0.051949 1.183948 1.893680 -0.814962 0.564642 0.062629 -0.332853 0.815553 -0.646139 0.737146 0.198206 0.997036 -0.946501 0.478416 -0.076462 0.659646 -0.361959 -1.236128
the 0.504823 -0.932240 -0.320097 -0.357787 -0.044025 -0.092015 1.736940 0.793612 1.108639 0.207121 -0.042913 -0.350285 -0.802075 -1.573945 -0.961658 0.224381 0.625800 -0.419857 0.012513 -0.550947 -0.610911 -1.096402 1.136432 -1.281403 0.219078 -0.367467 0.422430 0.405879 0.691250 -0.505421 0.683721 1.866315 0.131428 0.381475 1.260911 -0.670939 -0.640124 -0.072424 -0.271582 1.264724 0.517973 0.185373 0.285166 1.227607 -0.725290 -0.069360 -0.911685 1.280979 -0.034663 -0.948272
with 0.429454 0.510464 0.994962 -0.283183 -0.533572 -0.575565 0.171425 -0.303889 0.861548 0.165348 -0.296571 -0.499801 -0.261447 0.301901 -0.858354 1.150398 1.099314 -0.859663 -0.194139 0.747873 -0.788928 0.839404 -0.486198 -0.280260 0.000889 -0.795990 0.014783 -0.405179 -0.634817 -0.719365 0.889079 2.338303 0.147468 0.794902 2.166512 1.301657 0.187970 -0.026598 -0.142041 0.603574 0.019366 0.782728 -1.008641 0.757495 -0.545309 -0.005622 1.115540 1.173210 -0.845173 -0.144678
. 0.228930 1.272437 -0.103531 -0.145728 0.131487 1.451704 -0.049791 -0.076261 -0.030192 -0.861574 0.912912 -1.186983 -0.335635 0.213543 0.093832 1.005570 -0.230123 -1.186934 -0.301431 -0.963805 -1.930924 0.052662 0.338767 -1.320228 0.901059 0.002741 0.555726 -0.146336 -0.001683 -0.522544 0.490217 1.133107 0.896839 -0.046170 3.038725 1.108577 -0.096679 1.439526 -0.053903 0.945120 0.299393 0.157850 -0.813950 0.018366 1.628092 0.583076 -0.777663 0.968487 0.354773 -0.713889
using 0.537428 0.364339 0.264380 0.101808 -0.540178 0.022156 0.313934 0.178697 0.841864 0.021595 -0.151800 0.128530 -0.106092 0.223218 -1.505166 0.429900 0.661087 -0.009985 -0.775786 0.159828 -0.673697 0.402172 0.224324 -0.702036 0.580433 -0.394314 0.335575 0.208122 -0.919015 0.131282 0.972714 1.009327 0.611331 0.340707 2.148810 0.459121 -0.748487 0.202195 0.061137 0.877186 0.424367 0.514023 -0.543819 1.081946 0.803941 0.173145 -0.051371 1.317194 -1.024636 -0.106249
- 0.352188 0.323045 -0.313419 0.400120 0.106061 0.492263 0.071871 1.473358 1.635011 0.719449 -0.103524 -0.657589 0.598904 -0.576288 0.597999 0.109189 -0.336622 -0.743743 1.192443 1.238502 -0.002936 -0.354385 0.253338 0.545055 0.743677 -0.402315 1.332149 -0.956021 -0.067070 0.064928 0.257596 1.542976 0.877177 0.390078 2.547430 -0.190245 -1.761696 0.057703 0.457710 0.660233 0.489490 0.283997 -0.749956 -0.000143 -0.184047 1.001253 0.944155 1.242312 0.140367 -0.799231
i -0.464108 0.380127 -1.646009 -0.361465 -0.108198 -1.115894 1.588746 -0.061510 0.317563 -0.555204 -0.119869 -0.833602 -0.945693 -0.494503 -0.387647 0.880881 -0.357689 -0.726844 0.600727 0.227274 -0.377689 -0.502671 0.860373 0.221556 -0.376836 0.612101 -0.569746 0.821603 -0.210860 -1.385868 0.199743 1.264875 0.976764 0.227871 2.046647 -0.791012 0.223918 0.111178 -0.049954 0.696167 -0.329582 1.015642 -0.714280 1.717132 0.446728 0.182270 -0.529941 1.111618 0.070014 -1.636586
string 0.895259 0.155292 0.702215 -0.493684 0.194002 0.414652 0.380725 -1.153407 0.888376 -0.442413 -0.435040 -1.830307 1.472425 -0.055094 0.016317 0.213415 0.017164 -0.384448 0.193933 -0.552467 -0.384476 -0.806102 0.626764 0.049141 0.350754 -1.393172 -0.234178 0.491560 -0.051411 -0.013624 0.802705 1.881286 0.161847 0.577587 0.710973 -0.053978 -0.429509 0.611497 0.046801 0.629634 0.716285 -0.076652 -1.332548 1.770910 0.338804 -0.018335 0.085698 1.133817 -0.286115 -2.092685
and 0.303752 -0.042301 0.073319 -1.057810 -0.235994 -0.136475 0.929586 0.702574 0.244333 0.076676 -0.295314 -0.208611 0.205745 0.392515 -0.421396 -0.171766 0.476469 -0.738467 -0.233294 0.016226 -0.439833 0.017080 0.039496 -0.720764 1.081542 0.289994 -0.757234 -0.321238 0.461238 -0.884699 0.854617 1.476543 0.318829 -0.467656 1.324810 -0.142231 -0.436030 -0.108069 0.264965 1.719928 0.780585 -0.430927 -0.015853 2.324495 0.372708 0.472013 0.426592 1.094503 -0.966631 -0.981785
get 0.248882 -0.153926 -0.064607 -0.495603 0.123270 0.696212 0.854122 -0.124787 1.151264 -0.111258 -0.268779 -0.169823 -0.666647 -0.771431 -1.295863 0.506765 0.411244 -0.493032 1.113201 -0.319625 -0.701349 -0.686322 0.223415 -0.675158 -0.058641 -0.693909 0.236739 0.519439 0.319676 -0.633801 1.041896 1.061655 0.985827 0.084497 1.502365 -1.238186 -0.094753 0.299343 0.781143 1.290224 -0.424152 0.173286 0.350011 1.053538 -0.651626 -0.098148 -1.024160 1.618922 -0.180112 -0.348103
an -0.487493 -0.369250 -0.843290 0.053205 -0.559617 0.241984 -0.506024 0.132070 0.808047 1.369907 -0.124429 -1.194380 0.284455 0.493443 -0.510516 0.408066 0.169801 -0.302169 -0.834300 -0.664371 -1.849438 -0.928160 1.586931 -0.520224 -1.376488 -0.331560 -0.172979 0.197288 -0.507242 0.183185 1.104794 1.445493 0.979661 -0.727196 1.771789 -0.276508 -0.235792 -0.309395 0.570889 0.611853 -0.085177 1.737569 -1.424523 0.862159 -0.235662 -0.489401 0.218487 1.036301 0.322218 -0.634078
for -0.065308 0.143692 0.288299 -0.513344 -0.375405 -0.431725 -0.332532 0.471495 0.951352 -0.492416 0.779787 -0.905724 -0.224806 -0.038917 0.279881 0.555365 1.616808 -0.183635 -0.473415 -0.222304 -1.317888 -0.111931 -0.369690 -0.644859 0.787402 -0.756607 0.176773 -0.633796 0.154178 0.464398 0.627265 1.146817 0.615392 0.364129 1.790387 -0.607796 -0.300717 -1.238209 -0.232034 0.512145 0.338282 -0.235235 -0.184900 1.025292 0.573453 0.657913 -0.294029 1.236458 0.360822 -0.775889
list 0.684725 -0.060818 0.381128 -1.186063 -0.529541 -0.381342 -0.153043 -0.318038 1.036685 0.310949 0.216568 -0.791561 1.240123 1.145308 -1.735774 -0.417289 0.125351 -1.057419 0.607840 -0.141264 -0.990060 -0.575365 0.064418 0.070580 -0.299962 -1.142294 0.292786 0.929652 0.510203 0.351886 -0.263084 1.255323 0.460979 -0.545261 1.964312 -0.404746 0.220703 -0.288298 0.100154 1.518473 0.144887 0.482209 -0.430646 1.508047 -0.877243 0.451291 -0.419280 -0.008381 -0.487097 -1.647262
on 0.510672 0.721835 0.436927 -0.964300 0.357315 -0.931666 0.340316 0.013552 0.541201 0.530887 1.375472 -1.342409 -0.082809 -0.005508 -0.856436 0.095831 0.619943 -1.669997 0.028112 0.088464 -0.654102 0.242980 0.941735 -0.355179 0.031316 0.304488 0.366806 0.629868 0.003075 -0.137426 0.516473 1.801635 -0.061353 1.051330 1.346088 -0.835239 -0.872376 -0.645885 0.349094 1.037879 0.673056 0.704943 0.295460 0.536809 -0.077290 0.088070 -0.385739 0.690477 -0.412650 0.581319
file -0.069092 0.040812 -0.894906 -0.725344 -0.283069 1.423057 -0.866998 0.673294 0.772460 -0.267366 0.038747 -1.115884 -0.501320 0.320429 -0.686596 0.332799 0.188530 -0.715769 -0.371726 0.118734 -0.951973 -0.778020 0.186275 -1.261188 -0.941816 -0.082445 0.187945 0.284330 -0.930404 -1.175356 1.207602 0.192373 -1.098074 0.075200 1.366327 0.298140 -1.120491 0.787663 -1.115755 0.451019 0.387302 0.219136 -0.068776 0.743183 1.086225 0.084651 0.509998 1.926274 -0.424824 -1.768524
value 0.453776 0.738014 0.070621 -0.120688 1.328010 0.312222 0.653327 -0.538584 1.322211 -0.390740 0.063382 -0.684657 -0.005223 -0.520675 -0.482937 -0.233032 0.178439 -0.170355 -0.001838 -0.331754 -1.269601 -1.041812 -0.263698 0.045340 -0.258952 -0.501775 -0.249612 0.817314 1.059480 1.130429 1.528719 1.473306 0.274110 0.595060 1.395944 -0.544466 0.149535 0.044066 0.077611 2.137141 0.898076 0.069729 -0.551272 1.351405 -0.850458 -0.327435 -0.149164 0.554935 -0.150292 -0.508038
can -0.203575 0.025751 -1.168820 -0.157520 -0.160441 -0.799034 1.164127 0.051772 0.405454 -0.900794 -0.093969 -0.630329 -0.991558 -0.377283 -0.487166 0.787589 -0.090916 -0.828611 0.613510 0.261438 -0.643751 -0.574028 0.424537 0.369122 -0.201898 0.585209 -0.352853 0.770926 -0.309866 -0.956357 0.081622 1.007773 0.923216 0.384187 1.984402 -0.842415 0.054423 0.382864 -0.104251 0.703924 -0.269326 1.454384 -0.825850 2.036699 0.378368 0.039326 -0.103554 0.767079 -0.033375 -1.340803
, 0.619137 -0.920145 0.063582 -0.790661 -0.640557 -0.256905 0.409773 -0.330193 -0.153459 -0.217144 -0.628580 -0.385614 0.361751 -0.397900 -0.296688 0.446798 0.550487 -0.879951 0.969041 -0.796798 -0.235602 -0.080586 0.653760 -0.299608 1.474165 0.391434 0.325268 0.257725 0.169689 -0.029030 0.399085 0.564387 -0.054433 -0.329619 2.037640 0.458845 -0.755398 0.604488 0.325827 1.179612 0.827172 0.606350 -0.634986 2.176056 0.013156 0.703230 0.624462 0.320250 -0.059733 -0.776341
data -0.175464 -0.702824 0.258703 -0.032104 0.559608 0.212466 0.211752 -0.800831 0.504195 -0.234122 0.699179 -0.879356 -0.722861 -0.376131 -0.582797 0.471453 -0.041878 -0.777918 0.043276 0.470202 -0.427432 -0.524694 0.038745 0.245606 -0.595736 -0.714017 1.351881 0.054424 -0.347164 0.652647 0.473881 1.111083 0.058113 -1.115680 1.985753 -0.435401 -0.179671 -0.159251 -1.010234 1.321438 -0.157135 -0.398162 1.058471 1.662596 0.406541 -0.191215 0.928607 1.030747 -0.645368 -1.249161
is 0.987469 0.038462 -0.738581 0.123875 0.221139 0.339659 0.419398 -0.672404 1.465669 -1.051551 -0.318092 -1.279696 -0.255249 -0.254290 -0.597841 0.169998 -0.314446 -0.338690 0.414741 -0.990614 -1.052123 -0.477271 1.214917 -1.035504 -0.004870 0.594183 0.862140 0.212342 -0.071973 -0.060935 0.885325 0.780665 -0.322877 0.311935 0.871833 0.262072 -0.939776 -1.304434 -1.131290 1.338374 0.698149 0.207699 -0.470706 0.542819 -1.229475 -0.168204 -0.082570 0.350882 1.142307 -1.141657
net 0.208499 1.083495 0.457958 -0.048584 0.429978 1.474577 0.642221 -0.034307 -0.382487 -0.369445 0.300155 -0.643583 -0.448135 -0.000187 -0.182901 0.373752 -0.167696 -1.154440 -0.236941 -0.752677 -1.388141 0.096140 0.052059 -1.303873 0.516424 -0.124946 0.672892 -0.493927 -1.130219 0.094404 0.482785 1.364828 1.059195 -0.155018 3.070886 1.018318 0.326843 0.610531 -0.109214 0.210142 -0.043472 0.378553 -0.393890 0.004416 1.315943 0.814252 -0.302060 0.200111 0.349994 -0.481719
linq 0.353212 -0.231209 -0.538665 0.530005 -1.195860 -0.817359 0.659790 -0.450332 1.189267 0.849030 -0.035066 0.092655 0.184159 1.183293 -1.288807 0.735414 -0.001706 -0.768266 0.293172 0.305689 -0.360783 1.342584 -0.154476 0.442795 0.557371 -1.051326 -0.054963 0.533405 -0.027335 1.402296 0.896804 1.588496 0.397929 0.345193 1.197855 0.105065 -0.453888 -0.753451 0.359221 1.413181 -0.964417 0.280328 -1.326512 1.345561 -0.133306 0.102802 0.035436 1.378509 -0.810946 -1.089326
do -0.239751 0.322877 -1.177284 -0.283055 -0.359175 -0.823715 1.192932 0.033294 0.278133 -0.284449 0.029265 -0.751047 -0.620567 -0.307070 -0.419813 0.856414 -0.040013 -0.378578 0.234658 0.023884 -0.180158 -0.045014 0.741066 0.103547 -0.159286 0.260110 -0.388520 0.119762 -0.218133 -1.282752 0.178149 1.386265 0.784832 0.146652 1.708108 -0.637946 0.267275 0.029798 0.112462 0.898991 -0.221047 1.149027 -0.602572 1.256025 0.359072 0.005179 -0.628097 1.108018 0.201347 -1.486841
' 0.291734 -0.536471 -0.041844 -0.307758 0.625192 0.301215 0.992487 -0.286764 0.706081 -1.479284 -0.699986 -0.038735 -1.276133 0.629317 -0.650466 1.393574 1.105957 -1.569332 0.229393 1.058914 -1.069267 -1.210110 -0.043878 -0.069007 -0.211658 -0.223019 1.015204 0.704646 0.045580 -0.406105 0.129185 0.343314 0.933307 0.500033 1.784855 -0.393473 -0.336898 0.043777 0.505772 0.636856 0.829638 -0.499460 -0.951494 0.352610 -0.420591 -0.191782 0.397037 -0.088067 0.763933 -0.673374
xml 0.211879 0.933866 0.204274 0.025455 -0.866217 0.648242 -0.742715 0.180890 1.411488 0.380701 0.425819 0.417302 -0.397843 0.785754 -0.979020 1.370394 0.352739 0.336155 -0.546645 0.337998 -0.611510 -0.328614 0.649911 -0.351813 -0.897052 -1.090129 0.195312 0.535414 -0.587541 0.413413 1.010314 1.113522 -0.104520 -0.574660 0.685264 -0.708030 -0.013699 0.078688 0.202991 1.162981 0.352793 -0.352410 -0.750850 1.340169 0.804386 0.157488 1.213529 1.818513 -0.693228 -1.104433
array 0.663806 0.449339 0.282787 -0.075266 -0.286317 -0.332163 -0.199426 0.476388 0.119236 0.963794 -0.723693 -0.900591 1.585633 1.415892 0.043164 0.044890 -0.737372 -0.529804 -0.419909 0.289353 -0.962400 -1.483054 0.379895 0.305307 -0.718889 -0.722170 0.754109 0.453345 0.685226 0.237301 1.646374 0.962138 0.425482 0.106419 1.126937 -0.566605 0.286594 0.345606 -0.270741 0.682285 -0.616772 0.580227 -0.484026 0.929963 -0.217357 -0.168251 0.354427 0.253246 0.452773 -1.619941
windows 0.252877 0.851474 0.363729 -0.475791 -0.398182 -0.855024 -0.362525 0.905921 0.861257 -1.346045 1.228970 -1.294294 -0.098812 0.293423 -0.412808 0.396763 0.391564 -1.410529 0.566666 0.473926 -0.126435 0.027723 0.429671 -0.879652 -0.220996 0.740559 1.048809 -0.264358 0.030648 -1.118787 0.912158 0.246035 0.692951 -0.544429 1.228590 -0.961158 -1.097787 -0.043313 0.015491 0.982316 0.365211 0.581649 0.534880 -0.095525 0.760572 -0.459626 -0.056191 0.772545 -0.045743 0.320558
( 0.608464 0.129812 0.173722 -0.623026 -0.242101 0.172876 0.177888 -0.305930 0.457007 -0.584432 -0.147198 -0.421688 -0.076978 0.555401 -0.229986 0.858653 0.524494 -0.791240 0.461613 -0.048046 -0.352435 -0.345739 0.118460 -0.521251 0.888568 0.066655 0.744916 0.019693 0.193260 -0.192854 0.885979 0.496965 0.256691 0.606871 1.628084 0.104037 -1.125206 0.608558 -0.202310 1.086296 -0.044848 0.699454 -0.440141 0.951353 0.551230 -0.080748 0.119315 0.512949 0.369687 -0.296388
) 0.592928 0.046837 0.145789 -0.425688 -0.212916 0.317059 -0.051112 -0.269499 0.305240 -0.518769 0.020427 -0.534459 -0.071648 0.714618 -0.095418 0.950912 0.775667 -0.923407 0.208664 -0.046302 -0.319515 -0.407619 0.022592 -0.723094 1.229976 -0.027928 0.916542 -0.103752 0.151869 -0.170476 0.794263 0.408379 0.428994 0.827421 1.526711 0.015505 -1.228898 0.703143 -0.121872 1.081511 0.022486 0.597796 -0.518949 1.026752 0.579654 -0.217638 0.266691 0.654745 0.484450 -0.215702
object 0.583671 0.164496 -0.205037 -0.374864 0.297326 -0.145304 0.539370 -0.439257 0.918146 0.105397 -0.008942 -0.352910 0.777922 0.007864 -0.078469 0.339648 -0.243393 -0.701769 -0.171845 -1.041360 -0.733574 -0.048033 0.982247 0.370890 -1.028153 -0.715004 0.561235 0.192000 -0.405279 0.461526 0.295608 0.275492 1.064715 -0.629411 1.921989 0.162305 0.525915 -0.356605 0.508100 1.183931 0.320479 1.021863 -1.098552 0.672546 -0.974387 -0.760666 0.837842 0.657852 -0.613509 -1.221483
into 0.289227 0.146383 0.111637 -0.296266 0.412021 -0.580841 0.186771 -0.452303 -0.080756 0.415875 -0.014767 -0.727789 0.303444 0.674951 -0.282536 -0.360255 -0.070430 -0.852076 -1.220219 0.932968 -0.518591 -0.417817 -0.041170 0.101626 -0.209695 -0.812505 0.633299 0.687133 -0.405259 0.497438 0.503255 0.774066 0.444188 -0.711800 1.246718 -0.081339 -0.895112 0.470879 -0.758565 0.961917 -0.416493 0.030827 -0.115619 1.396875 0.657783 -0.933253 0.345370 0.510774 -0.615352 -1.638737
text -0.168214 1.011495 0.355627 -0.858553 0.656491 0.903704 0.800420 0.569017 0.721634 -0.303364 -0.014136 -1.101969 -0.340105 0.218787 -0.728825 -0.544397 0.564097 0.118086 -0.178929 1.289147 -0.298557 -0.958378 -0.242081 -0.848719 -0.818342 0.087774 -0.803889 0.948782 -0.091397 -0.254962 0.466060 1.492412 -0.485364 1.151249 0.480135 -0.379879 -0.624147 0.208608 -0.594135 0.794682 0.826778 -0.230197 -0.040269 0.943836 1.151373 0.594672 0.708174 0.948831 -0.054330 -1.262689
asp 0.482330 1.015241 0.125742 -0.419506 0.987023 1.618380 0.695939 -0.319521 -0.853078 0.233741 0.607899 -0.435703 -0.303740 -0.060288 -0.694638 0.210125 -0.215341 -0.958376 -0.234554 -0.333009 -0.792523 0.036248 0.017022 -1.155675 0.218807 0.064390 0.108566 -0.756065 -1.007090 -0.124914 0.623862 1.601678 0.671298 -0.405542 2.662181 0.438715 0.073293 0.534228 -0.133886 0.395498 -0.028185 0.511297 0.185277 0.220238 0.700148 0.648430 -0.892785 0.046606 0.409557 -0.056983
method -0.090016 -0.689877 -0.029573 -0.525110 -0.055899 -0.495663 -0.315160 -0.279000 0.411005 -0.049786 -0.979181 -0.795993 -0.847027 0.838519 0.363742 1.206460 -0.243297 -0.724376 0.060579 -1.146859 -1.884841 0.226703 0.622356 0.229228 0.569384 -0.247665 0.309427 -0.434574 -0.749457 -0.395873 0.501807 0.990762 1.110167 0.735253 1.335868 -0.572593 -0.004126 -1.673816 0.110090 -0.183396 0.691779 0.699027 -0.449728 1.113178 -1.255676 -0.235023 -0.240703 0.818221 0.190265 -0.147521
values -0.173433 0.180014 0.757475 0.228438 1.177002 0.176819 0.632875 0.120365 0.184500 0.455018 -0.399433 -0.510330 0.070144 0.455911 -1.131699 -0.381446 0.352162 -0.316942 -0.074684 0.018005 -0.735747 -0.031230 -0.318382 -0.137594 0.082827 -0.528945 -0.270216 0.409484 1.215307 0.499633 0.838215 1.708691 0.063593 -0.657744 1.331015 -0.563537 0.275443 0.285204 0.057144 1.480198 0.252214 0.038051 -0.288695 1.330324 -0.374871 -0.251381 0.470636 0.539243 0.345999 -1.228955
that 0.193761 -0.458225 -0.485433 -0.531778 0.402845 -0.558183 0.448640 -0.362974 0.734127 -0.506078 0.088680 -0.742179 -1.053829 0.965474 -0.270683 -0.049221 0.189795 -1.100550 0.724534 -0.994160 -1.232049 -0.460852 0.237557 -0.300902 -0.267015 0.103663 -0.559927 1.054222 -0.818509 -0.373564 -0.038430 1.058832 0.228134 0.391485 0.755210 -0.495398 0.100775 -0.893025 -0.439012 0.178957 1.017829 0.770244 -0.911949 1.188027 0.027353 -0.179018 0.326092 0.397942 0.780906 -1.215018
control 1.560080 1.177558 0.286695 -1.150039 0.691499 0.719495 0.749449 0.376348 0.218211 -0.845358 0.323509 0.506897 -0.260053 -0.618351 -0.453192 0.402387 0.772077 -0.281563 0.262390 0.747382 -0.135227 -1.031984 0.865437 -0.581863 0.038338 0.191708 0.142342 -0.441377 -0.945506 -0.446289 0.236677 1.205553 0.162654 0.212975 1.596131 -0.705981 -0.066941 -0.803734 -0.429306 0.458248 0.279483 1.045158 0.339135 0.661312 -0.216266 0.390092 0.296988 -0.343487 1.047301 0.036088
application 0.318521 -0.425922 -0.375434 -0.566803 -0.575644 -0.987549 0.372015 1.133873 0.726627 -0.381970 0.262843 -0.606927 -0.241811 -0.391332 -0.186983 0.215783 -0.213843 -1.476327 0.450956 -0.060392 -0.901448 -0.103826 0.722093 -1.795167 0.103538 0.743338 1.666044 -0.181311 -0.408515 -1.273725 1.323177 0.433410 0.250806 -0.485740 1.680508 0.082746 -0.517214 0.273218 -0.557139 -0.023053 0.774982 0.631379 0.320750 -0.183766 0.707178 -0.208587 -0.397189 0.052417 0.601849 0.181425
/ -0.717689 0.802152 -0.333753 -0.833039 -0.615165 0.444664 1.003497 -0.023176 0.502244 0.200464 -0.297616 -0.944940 -0.080422 0.515978 0.859291 -0.070210 0.458011 -0.786396 0.633571 0.208795 -0.059290 0.320703 0.276121 -1.141192 0.337526 0.434108 0.032837 -0.333422 0.041241 0.081192 0.731449 -0.215808 1.021048 0.041380 1.275954 0.195379 -1.210069 -0.325072 0.740898 1.227168 0.176007 0.540405 0.141947 0.382179 0.196869 1.194582 0.404234 1.287225 -0.980302 -0.020504
add 0.498654 0.588503 -0.405651 -0.576485 0.365601 -0.260058 -0.000574 -0.245658 0.425997 0.238923 -0.092005 -0.566783 -0.327125 0.087457 -0.720506 0.557669 0.648911 0.133691 -0.373758 0.854912 -0.834435 -0.887546 0.219612 -0.072429 0.527198 0.042865 -0.563553 0.058704 -0.281490 -0.588688 -0.529757 0.607752 0.740441 -1.009042 1.679905 -0.435732 -0.331017 -0.148646 -0.128582 1.075156 -0.407225 0.877414 -0.412586 0.820182 -0.066823 0.161654 0.185207 0.761149 0.469104 -0.567248
by 1.358447 -0.114687 -0.437714 0.625093 0.683248 -0.124223 0.123183 0.364716 0.810184 0.419588 0.024010 0.038601 0.654377 0.393848 -1.671967 -0.027311 0.107909 -0.940189 0.578052 -0.004961 -1.240502 -0.199482 -0.112029 0.262241 0.518858 -0.237689 0.130417 0.655323 -0.559736 -0.023791 0.746376 0.646878 0.431900 0.996611 1.365023 -0.071852 -0.560066 0.202865 -0.251068 1.000062 0.664083 -0.278757 -0.134181 1.248937 -0.499067 0.441472 0.217272 0.697034 -1.006416 -0.050808
: -0.355204 0.032250 -0.377340 0.122622 0.054802 0.814202 0.276450 -0.288061 0.650471 -0.485165 -0.256162 -0.294534 0.764896 -0.198501 0.066639 1.302089 0.401449 -0.697438 1.599056 0.463178 -0.070562 0.034537 0.032565 -0.158230 0.667317 0.228935 0.315400 -0.782731 -0.412461 0.648150 1.225276 0.393925 0.814844 -0.155241 2.130597 -0.163972 -0.211015 0.003760 0.192967 0.758507 -0.320145 1.387072 -0.595401 1.020549 0.641086 0.714749 0.008984 0.998480 0.582045 0.554944
as 0.484421 0.006826 -0.108627 0.018455 0.910245 0.594583 -0.426051 -0.134494 0.285638 0.122816 -0.391141 -0.645211 0.171490 0.722031 -0.572168 0.236119 -0.138745 -0.552254 -0.497220 -0.251042 -1.396740 -0.077875 0.207344 0.119332 -0.149381 -0.208868 0.077757 -1.059156 0.038333 -0.388896 1.332051 0.149544 -0.218977 0.820720 1.133911 -0.519650 -0.827104 0.415652 -0.551767 0.754324 1.418982 0.804560 -0.596287 1.885342 -1.073769 -0.501773 0.350609 0.309898 -0.130193 -1.096104
set 0.398170 0.345067 -0.592200 -0.040068 0.894069 -0.231762 0.727364 0.636416 0.899728 -0.846408 0.505417 -0.302606 -0.271102 -0.918675 -0.509765 0.251186 0.676030 -0.081817 0.486317 0.034790 -0.301391 -0.271158 -0.096377 -0.345921 -0.416162 0.304366 -0.068057 -0.524189 0.945940 -0.385227 0.837731 1.146949 0.326442 0.774970 1.406793 -0.476710 0.300889 0.089235 -0.192334 1.218555 0.312631 0.697721 -0.210855 0.336328 -0.883027 0.192942 -0.040315 0.662358 0.272724 -0.439666
convert -0.066173 0.057241 -0.749284 -0.404313 -0.119346 0.487366 -0.019881 -1.548312 0.148845 -0.667662 -0.876534 -1.272695 0.794691 -0.158709 0.289930 -0.002874 -0.359251 -0.561347 -0.982888 0.341264 0.319243 -0.946850 0.140151 0.504560 -0.181935 -0.802683 0.779049 -0.063942 0.065231 0.435338 0.155134 0.088372 1.118002 0.893787 0.942890 -0.100376 -0.273414 1.171961 0.174865 1.175169 -0.811159 0.652984 -0.616980 1.217488 0.251569 0.037156 -0.550505 0.693665 -0.383432 -2.052047
one 0.708832 -0.163549 -0.262113 -0.391737 -0.079328 -0.932143 -0.311359 -0.378095 0.776067 0.324236 0.136013 -0.387062 -0.220507 -0.003375 0.137652 -0.297758 -0.431440 -0.604847 0.343198 0.915392 -1.091946 -0.371269 0.171008 0.105486 0.819967 0.099794 0.116119 0.864549 -0.120498 -0.073755 0.184788 1.338902 0.143333 0.226250 1.456482 0.299021 -0.524518 -0.009542 -1.131454 0.560524 -0.272291 0.740578 -0.247479 1.514521 -1.079538 -0.802948 0.417229 0.773657 -0.357001 -0.726313
sql 0.272225 -0.706908 -0.638346 0.102116 0.371721 -0.439778 0.630097 -0.580209 0.866920 0.696337 0.199746 -0.658071 -0.769599 -0.213159 -0.396921 0.617177 0.028789 -1.655808 -0.924393 0.580369 0.140795 1.201037 -0.911468 0.498740 0.347657 -0.419933 0.106143 -0.018776 -0.255849 1.094221 1.381015 1.495803 -0.287362 -0.530674 1.351981 -0.083318 -1.453298 0.004136 -0.154889 0.550555 -0.384447 0.144589 -1.256869 0.379651 1.120162 -0.657744 -0.585086 0.637943 -0.261743 -0.904880
multiple -0.521604 0.316997 0.869756 0.285588 0.217856 -1.215946 -0.137547 0.538646 -0.026074 0.955161 -0.014787 -0.612189 -0.384014 0.986440 -1.019235 -0.202202 0.432996 -0.923654 0.036839 0.483897 -1.091275 0.969487 -0.325321 -0.093623 0.408861 -0.372505 -0.372403 0.311976 -0.346067 -0.395629 -0.073868 1.646815 0.155901 -0.461482 1.052821 -0.280420 -0.398532 -0.359175 -0.087533 0.033930 -0.445323 0.480115 -0.020991 0.895393 0.316888 0.073708 0.385650 0.942914 -0.421635 -0.677583
it 0.425219 -0.378713 -0.720352 -0.217927 -0.048969 -0.261037 0.115852 0.367296 0.034964 -0.736707 -0.171115 -0.496717 -0.283576 0.156546 0.103451 0.168260 -0.685278 -0.849347 -0.366763 0.108273 -0.715496 -0.675807 0.882496 -0.367792 0.068059 1.223880 0.199021 0.059468 0.300243 -0.814228 0.479042 1.134086 -0.577372 -0.115756 0.828942 0.328352 -0.110818 -0.820659 -0.698007 1.586430 1.116345 -0.168087 -0.575131 1.475556 -0.279089 -0.058089 0.891209 0.420165 0.373094 -1.671678
use 0.288369 0.272682 -0.474530 0.160186 -0.656233 -0.161443 0.631719 0.472742 0.195703 -1.099767 -0.058421 -0.021563 -0.720480 0.653574 -0.448579 0.847822 -0.152419 -0.300988 -0.173270 -0.251083 -0.499581 0.567904 0.004705 0.312172 0.473906 0.108805 -0.219393 -0.348776 0.372471 -0.360588 0.302765 0.726008 0.658178 0.795683 1.727080 0.376828 0.219538 -0.345594 -0.150022 0.771519 -0.143174 0.598523 -1.022182 0.893145 0.076120 -0.029048 -0.066223 0.679915 -0.224242 -0.897208
wpf 0.776483 0.428680 0.032363 -1.007287 0.237993 -0.319360 0.681787 0.000954 0.966621 -0.502357 0.325086 0.139682 0.447013 -0.320928 -0.591397 0.482696 0.953301 0.542774 0.278162 1.209520 0.442915 -0.337553 0.791278 -0.889975 -0.155046 0.847039 0.779370 -0.819431 -0.230905 -0.387897 0.029800 0.642062 0.436874 0.081737 1.791558 0.146797 -0.355276 -0.383130 -0.887924 1.058462 0.406082 0.968147 0.951584 0.619031 0.152054 0.053119 0.517092 0.043841 0.965000 0.521552
class 0.068059 -0.319957 0.155004 -1.270562 0.127484 -0.125978 0.322234 0.926277 1.121792 -0.243894 -0.098365 0.168919 -0.515888 0.860243 0.419717 0.247287 0.060612 -0.244792 0.603455 -1.400527 -0.620299 0.168463 0.401541 -0.392764 -0.754961 -0.852721 0.134945 -0.284459 -0.693369 -0.149619 -0.271806 -0.093662 0.812775 0.316923 1.900635 -0.237880 0.341340 -0.875537 -0.303593 -0.070653 1.014936 1.601813 -0.502176 0.713316 -1.296785 -0.668525 0.980674 0.743900 -0.642952 -0.828741
all -0.582970 0.115343 0.014429 -1.013352 -0.133395 0.177853 0.484422 1.098736 0.779452 0.557514 -0.133242 0.089324 -0.464571 0.887208 -0.613321 -0.396964 0.363677 -0.518760 1.255417 -0.202411 -0.378113 -0.127038 0.080340 -1.318578 0.032389 -0.480305 -0.731490 0.661822 0.739450 -0.399516 -0.422256 1.476359 -0.077169 -1.394757 0.859897 -1.012691 0.307149 -0.372964 0.209383 0.714831 -0.048017 0.200203 -0.114088 1.044244 0.394497 0.255435 0.203572 1.166438 0.697823 -1.321958
> 0.476679 -0.374675 0.272729 -0.820492 0.084026 -0.352238 -0.512452 -1.060494 0.454101 -0.280569 -0.751999 -0.719464 0.999882 0.694908 -1.229996 -0.120175 0.878984 -0.800841 -0.024604 -1.008634 0.250623 -0.608937 0.188385 0.371282 0.178569 -0.980753 0.466508 0.316017 0.195645 0.782704 -1.030989 -0.334566 0.443969 -0.072237 1.498556 0.150806 -0.958714 0.918294 1.336140 1.466372 0.766034 1.015586 -1.561574 1.182891 -0.648647 0.342634 0.319372 -0.510463 0.134130 -1.194570
if 0.607000 0.939509 -0.726404 0.167946 -0.188477 -0.027820 0.937013 -0.612666 1.070762 -0.582383 -0.135167 -0.816081 0.011214 -0.431380 -0.256019 -0.766361 0.311929 -1.134264 0.870002 -0.157772 -0.885311 -0.123640 0.729550 -0.937084 0.403927 0.484808 -0.492941 1.015708 -0.533377 0.199665 1.161230 0.816614 -0.469409 0.224954 0.411976 0.328701 -0.243005 -0.950559 -0.087255 0.478197 0.204913 0.899589 -1.512982 0.529480 -0.640474 0.346097 -0.436813 0.268426 0.947334 -1.186631
two 0.145987 0.178935 1.425965 -0.131210 -0.216645 -1.024577 0.978879 0.915536 0.365495 0.058030 -0.449216 -0.884088 0.472499 0.167607 -0.549837 -1.132009 -0.016131 -0.641648 0.690890 0.386433 -0.513591 0.910269 0.016314 0.048756 0.868188 -0.950418 -0.262139 0.640726 0.453798 0.256398 -0.507260 1.105790 0.135922 0.149437 0.599964 0.040460 0.036170 0.021605 -0.444303 0.394534 -1.564740 0.981579 0.313622 1.723469 0.099463 -0.626628 0.489808 0.791626 -0.384931 -1.558540
< 0.186934 -0.511246 0.023759 -1.034952 -0.355499 -0.214012 -0.408951 -1.514464 0.064879 -0.491937 -0.698436 -0.921061 1.431171 0.474658 -1.131111 0.023897 0.554912 -0.489583 0.330001 -1.198744 0.366341 -0.577990 0.310696 0.839335 -0.283722 -0.928525 0.278855 0.292120 0.198229 0.817858 -1.538606 -0.031794 0.334177 -0.413840 1.642670 0.123294 -0.343660 0.757924 1.469034 1.317756 0.709654 0.966274 -1.233511 1.366594 -0.446008 0.604692 -0.340005 -0.909052 -0.047251 -1.464445
create 0.678301 0.484444 -0.475831 -0.591781 -0.265281 -0.667094 -0.462887 0.174359 0.107800 0.254003 0.502065 -0.556267 -0.207406 0.356822 0.351129 0.763824 0.009701 -0.473457 -0.101366 -0.186008 -0.973955 0.134760 0.175943 0.558413 -0.424561 -0.142533 -0.054892 -0.123868 -0.452499 -0.203492 -0.014413 0.138799 -0.031351 -0.242912 2.335414 -0.066891 -0.313526 -0.286390 -0.364734 0.592784 -0.439068 1.428004 -0.307898 0.517930 0.302417 0.227600 -0.103689 0.530154 -0.315376 -1.206871
when -0.114124 0.284370 -0.416168 -0.156657 0.585294 -0.759667 1.071846 0.274729 0.958756 0.033504 -0.417173 -0.784560 0.011046 -0.528320 -0.248624 0.432929 0.023566 -0.412210 -0.197238 -0.076020 -0.750953 0.061159 1.171511 -0.571532 -0.083652 0.671965 0.837532 0.502649 0.086636 0.103490 0.490553 1.140701 -0.312169 -0.683776 1.213201 0.324307 -0.121736 -0.673793 -0.391659 0.751262 1.262403 -0.442669 -0.076156 0.068171 0.101382 0.490378 0.578929 0.286811 0.428255 -0.268673
database 0.303432 -0.953624 -0.252418 -0.032027 0.745496 -0.045442 0.646912 -0.169123 0.671665 0.345756 0.869165 -0.294153 -0.481922 -0.877589 -0.422424 -0.294020 0.076809 -1.034728 -0.764795 0.203905 0.201617 0.348033 -0.646125 -0.365613 -0.104686 0.110229 0.065765 0.149057 -0.365036 0.679823 1.038597 1.215778 -0.167624 -1.347574 1.359267 0.163160 -0.981121 0.054321 -0.733255 1.092981 0.109459 0.375476 -0.390645 0.461384 0.909165 -0.913225 -0.151034 0.979913 -0.292156 -0.615566
" 0.441454 0.872371 -0.427003 -0.865880 0.598990 0.423779 0.300285 -0.223005 -0.107289 0.033682 -0.702456 -0.467300 -0.580661 -0.182063 0.342204 0.941524 0.459233 -0.883977 -0.057857 -0.260561 -0.334339 -0.165744 -0.021467 -0.114442 0.842690 0.552924 -0.171333 -0.000376 0.703902 0.241214 0.715218 0.089111 -0.126789 0.163506 0.840777 -0.624996 -1.404220 -0.004269 0.324846 0.677349 -0.253453 0.386874 -1.291015 0.129552 -0.191160 0.710826 -0.040885 0.898468 0.949798 -0.774767
property 0.266489 0.643738 -0.152660 -0.891211 0.572213 0.093388 0.636493 0.358116 0.866139 -0.459872 0.760744 0.041410 0.031049 -0.068963 -0.202624 0.071642 0.837579 -0.037445 0.375984 -0.258227 -0.416653 -0.097518 0.420054 0.227441 -0.954527 -0.359924 -0.011523 -0.408171 0.325115 0.856804 0.012807 0.538524 0.724431 0.851861 1.859569 -0.157726 0.398590 -0.947906 0.548708 1.336462 1.059556 0.962696 -0.589750 0.715319 -1.435552 0.241485 1.076472 0.897345 -0.112263 -0.238382
table 0.631216 -0.434990 -0.066691 0.074489 0.283740 0.239439 0.312544 -0.588317 0.317384 0.727548 1.132534 0.188845 -1.214195 -0.472445 -0.388601 0.176883 0.216940 -0.423830 0.169787 0.219660 -0.376873 0.204090 -0.784327 0.334368 0.267594 -0.217383 -0.180136 0.699831 -0.259746 0.778155 0.341210 0.756680 -0.933513 -0.248360 1.746083 0.346787 -1.108988 -0.186281 -0.783817 1.122498 -0.418017 0.317559 -0.279092 0.827192 0.343626 -0.804621 0.394037 0.868500 -0.612777 -0.472474
another 1.038207 0.321290 -0.132036 -1.261975 0.507759 -0.422109 0.272585 -0.582436 0.231259 0.343885 -0.032694 -0.051198 -0.095712 0.892929 -0.569219 -0.479441 -0.667526 -0.857781 -0.188890 -0.030773 -1.063205 -0.321728 0.519703 -0.950189 -0.244792 0.169546 1.077158 0.936245 -0.702333 -0.334858 0.411780 0.721669 0.158173 0.423676 1.647531 0.347074 -0.353508 0.059866 -0.873134 0.985218 0.515340 1.086672 0.114159 0.789330 -1.242596 -0.813916 -0.109456 -0.362655 -0.222437 -0.726389
without 0.167556 -0.265139 -0.018869 -0.449486 -0.076308 -0.337220 0.226413 0.513437 0.387891 0.542992 -0.063951 0.590425 0.920224 0.130441 -0.099070 0.570287 0.179085 0.282042 -0.676333 -0.715318 -0.809511 0.053018 0.930114 -0.771964 0.316156 -0.175322 0.478213 -0.188277 0.207109 0.224236 0.163153 0.810445 -0.616697 -0.198899 1.550875 0.699960 -0.421882 -0.076481 -0.625953 0.832744 1.226016 -0.070993 -0.333598 0.674141 0.085234 -0.530456 0.382218 0.785174 -0.020447 -0.390814
find 0.654767 -0.316543 -0.174804 0.044967 -1.103722 0.662503 0.985591 -0.117263 1.119695 -0.137721 -0.709714 0.156956 -0.088351 -0.192310 -1.136874 0.583198 0.868420 -0.284158 1.541113 -0.074782 -0.445608 -0.901785 0.430807 -0.659687 0.240219 -0.474683 -0.518560 0.848570 0.015208 -0.217669 0.593103 1.108944 0.175147 0.527966 0.382001 -0.212289 0.476037 -0.111455 0.527953 0.504810 -0.138162 0.527583 -0.480624 0.861619 -0.221423 0.509395 -0.719513 0.754496 0.613098 -0.524112
type 0.026659 -0.095552 0.165450 -0.498372 0.749608 -0.270183 -0.261791 0.188554 0.949284 -0.502779 -0.624575 -1.261762 -0.464379 -0.684940 -0.365256 0.368286 0.624259 -0.914269 -0.210131 -1.020694 -1.232831 0.112748 0.979800 0.440498 -0.559328 -1.281817 0.762642 -0.207038 0.146541 0.327967 -0.150440 -0.021191 0.349710 0.555363 0.939872 -0.518057 -0.155378 -0.057497 0.290257 0.340605 0.300516 1.015699 -0.276875 0.793476 -1.632309 -0.197909 0.210027 0.569077 -0.675260 -0.984868
not 0.913776 -0.403992 -0.026179 0.585342 0.509206 0.591777 0.193729 -0.603748 0.615909 -1.104120 0.129974 -0.572440 0.351963 -0.188182 -1.221393 0.961011 0.435389 -0.538321 1.001476 -0.154311 -0.498869 0.202513 1.189019 -0.380322 0.077163 0.665915 0.223295 -0.815579 -0.046290 -0.174886 0.621234 1.538032 -0.696596 -0.403852 0.318982 0.131199 -0.213271 0.007150 -0.782711 0.498659 1.665744 -0.057337 -0.282239 1.759660 0.384998 -0.810037 0.600482 -0.114470 1.635003 -0.537443
image -0.251711 -0.100917 -0.822798 -0.810277 0.206087 0.943994 0.001436 0.576700 -0.824051 0.701643 0.216483 -0.475788 0.369637 0.002976 -0.027042 0.287860 0.245375 -0.674512 -0.823483 0.909435 -0.048057 -1.016531 0.973346 -0.299814 -1.735435 0.611188 0.166422 -0.828998 0.167174 -0.721905 1.107130 0.798292 -0.547883 0.287390 1.009555 -0.272591 -0.438585 0.871332 -0.562786 0.874725 0.442966 0.774813 0.800923 0.970760 0.318384 -0.309918 -0.014108 0.538930 -0.069466 -0.422955
access 0.186417 0.044689 -0.236470 -0.786630 0.768772 0.583793 0.623388 0.677055 0.488626 -0.505324 0.327338 0.885088 -1.189240 -0.659480 -0.188041 0.585512 -0.024012 -0.723367 0.123707 -0.161590 -0.135923 0.085289 -0.463276 -0.157866 -0.676265 -0.202216 0.470957 0.681137 -0.521307 0.375005 0.666665 0.058126 -0.262180 -0.523809 1.916530 -0.633542 -0.267126 -0.251580 -0.465992 0.477248 -0.291232 0.813439 -0.287649 0.145485 0.177791 -0.895618 0.093692 0.951397 0.517733 -0.793730
s 0.534342 -0.372840 0.170713 -0.356933 0.320652 0.433038 0.921407 0.334171 0.667514 -0.881266 -0.635260 0.237343 -1.078708 0.455872 -0.934976 0.738011 0.981459 -1.041828 -0.062827 0.333661 -0.944888 -1.034227 0.146246 -0.664250 -0.513451 -0.157726 1.070179 0.435182 0.350778 -0.190334 0.236128 0.371706 0.789170 0.794923 1.081743 -0.480296 -0.382827 -0.544903 0.244283 0.854307 0.219413 -0.398540 0.117484 0.055404 -0.779004 -0.056710 0.241275 0.457225 0.589169 -0.357154
code 0.269061 -1.021479 -0.488454 -0.886183 0.629019 0.405675 0.475589 0.510906 0.731577 -0.420492 0.616267 -0.028480 -0.380005 -0.774818 0.591441 -0.147309 -1.034065 -0.117049 -0.403833 -0.135195 -0.013250 -1.554287 -0.340584 -0.317144 0.528750 -0.119002 0.485718 0.327732 -0.775932 0.356990 -0.548102 1.363803 1.138366 1.476754 1.620929 0.131107 -0.633735 0.309092 -0.294830 0.065346 -0.036250 0.406798 -0.370056 0.520577 0.728629 -0.302074 0.678006 1.177425 0.503416 -0.220800
change 0.389868 0.464866 -0.514062 -0.352340 0.457156 -0.386463 0.861591 0.958694 0.474724 -0.617154 0.504253 -0.677276 -0.606335 -0.948945 -0.948426 0.026279 1.324005 0.047902 -0.430273 0.240477 0.100316 -0.986658 0.157959 -0.730043 -0.559488 0.125235 0.235224 0.061092 0.925254 -0.370703 0.500270 0.703286 -0.073675 1.025461 1.536228 -0.264653 0.202422 0.723601 -0.226654 1.046955 0.039263 0.848568 0.239347 0.137142 0.200580 0.591500 -0.209258 0.414292 -0.045694 -0.140931
name 0.888050 -0.432891 -0.576258 -0.266858 0.315545 0.705799 0.791255 0.179484 0.134913 0.253506 0.097505 0.068455 -0.584983 0.139901 -0.473857 0.512259 1.458389 -0.915770 0.165616 -0.503090 -1.377250 -0.311916 0.238343 -0.027776 -0.207436 -0.287271 -0.211628 0.109306 -0.112589 -0.333073 1.495179 -0.151752 0.055429 0.798926 1.273316 -0.135411 -0.201267 -0.219047 0.298428 0.752792 0.673283 0.251705 0.076399 0.964454 -0.972528 -0.279121 0.109645 1.332939 -0.668431 0.033221
user 1.147918 0.990954 -0.169917 -0.610329 0.893751 0.299786 0.770049 0.717595 0.503155 -0.697112 0.573193 0.113195 -0.027007 -1.159619 -1.024262 -0.293670 0.520070 -1.628863 0.112153 0.841502 -1.157482 0.210603 0.936171 -0.437508 0.307892 0.060011 0.228696 0.470422 -1.209878 -0.459276 0.553629 0.364633 0.308924 -0.191115 0.922213 -1.122311 -0.315825 -0.795879 0.189352 -0.237600 0.026671 -0.208704 0.376932 0.373542 -0.265682 0.234016 -0.573631 0.928823 0.540109 -0.584197
way -0.413526 -0.451878 0.267524 -0.113829 -1.224476 0.159310 -0.169332 -0.016871 1.181942 -1.195692 -1.266166 -1.055733 -0.191106 -0.923614 0.066847 0.812196 -0.534078 0.409102 0.328146 0.315599 -1.155096 -0.311690 0.845697 -0.311591 -0.286643 0.056784 1.260193 0.434102 0.690736 0.460840 -0.303380 0.713539 0.179232 -0.160453 1.109277 -0.202017 -0.706572 -1.914197 -0.769225 1.350346 -1.241318 -0.374879 0.344351 0.305160 -0.834941 1.094578 -0.543683 0.995137 0.818879 -2.400996
json 0.556223 1.364830 0.906919 0.492360 -0.506260 0.972632 -0.070286 -0.362798 0.221124 -0.730521 -0.258552 -0.078602 0.331460 0.510702 -0.015145 0.992801 -1.150503 -0.433380 -0.399474 -0.786555 -0.898130 0.358173 0.647777 0.194318 -0.875880 -0.747319 1.013214 0.073621 -0.856600 0.584371 1.040491 0.750454 1.039309 -0.162583 1.213986 -0.019858 1.158354 0.416424 0.069192 0.707777 0.014433 -0.557638 -0.220837 1.156111 0.414264 0.232818 0.804881 0.655119 -1.170535 -1.113041
button 0.820535 0.948971 -0.387961 -1.040816 0.690831 -0.685085 0.628857 0.389985 -0.475799 0.461765 0.175180 -0.818972 -0.147171 -0.338131 -0.681469 -0.100352 0.215261 -0.732499 -0.404747 0.148349 -0.302486 -0.637905 1.042595 -0.522408 0.174089 1.374784 -0.061027 0.705477 -0.262708 -0.341122 -0.194227 0.948425 -0.119385 0.802432 1.332232 -0.225448 -0.594166 -0.449898 -0.123754 0.813997 0.567989 0.545095 0.655287 0.187152 0.101900 1.361525 -0.142865 -0.086248 0.521427 0.681750
custom 0.127970 0.872075 -0.132987 -0.888181 0.516142 0.536003 0.430233 0.093802 0.369979 -0.138691 0.790650 -0.227979 -0.237551 0.383694 0.176864 0.370175 0.905189 -0.334394 -0.694938 0.358398 -0.428174 0.149685 0.640342 -0.076715 -0.222162 -0.616223 -0.145918 -1.202000 -0.560361 0.489971 0.243986 0.510326 1.041809 -0.267496 1.412350 -0.758738 0.731034 -0.558616 -0.262840 0.195881 0.434159 0.782045 -0.002184 0.770701 0.217515 0.458625 0.439612 -0.127572 -0.204038 -0.182517
column 0.412398 -0.227400 -0.947603 0.331687 1.338219 0.471265 1.150135 -0.802467 0.493463 1.212626 0.550576 -0.394469 -0.457260 -0.243097 -0.400364 -0.539566 1.124411 -0.353776 0.097707 0.343101 -0.793226 -0.157282 -0.436162 0.422435 0.272950 0.006067 -0.434238 -0.070607 0.632782 0.848740 0.777616 0.029594 0.249613 -0.192806 1.305279 -0.114283 -0.381134 -0.270401 -0.686365 1.920119 -0.467870 0.215471 0.559079 1.075566 -0.427485 0.098897 0.353478 0.592936 -0.789930 -0.246616
specific 0.083634 0.033336 -0.080580 -0.626838 0.042838 0.386351 0.602584 -0.409537 1.231504 0.667691 0.274953 -0.894656 -0.207860 0.268809 0.037770 -0.060684 1.317902 -0.151989 0.438390 -0.043048 -0.932721 -0.616746 0.279111 -0.762256 -0.102146 -0.995601 -0.707043 0.457597 -0.264101 -0.310993 0.529769 0.550587 0.274446 0.295808 0.352909 -0.678465 -0.218892 -0.205365 0.181278 0.234757 0.122792 0.065935 0.179343 0.884899 0.130649 0.315089 -0.184373 1.176266 -0.598345 -0.815626
server 0.587886 -0.207739 0.007043 -0.395201 0.538687 0.516531 0.300766 0.160240 -0.037928 0.201897 0.185005 -0.206838 -1.259588 -0.631958 -0.183392 0.117685 -0.310832 -2.338851 -0.922227 -0.346045 0.136384 0.855656 -0.393823 0.021777 0.328627 0.145541 0.600904 -0.170428 -0.826850 0.565502 1.601426 0.899620 -0.322182 -0.854923 0.934491 -0.524482 -1.673359 0.040779 -0.342292 0.474235 0.111025 0.407702 -0.543804 -0.058075 0.884565 -0.316161 -0.728786 0.358401 -0.351663 -0.349900
my 0.183427 -0.545389 -0.646359 -0.512875 -0.424190 -0.476317 1.235679 0.084864 0.450611 -0.711296 0.669669 0.063013 -0.897671 0.069911 -0.187959 0.135152 -0.133507 -1.081229 -0.369137 -0.090980 0.004681 -0.110158 0.612447 -0.924177 -0.272550 0.161724 0.688157 0.010923 -0.641797 -0.596237 0.173536 0.865017 0.748929 -0.182675 1.149700 -0.141030 0.621636 -0.096004 -0.146111 0.121582 0.516445 0.502491 -0.375734 0.429209 0.757292 -0.573276 -0.045411 0.115554 0.321238 -0.830159
query 0.037139 -0.630666 -0.584244 0.393601 -0.278662 -0.295037 -0.053865 -0.917201 0.755719 0.479277 0.637196 -0.233417 -0.443942 0.389623 -0.349660 0.528950 -0.485600 -0.737034 -0.034085 0.209713 -0.256829 1.190071 -0.403076 0.767256 0.241134 -0.476155 -0.003448 0.094073 -0.516909 1.063373 0.241916 1.637536 0.317816 0.285127 0.850442 -0.075764 -0.726221 -0.413261 0.114560 0.598041 -0.361635 0.054475 -0.884245 0.844666 0.256875 -0.433442 -0.516977 1.226924 -0.468894 -0.824074
t -0.438918 -0.860626 -0.748976 -0.638843 0.125380 -0.273577 0.229991 -0.631796 0.346691 -1.236743 -0.470911 -0.795676 -0.669438 0.266427 -1.746459 0.393852 1.105712 -1.766910 0.300724 0.479488 -0.073683 -0.617985 0.323096 0.547263 -0.288567 0.122745 0.157619 0.462052 -0.081718 0.268318 -1.144184 0.169181 0.339362 -0.433024 0.906881 -0.502982 -0.321191 0.849398 1.074963 0.743148 1.422380 0.679066 -1.579345 1.122530 -0.034583 0.426341 0.345419 -0.738309 0.591035 -0.977757
number -0.283672 -0.184842 0.296830 -0.510011 -0.372827 0.044643 -0.068035 -0.798347 0.188339 0.254310 0.106749 -1.807699 0.111332 -0.302610 -0.168873 0.720082 0.326408 -0.000053 1.020468 -0.055019 -0.943616 -0.604183 -0.201722 -0.447080 0.370161 -0.672860 -0.289704 0.296891 1.433546 -0.514796 1.184007 0.801499 -0.862063 1.134380 0.925528 0.068814 -0.067375 0.971108 0.066679 0.064456 -0.922475 -0.105956 0.577494 0.961938 -0.179368 -0.074769 -0.804651 0.693004 0.526915 -0.512833
datetime 0.343114 0.468068 -0.237718 0.126982 0.911257 0.609669 0.889209 -0.741930 0.680385 -0.907245 -0.155432 -1.062042 0.962216 -1.062391 0.581044 0.061980 0.392521 -1.250054 -0.424469 -0.180875 -0.404084 0.968728 0.440578 0.055502 0.751271 -1.179816 0.202924 -0.908229 0.438860 1.069748 0.625148 -0.380456 0.439514 0.039328 0.740608 0.640228 0.763363 0.708819 -0.153104 0.872546 -0.038088 0.087931 -0.591861 1.061102 0.200173 0.271517 -0.007024 0.669561 -0.855616 -1.189659
date 0.222163 0.021835 -0.176715 -0.107554 0.518653 0.923314 1.515674 -0.424545 0.802034 -0.505243 -0.039733 -0.881111 0.345900 -0.957854 0.236932 -0.852165 0.917015 -1.661826 0.218029 0.766334 -0.195851 0.231519 0.130842 -0.636128 0.529682 -0.881847 -0.068800 -0.343545 0.231246 0.448700 1.097233 0.097951 0.711540 0.459766 -0.053056 -0.016611 0.429629 0.517849 0.129496 0.797535 -0.043215 -0.397704 0.123043 0.880373 0.170267 0.550196 -0.163908 0.634128 -1.234399 -1.021079
page 1.299008 1.367438 0.600710 -1.144115 0.009895 1.043380 -0.270686 0.114301 -0.248532 -0.157654 1.231553 0.261696 -0.609033 -0.811722 -0.685560 0.466365 -0.606388 0.049799 -0.391611 0.256145 -0.634776 -1.012739 1.303676 -1.089548 0.162366 -0.007062 0.489980 0.295926 -0.168315 -1.176204 -0.076556 1.329441 -0.104788 0.464037 1.265693 -0.260407 0.316381 0.755186 0.017976 -0.232919 0.476795 -0.350794 0.506877 0.355219 -0.366302 -0.654751 -0.256971 0.762110 0.378702 0.105490
getting -0.233611 -0.251929 0.242180 0.027580 0.336187 0.715838 1.017321 0.206032 0.624874 0.279863 -0.513373 -0.026515 0.007918 -0.390191 -0.852257 0.778561 0.602673 -0.562599 0.643057 -0.051408 -0.774210 0.124284 0.389881 -0.406793 -0.476227 -0.260147 0.575723 0.112221 0.516025 0.669643 1.381856 0.720510 0.040485 -0.620195 0.902110 -0.388292 -0.121969 0.095728 0.315239 0.587816 0.451920 -0.581897 0.194885 0.666314 -0.226675 -0.067540 0.195121 0.980992 -0.014414 0.380621
or 0.468751 0.732509 0.197995 -0.541317 -0.497726 -0.075194 0.242561 -1.069014 0.099618 -0.266187 -0.152112 -0.714905 -0.176815 0.515433 -0.078810 0.361238 0.187279 -0.336453 -0.082477 0.236950 -0.610291 0.050915 0.577211 -0.777701 0.494863 0.512792 -0.124945 0.387694 -0.069926 -0.082284 0.673671 0.327372 0.208956 0.705813 0.765875 0.411114 -0.825041 0.034648 0.121227 0.892291 -0.174578 0.646543 -0.653393 0.958346 0.023120 -0.322955 0.023978 0.238773 0.374130 -0.450341
app 0.349744 0.015847 0.049863 -0.205598 -0.993461 -0.298641 0.182052 1.053409 0.442020 -1.209222 1.172140 -1.002660 0.376448 0.091836 0.036311 0.548397 -0.287673 -1.005676 0.493545 -0.359412 -0.041687 -0.576522 0.634092 -1.398800 -0.121280 0.662652 1.617632 -0.097382 0.316561 -1.450697 1.209734 0.553759 0.251507 -0.344503 1.416854 -0.083926 -0.868525 0.563093 -0.451779 0.291579 1.093304 0.205135 -0.016338 -0.530339 1.571711 -0.796522 -0.279141 0.509917 0.609437 0.112130
row 0.217114 -0.271072 -0.790415 -0.107534 1.241766 -0.234940 0.915580 -1.147990 0.763128 1.289938 0.529585 -0.539971 -0.308441 -0.406504 -0.218478 0.269122 1.205287 0.503811 -0.131489 0.735119 -1.033163 -1.052966 -0.251772 -0.402829 0.384413 0.261035 -0.200762 0.781927 0.519582 0.296302 0.476886 0.576286 -0.335658 -0.174468 1.361356 0.215558 -0.588485 -0.079298 -0.680667 1.470106 -0.482698 -0.412478 0.904628 0.644374 0.036570 0.156758 -0.057924 0.761134 0.273002 0.159313
datagridview 0.275941 0.120048 -0.306697 0.143588 1.016005 -0.946509 0.898531 -0.503476 0.367736 0.569416 0.135992 -0.804367 -0.157766 -0.237029 -0.530013 -0.238146 0.637362 -0.125150 -0.123917 1.114242 -0.447615 -0.452541 -0.271442 -0.273310 0.014499 0.802241 0.552162 0.000467 0.478572 0.213377 0.766147 0.767378 -0.216734 -0.306371 1.001931 -0.081098 0.027010 -0.680051 -1.167263 1.626027 -0.166684 0.292568 1.010521 0.740798 0.212657 0.367262 0.236374 -0.602136 0.270418 -0.013885
read -0.557848 0.139754 -0.531197 -0.202264 0.346516 0.858857 -0.243499 0.438174 0.859143 -0.066636 -0.131689 -0.759840 -0.711968 0.437456 -0.218596 0.346294 -0.481740 0.019924 -0.013871 0.092670 -0.630382 -0.558298 -0.136120 -0.211871 -0.325079 0.004234 0.014507 0.659217 -0.202655 -0.354159 0.664628 0.131233 -0.131381 0.031414 0.764911 -0.906330 -0.782228 0.311034 -0.371918 0.780610 0.184465 -0.226813 0.085082 1.045272 0.600127 0.130978 0.753342 1.418315 -0.615679 -1.054871
variable 0.746995 0.101428 -0.174665 -0.911506 1.060707 -0.208104 0.815087 0.443304 -0.120098 -0.312569 -0.190372 -0.370283 0.135867 -0.084847 0.323296 0.272513 -0.385544 -0.536481 -0.552502 -0.682594 -0.600057 0.246244 -0.194472 0.183720 -0.309261 -0.728139 0.188910 -0.338469 0.704866 0.524220 1.481260 0.035985 -0.316626 0.787082 1.747345 -0.270705 0.144639 -0.232683 -0.234455 -0.102203 0.466421 0.127702 -0.724896 0.779469 -1.015464 -0.770693 -0.084930 0.386874 0.371217 -1.389702
only -0.272170 0.079996 -0.682556 -0.367474 0.612640 0.027853 0.361256 0.199014 0.764839 0.270150 0.089786 -0.765891 -0.300694 0.245447 0.507971 -0.451493 0.190470 -0.821940 0.575876 0.398931 -1.064381 -0.362142 0.217778 -0.177081 0.661560 0.596726 -0.599100 0.836717 0.210598 -0.267263 0.584468 0.968616 0.233771 0.053165 0.333068 -0.506521 -0.054521 0.221461 -0.204756 -0.004415 0.872579 -0.241692 -0.310758 1.391755 -0.470024 -0.126695 0.700030 0.902680 0.264524 -0.352269
after 0.258366 0.337020 -0.272275 -0.595429 0.616460 -1.002754 -0.113376 -0.543188 0.131234 0.627694 0.779248 -0.598081 0.293133 -0.484900 0.297882 0.186983 -0.205844 -0.578711 -0.141008 0.693013 -0.840837 -0.815777 0.512782 -0.724654 0.329192 0.409849 0.451292 0.670443 -0.022960 -0.451166 0.551623 1.482165 -0.428960 -0.287503 0.743438 0.044913 0.432097 0.460201 -0.061407 0.242197 1.242706 -0.963124 0.290399 0.348204 0.189521 0.191415 0.623597 0.334670 0.316871 0.253971
format -0.336404 0.352969 -0.346321 0.388239 0.630590 1.077993 0.819709 -0.880879 0.299610 -0.690216 -0.388390 -1.684897 -0.134370 -0.881315 0.733789 0.317739 0.800481 -0.571544 -0.376867 0.187988 -0.127882 0.077441 0.693203 -0.277330 0.447450 -0.090310 0.605963 -1.110605 0.422920 0.747353 1.064897 -0.035667 0.245815 1.208618 0.285906 0.116812 -0.351457 0.787460 -0.577484 0.722668 -0.312024 0.392656 0.234948 1.065208 0.457655 0.376708 0.224225 0.837417 -0.073260 -0.881234
item 0.777081 -0.092997 -0.187401 -0.305283 0.961479 -0.136261 0.006983 -0.700135 1.194681 0.661520 0.605952 -0.486740 1.400252 0.250544 -1.199714 -0.675459 0.584670 0.269236 0.541647 0.386427 -1.003958 -1.508788 0.071331 -0.588783 -0.367064 0.123343 0.237673 0.410377 0.073124 -0.190331 -0.265225 0.811625 0.683215 -0.911609 1.085022 -0.292326 -0.456337 -0.101856 0.163455 1.276394 0.012905 0.162216 -0.000702 0.237176 -0.500583 -0.014346 -0.491862 0.109292 0.659130 0.132581
event 0.364241 0.992740 -0.348979 -0.464684 1.129288 -1.207815 0.026735 -0.043901 -0.304063 0.338848 -0.162243 -0.531394 -0.252679 0.133843 0.416141 0.141514 0.175436 -0.296029 -0.787859 -0.442233 -1.372408 -1.419727 1.253875 -0.328568 -0.186508 1.575010 0.305996 0.069786 -0.300817 -0.075283 0.234798 0.508918 1.096621 -0.311024 1.489890 -0.908414 -0.444543 -1.260285 -0.290001 0.441790 0.439012 0.604492 0.940226 -0.126352 -0.494636 0.882713 -0.258869 -0.781190 1.058742 1.128081
make -0.030050 0.062246 -0.863634 -0.588112 -0.152803 -0.636768 0.617364 0.175659 0.353780 -0.501677 0.425671 -0.310235 -0.927200 0.190599 0.412552 0.443929 -0.596542 -0.394604 -0.022214 0.244673 0.054786 -0.114989 0.215265 0.142377 0.209141 0.903962 -0.281122 -0.136589 0.131466 -0.642631 -0.218177 1.171210 0.313235 0.247477 1.098913 -0.438615 0.371659 -0.688175 -0.673104 0.644772 0.393099 0.696186 -0.499168 0.948644 0.016262 0.053693 0.121625 0.097978 0.412528 -0.875335
entity -0.034421 -0.891817 -0.316436 0.511417 0.213684 -0.139977 0.263676 -0.430501 0.970568 -0.079007 1.254199 0.308791 -0.475667 -0.346967 -0.196889 0.005168 -0.340762 -0.110511 0.307846 -0.534065 -0.168774 0.125165 -0.424528 0.465100 0.488407 -0.280850 0.019148 0.644044 -0.452443 0.626400 -1.006927 0.876967 0.918425 -0.571527 2.204796 1.068203 -0.231568 -0.107784 0.180078 1.076190 0.027415 0.360798 -0.871728 -0.002375 -0.077779 -0.975654 0.977005 1.306135 -0.604255 0.225723
items 0.052824 -0.026937 -0.022594 -0.051934 0.432232 -0.257513 -0.441688 -0.458028 0.421077 0.367675 -0.046820 -0.431789 0.925208 1.031120 -1.705175 -0.567777 0.384499 -0.092473 1.413266 0.759681 -1.049007 -0.691466 -0.330781 -0.657822 -0.362255 0.296055 -0.163749 0.593819 0.410493 -0.105836 -0.546496 1.028594 0.052746 -0.994778 1.161789 0.043276 -0.128594 -0.112118 -0.144417 1.038566 -0.329923 0.448786 0.079470 0.914873 -0.271420 0.249652 -0.346560 -0.116779 0.943802 -0.708880
time 0.529867 -0.325433 -0.484550 -0.868406 0.808280 -0.697154 0.446377 0.262727 0.795088 -0.399414 0.124379 -1.042558 0.457309 -1.101678 1.606108 -0.661077 0.771717 -1.936841 0.014778 0.704158 -0.712589 -0.180842 0.425204 -0.545025 1.339119 -0.782326 0.147932 -0.694663 0.470799 -0.479075 1.013170 0.056988 0.477366 0.216209 -0.135609 -0.792613 -0.045431 0.555432 -0.571057 0.142613 0.080762 0.276810 0.075289 1.214209 -0.357822 -0.139968 -0.284376 0.814019 -0.455065 -1.261454
regex 0.073446 0.302016 0.844505 -0.163921 -0.961542 0.164467 0.239223 0.149442 0.498538 -0.675991 -0.990577 -0.902083 0.292859 0.162468 -0.234520 0.562668 0.733345 0.219364 0.510449 -0.046686 -0.361749 -0.316646 0.180456 -0.006752 1.071144 -0.563600 -0.842545 0.471518 -0.846648 -0.459600 0.072986 2.027745 0.339217 1.553968 0.005842 -0.050037 0.037362 -0.279534 0.569130 -0.598921 1.031239 -0.821325 -0.805567 0.905753 1.102490 1.523963 0.002621 0.968523 -0.192163 -0.504139
remove -0.425915 0.446238 0.198031 -0.652422 0.123390 0.037338 0.540705 -1.025817 0.712928 0.633340 -0.765156 -0.318844 0.571073 0.395452 -0.494574 0.426883 0.791593 0.720226 1.215024 0.315540 -0.143404 -0.899617 0.314426 -0.623410 0.412609 -0.243804 -0.876694 0.908400 -0.233798 -0.869069 -0.622496 0.901824 0.294009 -0.705309 0.489852 -0.094849 -0.108316 0.002824 0.738099 0.444784 -0.242906 0.091433 -0.302463 0.786436 0.012635 0.302834 0.525930 1.071302 0.646073 -0.251163
check 0.253145 1.082893 -0.313001 0.386575 -0.125289 0.255497 0.749790 -0.358707 1.056343 -0.633432 0.193131 -0.935336 -0.169226 -0.631761 -0.104323 -1.214018 -0.035248 -0.471977 0.688552 -0.042063 -0.843737 -0.193483 0.433575 -0.709387 0.380998 0.181865 -0.511231 0.988268 -0.052855 0.348889 0.824858 0.642195 -0.216083 0.146467 0.467205 -0.006676 0.032861 -0.759782 -0.182663 0.425598 -0.172401 0.627314 -1.053288 0.338265 -0.330021 0.243420 -0.722542 0.707362 0.517331 -1.231390
+ -0.960694 -0.203235 0.060104 -0.596718 0.145016 -0.496003 0.963097 -0.338400 0.503364 -0.436865 -1.898473 -0.766498 0.309800 1.727651 0.712599 0.272688 -0.980957 0.421100 -0.170663 -0.196553 0.554829 -0.401060 -0.980301 -0.901000 0.666183 0.600658 0.652757 -0.061017 -0.372441 -0.121179 0.711190 -0.370113 1.668949 0.720364 1.282013 0.239097 -1.329768 -0.313661 0.234523 0.974981 -0.075141 0.543920 -0.301312 0.272250 0.733557 0.205183 0.404844 -0.111844 -0.385725 0.454153
web 0.807553 0.785260 0.783731 -0.173932 -0.625097 0.722219 -0.483653 0.476585 -0.188734 -0.264404 0.608116 0.375153 -0.941864 -0.208741 0.116281 0.722120 -1.036165 -0.883645 0.283365 -0.849426 -0.901329 -0.224032 0.468492 -0.695790 -0.023012 -0.186711 1.330155 -0.365184 -0.879043 -0.867979 0.813698 1.463748 0.639711 -0.376548 1.425849 -0.879102 -0.060710 0.238109 -0.339975 -0.318394 0.411270 -0.029679 0.111430 0.138586 0.293737 -0.150621 -0.571427 0.534414 -0.017246 -0.321730
at 0.614881 -0.498885 0.052570 -0.154608 1.040702 -1.133560 -0.055174 0.585920 0.803528 0.380430 0.422379 -0.853039 0.081988 -1.030436 0.745326 -0.370102 1.610399 -1.011882 -0.035990 0.146513 -1.404215 -1.016975 0.540266 -0.944550 0.905252 -0.676891 -0.005639 0.110706 0.070569 -0.845952 -0.643069 0.212403 0.265590 -0.245279 0.565456 -0.027278 -0.446275 0.385402 -0.024207 0.015807 -0.011492 0.457355 -0.102426 0.272720 -0.220238 -0.008003 0.578980 0.597357 0.197561 -0.883862
select -0.041941 0.184890 -0.622504 0.324534 0.279877 -0.387743 0.653205 -0.744045 1.039974 1.121914 0.172184 -0.085106 -0.491830 0.626613 -1.058165 0.069620 0.669950 -0.279672 0.795023 0.691197 -0.543118 0.270708 -0.693786 -0.058561 0.091603 -0.321980 -0.735514 1.051329 0.169261 0.574423 0.195160 1.142459 -0.018495 -0.283033 1.022447 0.019834 -0.721750 0.172274 0.686057 0.895492 -0.717821 0.348429 -0.933728 0.462672 0.202989 0.012283 -0.089328 0.988119 0.202547 -0.322253
form 0.819989 0.964707 0.331548 -1.144662 0.511873 -0.782141 0.516365 0.377715 0.768376 0.027406 0.621074 0.153687 -0.495547 0.077908 0.051069 0.111375 -0.180981 -1.013029 0.425468 0.625626 -0.168310 0.135925 0.709933 -0.842551 0.029611 0.738032 0.807276 0.474156 -0.427189 -0.868032 0.559910 0.497687 0.051623 -0.544046 1.143967 -0.614288 -0.611953 0.068968 -0.385386 0.520513 1.018031 0.525570 0.334645 0.245429 -0.502754 -0.855431 0.523689 -0.115883 0.081645 0.180617
gridview 0.426820 0.209318 -0.630454 -0.173732 1.399611 0.385368 1.282729 -0.726222 -0.156227 0.909860 0.959161 0.003339 -1.016399 0.031174 -0.552982 -0.092258 0.756765 -0.090550 -0.318330 0.441838 -0.306572 -0.740695 -0.271058 -0.453932 0.314412 0.549494 -0.373124 -0.205305 -0.026649 0.626334 -0.172051 0.868351 0.077742 0.132893 1.657173 0.087401 0.512491 -0.419868 -0.728016 1.075897 -0.566711 0.199466 1.022032 0.369359 0.554265 0.899832 -0.118628 -0.714116 0.238444 0.276110
same 0.465258 -0.409572 0.310002 -0.098522 0.324657 -0.684349 0.309131 0.833252 0.453098 0.142496 0.296074 -0.184459 -0.693359 0.126260 -0.482996 -0.095161 0.885867 -0.635671 0.035566 -0.631600 -1.478409 0.279773 0.229660 -0.603720 0.590569 -0.471129 -0.192934 0.577936 0.250117 -0.199010 0.250804 0.528393 -0.374593 0.128974 0.895612 0.167947 -0.352576 -0.136235 -0.611689 0.250010 0.384184 0.467835 -0.059798 0.716820 -0.828123 -0.553993 0.475802 1.126778 -0.591576 -0.347130
expression -0.424749 -0.351778 0.378988 0.020256 -1.339439 0.032400 -0.238323 -1.056576 0.585737 -0.788464 -0.133460 -1.021930 0.193211 0.438233 -0.563420 0.672895 0.938377 0.470970 -0.170069 -0.273623 -0.158798 0.680092 -0.010598 0.949385 -0.051820 -1.150099 -0.643310 -0.573232 -0.613057 1.060610 -0.006213 0.811327 0.616611 1.213946 0.835739 0.441866 -0.615862 -0.741826 1.031612 0.534587 0.397525 0.409003 -1.126318 1.261611 0.672017 0.329250 -0.486682 0.853641 0.038666 -0.596330
parameter -0.000735 -0.308108 -0.111120 0.201510 0.899831 0.196373 -0.149943 -0.435028 -0.172070 0.038848 -0.770303 -0.867147 -0.267633 0.313813 -0.644408 0.458970 0.202328 -0.637079 -0.404520 -0.480159 -1.256601 0.257095 0.008174 0.863454 0.107942 -0.734098 0.376220 -1.286817 0.170561 -0.307312 0.722373 0.984277 0.906837 0.500513 1.114159 -0.309338 -0.170678 -0.287912 0.093733 0.089768 0.783789 0.224677 -0.556448 0.834523 -1.573811 -0.353569 -0.274274 0.006398 0.058968 -0.335350
based 0.170216 0.503194 0.436921 -0.402244 0.196294 -0.899097 0.049909 -0.410083 0.291055 0.746755 1.181739 -0.878444 0.089255 0.260225 -0.680644 -0.394258 0.354980 -1.050408 0.084150 -0.097229 -0.877252 0.516839 0.005901 -0.208281 -0.206607 -0.489038 0.140370 0.745150 -0.246110 0.771389 0.133442 0.959700 0.090063 1.022809 0.973122 -0.459787 0.169131 -0.226316 0.421919 0.844857 -0.153152 0.450291 0.309875 0.406013 -0.031010 -0.040629 -0.500024 0.048631 -0.949908 0.280959
window 0.861084 0.240801 -0.776673 -1.631736 0.008387 -0.865431 0.454955 0.807237 1.222559 0.399423 -0.230817 0.491834 -0.292611 -0.106492 0.187185 0.831995 0.053757 -0.068706 0.042971 0.488253 0.110336 0.159787 0.864463 -1.341290 0.315544 1.194663 0.751544 -0.005458 0.279839 -1.260604 0.638230 0.142524 -0.242267 -0.572898 0.896318 -0.210816 -0.551851 0.123898 -0.621253 0.230381 1.459037 0.470671 0.204950 -0.471836 -1.186541 -0.333790 -0.061010 0.004126 0.677867 0.737868
objects 0.500952 0.206127 0.117602 0.010276 -0.151380 -0.131655 -0.033830 0.541711 0.514897 0.309865 0.125622 0.077255 0.603608 0.800998 -0.619755 0.149482 -0.254002 -0.776579 0.602996 -0.496014 -0.922127 0.421000 0.155644 0.256108 -0.310119 -0.900673 0.120722 0.569755 0.055243 0.666238 -0.080571 0.320014 0.361076 -0.548572 1.316402 -0.239578 0.741695 -0.194663 -0.163487 0.597907 -0.561313 0.688038 -0.418346 0.755341 -0.623748 0.038295 0.466363 0.269530 -0.364554 -0.904897
new 1.029331 0.496312 -0.366257 -1.056532 0.291993 -0.957798 -0.095264 -0.570918 0.677537 0.716686 0.559189 -0.372872 0.187447 0.071735 0.421971 0.886239 0.356218 -0.048364 -0.261272 0.575395 -1.510760 -0.215859 0.216437 -0.126158 0.104456 -0.108220 -0.180178 0.599906 -0.266528 -1.059606 0.184949 -0.044971 -0.647724 -1.076980 1.836399 0.411627 -0.335881 0.322195 -0.383797 0.645805 0.714582 0.084409 -0.291261 0.325394 -0.307123 -0.335076 0.271964 0.157523 -0.325674 -0.660444
datatable 0.201095 -0.086877 -0.352002 0.305765 0.515266 -0.420339 0.484609 -1.094055 0.363231 1.082850 0.060344 -0.287683 0.249549 0.578082 -0.580337 -0.044839 0.223926 -0.074232 -0.233913 0.709016 -0.791915 0.177955 -0.204736 0.103134 0.050065 -0.373457 0.207757 0.477126 0.165120 0.511298 0.285453 0.341010 -0.198556 -0.312394 1.162501 0.460573 -0.046693 0.119448 -0.687057 1.650900 -0.881587 0.165805 0.453906 1.108957 0.084828 0.007083 0.332762 0.148916 -0.407669 -1.144206
dictionary 0.496149 -0.004586 0.625933 -0.139630 0.000384 -0.338343 -0.175502 -0.264945 0.172417 -0.127948 -0.748804 -0.063720 1.245452 0.230354 -1.076527 0.016498 0.033819 0.532737 0.045320 -1.589143 -0.387863 -0.479112 0.165218 0.721923 -0.069833 -0.843045 0.213354 0.509514 0.020777 0.806629 -0.817809 0.279685 0.391964 -0.082627 1.448370 -0.065110 -0.354572 -0.194248 0.466933 1.492186 0.135801 0.302862 -0.642435 1.308659 -0.054882 0.717636 0.355111 -0.143911 -0.471701 -1.088123
textbox 0.139875 1.051892 0.418939 -0.569150 1.609693 -0.101248 0.597269 -0.063315 0.046339 -0.770648 0.891293 -0.859884 -0.048840 -0.335058 -0.132404 -0.340630 0.442509 -0.269383 -0.412653 0.783133 -0.331677 -0.393812 0.025935 -0.316700 0.028011 0.247865 -0.530636 0.222943 -0.248616 0.045151 0.505218 1.107577 0.029510 0.417526 0.898714 -0.498109 0.124894 0.012304 -0.684364 0.643781 0.563834 0.322938 0.261820 0.908902 0.650412 -0.303024 0.351698 0.223238 0.630185 -0.204129
loop 0.753694 -0.143501 -0.586211 -0.625500 -0.746517 -0.983238 0.505040 0.487502 -0.011161 0.637482 0.616397 0.698552 0.284289 0.809086 0.300304 0.059529 0.385081 0.051515 -1.472676 -0.229825 -0.422461 -0.219148 0.121789 -0.282585 1.070028 -0.613577 -0.040082 0.092770 0.209724 0.572091 0.050391 1.023507 -0.169822 0.082657 0.992836 -0.244477 0.668314 -1.184047 -0.394223 0.548636 -0.270354 -0.296227 -0.669023 0.790965 0.753005 0.387680 -0.356995 0.050724 0.958607 -1.350717
excel -0.195205 -0.314079 -0.769033 0.182557 0.145646 0.791416 -0.132965 -0.025931 1.101101 1.244546 -0.752382 -0.208448 -1.016804 -0.168500 -0.161526 0.414383 0.673670 0.469820 -1.071081 0.465661 -0.533617 -0.630396 0.219268 -0.142027 -0.305593 -0.288510 0.470451 0.336805 -0.749084 0.246591 0.802422 -0.958038 -0.457080 -0.728566 1.177031 0.220142 -0.594962 0.461038 -0.739786 0.873071 -0.485539 0.778764 0.586915 0.162275 1.490733 0.614494 0.537506 0.107341 -0.740084 -0.067744
framework -0.348350 -1.080144 -0.207988 1.089422 0.001271 0.040210 0.239904 -0.378812 0.713228 -0.541072 1.126132 0.239781 -0.473605 -0.501879 -0.021110 0.285262 -0.262078 -0.387518 0.389496 -0.827799 -0.304422 0.035123 -0.527419 0.284723 1.233001 -0.078979 0.063199 0.523236 -0.497087 0.841902 -1.032053 0.751105 0.975119 -0.589839 2.220888 1.630804 -0.294619 -0.059633 0.249962 1.060396 -0.320724 0.244323 -1.174577 -0.307168 0.300803 -0.567337 1.208878 1.364928 -0.250252 0.609258
generic -0.805973 -0.244071 0.230560 -0.530985 0.058478 -0.801371 -0.695614 0.133325 0.812344 -0.152726 -0.984445 -1.062282 -0.048691 0.668920 -0.448908 0.371888 -0.040376 -0.336188 0.053785 -0.832397 -1.447961 0.444036 0.137542 0.642569 -0.195315 -1.054907 0.330509 -0.409253 -0.490141 -0.301880 -0.973928 0.167757 0.724796 0.249437 1.247569 -0.427730 -0.085518 -0.965839 0.179452 -0.278632 0.422362 0.840236 -0.246863 0.606694 -1.237243 0.557927 0.031270 0.030642 -1.045662 -0.788461
display 0.059234 0.368170 0.078710 -0.544033 0.464196 0.541446 0.600741 0.208598 -0.270091 -0.178616 0.691890 -0.877183 -0.300859 0.055235 -0.148264 0.144605 0.515946 -0.757454 -0.351755 0.861734 -0.151146 0.164042 -0.027654 -0.318101 -0.061281 0.021602 -0.143107 -0.514499 0.637228 -0.325021 0.846333 0.659717 -0.073052 0.001167 0.697658 -0.549959 -0.031305 0.565394 -0.125598 0.904769 0.232521 0.227271 0.169797 1.032408 0.129076 -0.242850 -0.068603 0.344740 -0.138008 -0.368437
key 0.455440 0.771010 0.727332 -0.012377 0.711728 -0.308217 0.429989 0.254402 0.530873 -0.309420 -0.244746 -0.068591 -0.064580 -1.097494 -0.320993 -0.003370 -0.091562 1.079940 0.300764 -1.347569 -0.410568 -0.536580 -0.264430 0.547095 0.095356 0.116518 -0.353693 1.026859 0.145944 0.612191 0.184957 -0.038308 -0.142910 0.415001 1.368098 -0.147429 -1.049820 -0.382502 0.193673 1.224350 0.125450 0.021957 0.045667 0.601078 -0.453177 0.369260 0.589668 0.732879 -0.932034 0.586955
files -0.699431 -0.168060 -0.371230 -0.801570 -0.440048 0.854522 -0.557616 0.849362 0.201914 0.072133 -0.350782 -0.118564 -0.288203 0.872644 -0.668386 -0.188988 0.178094 -0.835471 0.784977 0.749812 -0.780305 0.446353 -0.464736 -1.146270 -0.138874 0.040119 -0.142443 0.343090 -0.446775 -1.126032 0.131506 0.136760 -0.712509 -0.610198 0.720680 -0.023522 -0.538491 0.264421 -1.000407 -0.158964 -0.260437 0.174617 0.739068 0.926795 1.197513 0.314112 -0.442046 0.875045 -0.404652 -1.349290
html -0.031418 0.526861 0.573619 -1.232517 -0.348606 1.846435 0.180303 -0.099646 0.022925 0.069744 0.610513 0.494800 -0.345528 -0.678874 -0.342600 0.185411 -0.087194 0.864774 -0.561806 0.054110 0.444689 -0.898122 0.285498 -0.229999 -0.330626 -1.068707 -0.531670 0.270037 -0.529073 0.761728 -0.260070 1.104988 -0.148068 0.450437 0.940197 -0.321650 -0.484605 0.674060 0.405043 -0.045270 0.254380 0.168731 -0.756544 1.022035 0.969567 -0.234856 0.270121 1.056993 0.244135 -0.242494
phone -0.039739 0.643526 0.881087 -0.203703 -0.843425 -0.267295 -0.932859 0.372865 0.219545 -1.039603 1.394765 -1.911832 0.677591 0.622812 -0.334194 0.635912 0.451605 -0.406642 0.631126 0.372073 -0.158580 -0.225693 0.263285 -0.662510 0.043029 0.503824 0.576740 -0.684815 0.765797 -0.959804 0.791067 0.372366 1.296057 0.150710 0.815892 -0.504768 -0.829268 0.802897 0.550485 0.808762 0.236124 0.370098 0.525119 0.176141 0.686211 -0.553184 -0.179049 0.935700 0.425806 1.252834
there -0.329772 -0.312641 0.112161 0.376186 -0.622091 0.298519 -0.136440 -0.214189 1.256272 -1.433138 -0.921272 -1.098375 -0.658267 -0.135616 0.143495 0.347088 -0.110645 0.101569 0.885176 -0.774397 -1.364375 -0.176016 0.273457 -0.835272 0.433486 0.199539 0.319351 0.352599 0.375808 0.752064 0.087194 0.158453 -0.304072 -0.129511 0.949074 0.105789 -0.316842 -1.938904 -1.014477 0.733537 -0.431074 0.277840 -0.616031 0.066268 -0.510474 0.600147 -0.193232 0.155571 1.342843 -1.611724
listbox 0.134185 0.166789 0.422587 -0.319100 0.639448 -0.753433 -0.086696 -0.109214 0.255857 -0.114213 0.381164 -0.645615 1.087691 0.368508 -1.199932 -0.340532 0.464175 -0.218255 0.594808 1.229387 -0.328636 -0.695137 -0.290061 -0.597030 -0.248867 0.614308 0.413970 0.079442 0.408984 -0.136981 -0.194360 1.182816 0.126584 -0.545999 0.880253 0.124521 -0.383195 -0.002565 -0.429322 1.168481 -0.112427 0.373940 0.431920 0.511291 0.272098 0.132409 0.124387 -0.507462 0.834568 0.125317
service 0.666343 0.310336 0.352157 -0.246806 -0.613657 -0.470868 -0.693025 0.886419 0.561444 -0.675595 0.495671 0.370304 -0.967891 0.229484 0.432515 1.512930 -1.028213 -1.378142 0.354987 -0.679975 -0.090174 0.469655 0.304568 -0.051932 -0.634604 0.001237 1.339615 -0.848840 -0.881885 -1.149691 1.035486 0.457690 0.707812 -0.919466 0.844276 -1.279933 -0.223527 -0.456332 -0.039168 -0.172799 0.495889 0.031704 0.094684 -0.126801 -0.330833 -0.601690 0.182405 0.562493 -0.449508 -0.151958
different -0.157587 0.066888 1.019990 -0.124715 0.483971 -0.179302 0.475991 0.866390 -0.230108 -0.237506 0.464699 -0.493221 -1.240680 0.456662 -0.155602 -0.362304 0.361876 -1.172140 0.432491 -0.137928 -0.916851 1.061577 0.135220 -0.534793 0.778519 -0.634986 0.380970 0.229360 0.687449 -0.219023 0.075705 0.319823 -0.306938 0.649152 0.971584 0.006257 0.026289 0.077721 -0.374505 0.303014 -0.371217 0.515506 0.626300 0.945721 -0.737353 -0.842884 0.756642 0.797989 -0.853473 -0.709571
update 0.035404 0.167429 -0.345041 -0.556055 0.422601 -0.653817 0.349053 -0.683657 0.735321 0.231840 1.300725 -0.181203 -0.531651 -0.140328 -0.361985 -0.132087 0.198374 -0.279320 -0.555938 1.037505 -0.001221 0.108152 -0.156850 -0.082220 0.051917 0.553352 -0.130940 0.346835 -0.336542 0.544292 -0.166605 1.202487 0.143193 -0.446275 1.134672 -0.060873 -0.596384 -0.334161 0.036286 1.170078 0.186750 0.481340 -0.516761 0.407291 0.177604 -0.349625 0.406936 0.231711 0.232920 0.259441
return -0.144766 -0.219072 0.000093 -0.053156 0.303420 -0.218642 0.304348 -0.624496 0.315567 -0.153359 -0.306893 -0.385666 -0.567625 0.553073 -0.450228 0.272823 -0.695835 -0.569644 0.039071 -0.744771 -0.643761 0.019547 0.007116 0.033958 -0.181610 -0.234825 0.187843 0.345088 0.410623 0.089613 0.553691 1.058094 0.735074 0.157747 0.761950 -0.443870 0.253557 0.381272 0.573729 0.738606 0.565367 -0.083599 -0.553350 1.047514 -0.825126 -0.469001 -0.026450 0.354144 -0.258532 -0.470360
element 1.268376 0.177947 -0.223741 -0.178228 -0.024870 0.669806 0.188438 0.049358 1.351748 1.066397 0.443177 0.342045 0.302163 0.172449 -0.580873 0.425061 0.691229 0.331002 0.243003 -0.107618 -0.326542 -1.244695 0.533606 -0.678067 -0.204019 -0.721385 -0.442568 0.987159 0.046739 0.281058 0.909539 0.713292 0.143627 -0.428934 0.369134 -0.351324 -0.248450 0.246739 0.619644 0.688672 0.097143 0.410617 -1.102980 0.466352 -0.388844 -0.701887 0.485160 1.022630 0.239367 0.176152
line 0.409004 -0.327760 -0.369865 -0.600974 0.261529 -0.378376 -0.123414 -0.393218 0.956418 0.385517 0.044989 -1.017055 -0.160293 0.315805 0.020131 0.317897 0.032925 0.294089 -0.071102 1.323323 -0.874283 -0.361951 -0.498841 -0.014529 0.830612 -0.105932 -0.435550 0.452188 -0.482251 -1.545755 0.128899 0.736121 -0.546628 1.365406 0.359564 -0.020413 -1.049607 0.722910 -0.796414 -0.596893 0.451965 -0.846815 0.121288 0.953035 0.221259 -0.438951 0.150784 1.171541 -0.080974 -0.604752
parameters -0.527544 -0.150688 0.575102 0.211041 0.822167 -0.330195 -0.130589 -0.127178 -0.409001 0.061461 -1.024325 -0.912302 -0.756703 0.633129 -0.527193 0.512707 0.112390 -0.353236 -0.772587 -0.351474 -1.167674 1.045484 -0.192557 0.327273 0.746676 -0.689062 -0.010956 -0.933832 0.532503 -0.564479 0.514805 1.343155 0.519108 0.252612 0.753159 -0.343061 -0.353678 -0.094403 -0.312609 -0.271359 0.282007 0.004003 -0.034668 0.861383 -0.778929 -0.498094 -0.298299 0.489204 0.492000 -0.505925
insert -0.187383 -0.114491 -0.570443 0.278906 0.513402 -0.586786 0.382147 -1.196481 0.362668 0.551241 0.367541 -0.449463 -0.171684 -0.874935 -0.132689 0.220109 0.404998 -0.565791 -0.748158 1.405726 -0.236155 0.198797 -0.196682 0.334862 0.124691 0.407081 -0.243347 0.730199 -0.320054 0.809594 0.826079 1.070083 -0.453456 -0.863699 0.813350 0.459890 -0.810604 0.127034 -0.376225 0.954298 -0.206699 -0.212952 -0.826224 0.379864 0.627298 -0.407409 0.213941 0.619170 -0.170858 -0.572383
this -0.023449 0.083588 -0.987174 0.030568 -0.569173 -0.090749 0.471267 -0.704663 0.370506 -1.195935 -0.118115 -0.244455 -0.803023 -0.220699 0.507502 0.867006 -0.480022 -0.230595 -1.111494 -0.211465 0.093809 -0.673100 0.195060 0.427048 -0.028036 -0.180642 0.183167 0.180253 -0.735269 0.666649 -0.280070 0.645294 0.884371 1.366900 0.507289 -0.336222 0.210708 -0.709584 -0.029726 0.156384 -0.847020 0.142355 -1.116552 0.826911 0.531951 0.351625 0.095852 0.898009 0.131091 -1.310053
click 0.802654 0.859529 -0.073386 -0.529922 0.569644 -1.121934 0.623012 0.120922 -0.594327 1.027359 -0.416988 -0.429134 -0.095390 -0.314027 -0.127239 0.153951 0.318189 -0.373896 -0.477821 0.096472 -0.577953 -0.885195 1.184785 -0.149310 0.996907 1.335338 0.118202 0.457201 -0.299507 -0.494441 -0.412535 1.061462 0.646127 0.658192 1.035260 -0.422959 -1.046311 -0.585818 0.228319 0.551137 0.090459 0.423705 0.450237 0.117619 -0.258445 1.148631 -0.208506 -0.343847 0.800417 0.983611
dynamically -0.116122 0.687499 -0.602591 -0.203163 1.250865 -0.095980 -0.085415 1.103026 -0.065230 0.496747 0.427449 0.004839 0.063702 -0.162294 -0.902967 0.036174 0.423017 0.106035 -0.295468 0.082086 -1.040616 -0.317632 0.392381 -0.082079 -0.933746 0.228864 -0.629427 -0.021126 -0.941921 -0.132609 -0.550708 0.160792 0.181511 -0.289217 1.848699 -0.216719 0.090520 -0.178740 -0.191366 0.393272 0.217251 1.239324 0.076489 0.457904 0.718390 0.530805 0.732713 0.196312 0.204508 -0.234450
function 0.098867 -0.632190 -0.392012 -0.582412 0.496328 -0.611605 0.287191 -0.606711 0.091222 0.166584 -0.822984 -0.661763 -0.325834 0.853372 0.554937 0.462818 -0.697580 -0.196128 -0.659594 -0.361334 -0.764178 0.088635 -0.196661 0.253871 0.519544 0.121588 -0.278453 -0.011424 -0.855599 -0.390213 0.341409 0.800361 0.812084 1.207680 0.885466 0.123453 -0.278348 -0.599981 -0.460323 -0.256394 0.730956 0.535089 -0.495412 0.613936 -0.358888 -0.208958 -0.453616 0.193465 -0.399288 -0.020529
properties -0.251802 0.335648 0.423865 -0.561035 0.310380 -0.028673 0.447032 1.356101 0.620976 -0.706075 0.493467 0.377867 -0.056761 0.295834 -0.432390 -0.133304 0.655043 -0.515101 0.474536 -0.113776 -0.363551 0.588485 0.222419 -0.347481 -0.411098 -0.361634 -0.120971 -0.152292 0.178415 0.333867 -0.170341 0.589553 0.799257 -0.502757 1.209097 -0.506813 0.808451 -0.686456 0.311263 0.519956 0.390590 0.698095 -0.348551 0.142314 -0.718497 0.126386 0.996322 0.716687 0.092687 -0.388347
inside 1.259627 0.774635 -0.352985 -0.839827 0.177065 0.377346 0.920880 -0.302881 0.076910 0.353589 0.590128 0.477722 -0.231061 1.246588 -0.366162 -0.406982 0.354939 -0.259464 -0.275625 -0.060484 -0.007135 -0.711060 0.023835 -0.644960 -0.187365 -0.174642 -0.287470 0.232301 -0.572156 0.432067 0.379498 0.908819 -0.156774 0.632423 0.891606 -0.499730 -0.077973 -0.714604 -0.413220 0.416091 0.093142 0.739004 -0.347936 0.235028 0.161452 0.165317 -0.429446 -0.602027 0.831416 -0.562045
through 0.206010 -0.358667 -0.086020 -0.790148 -0.067935 -0.666753 0.081315 0.696957 -0.206004 0.393778 -0.130315 1.072616 -0.012621 0.387463 -0.383581 0.115568 -0.061180 0.113148 -1.052767 -0.652144 -0.348797 -0.286433 -0.152315 -0.194125 0.249311 -0.239569 0.301398 0.003822 -0.343416 0.346833 -0.062297 1.001468 0.435714 -0.680963 1.089301 -0.976994 0.538114 -0.517133 -0.238019 0.645848 0.096616 -0.359242 0.134641 0.878184 1.154793 0.590119 -0.310372 0.097424 0.304214 -0.787926
between -0.007475 0.631943 1.380490 -0.263780 -0.286251 -0.256654 1.058071 0.759884 0.142803 -0.532663 -0.210695 -0.663887 0.296474 -0.546642 0.094075 -0.696935 0.101724 -0.031173 0.787566 0.115526 -0.025409 0.472265 0.199613 -0.413235 0.950201 -0.808163 -0.644520 0.516361 0.401940 -0.383331 -0.216220 0.388752 0.076030 -0.186397 -0.025307 -0.145242 -0.297212 0.185613 0.040496 0.189224 -0.892644 -0.153783 0.418664 0.877731 0.453121 -0.397036 0.158155 1.147523 -0.374601 -1.003733
view 0.452524 -0.249466 0.064468 -0.318714 0.233069 0.352183 1.242041 -1.426726 -0.019768 0.515975 1.482347 -0.130549 -0.418249 0.418312 0.316652 -0.434284 0.517084 -0.027863 -0.011640 -0.176397 0.184131 -0.233823 0.194895 -0.185840 -0.132475 -0.270573 0.627309 -0.912013 -0.295490 -0.251609 -0.420727 0.476740 0.609917 -0.205496 1.904728 0.648699 -0.144208 -0.382656 -0.423693 0.837211 0.492604 0.186157 1.127281 0.723530 -0.322544 -0.467618 0.106730 -0.136811 -0.836109 -0.336261
be -0.007776 -0.995901 -0.534980 0.727210 1.115560 -0.415035 0.014223 -0.233606 -0.077092 -1.320771 -0.466998 -0.695047 -0.677720 -0.300809 -0.746101 0.295376 -0.430845 -0.182904 0.278192 -0.648605 -1.024476 -0.362892 0.117543 0.916003 -0.577530 1.406109 -0.020125 0.438475 -0.463183 0.037431 -0.035327 0.462318 0.237693 1.094126 0.390505 -0.516225 -0.372941 0.025077 -0.558540 0.319718 0.776731 0.499878 -0.839875 0.843214 -0.526855 -0.446697 0.732029 0.089014 0.485878 -0.522188
first 0.398462 -1.828889 -0.793668 0.242479 0.436555 0.432508 0.740646 -0.133634 1.016552 0.567498 0.537432 0.088763 0.199215 -0.549139 0.577633 -0.597835 -0.050543 -0.041412 0.726180 0.071035 -0.218099 -1.683529 -0.369656 -0.104489 1.305285 -0.165513 -0.374272 0.772932 0.266233 0.066734 -0.216247 1.178413 0.742565 0.445281 0.705031 0.292717 -0.566708 0.400379 0.041255 0.600094 0.301990 -0.356416 -0.152906 0.974518 -0.455387 -0.501698 0.181138 1.461361 0.404747 0.262245
strings 0.092520 -0.063976 0.796705 0.144974 -0.106232 0.054011 0.220907 0.370989 0.331671 -0.002033 -0.322049 -1.071306 1.021188 0.526328 -0.404986 -0.624865 -0.259176 -0.472352 0.339669 -0.048183 -0.770641 -0.062531 -0.208129 -0.151447 0.097210 -0.842183 -0.600818 0.367016 0.362095 0.302747 0.260477 1.184307 -0.177042 0.515293 0.338080 0.085675 0.227592 0.175242 -0.489767 0.066408 -0.522169 0.386908 -0.521855 1.053899 0.798042 -0.011546 -0.040111 0.249916 0.065185 -1.508354
call 0.075949 -0.362776 -0.172030 -0.786312 0.250126 -0.327811 0.171760 -0.137293 -0.314575 0.013516 -0.495930 -0.382602 -0.920203 0.517954 0.230005 0.495525 -1.347154 -0.145465 -0.423290 -0.813533 -0.286415 0.103853 0.111773 0.231553 0.163055 0.699559 0.108950 -0.243728 -0.679499 -1.041505 0.367836 1.198253 1.382952 0.395553 1.290854 -0.447744 -0.179594 -0.748970 -0.118116 -0.061209 0.780182 0.418386 0.181391 0.607716 -0.710632 -0.475199 -0.441963 0.258262 -0.249991 0.291522
open 0.172722 0.405668 -0.492481 -0.606725 -0.950799 -0.320781 -0.544873 0.297073 1.123634 0.016095 -0.400208 0.264169 -0.972132 -0.197735 -0.717940 0.715004 0.139865 0.200720 0.119895 0.373842 -0.815374 -0.299801 0.858691 -0.949886 -0.198605 0.657184 0.286239 0.633044 -0.841874 -1.545767 0.026365 -0.141312 -0.389432 -0.426068 1.072139 0.248198 -0.693951 0.220219 -0.401895 0.608680 0.967399 0.833817 -0.170907 0.212250 0.069890 0.194402 0.167652 0.400870 -0.555316 0.163278
8 -0.219186 0.590422 0.408717 0.030539 -0.849245 -0.055914 -0.943163 0.652689 0.118659 -1.116384 1.678908 -1.787137 0.913370 0.562621 0.191274 0.281744 -0.273064 -0.631722 0.557559 0.416771 0.091861 -0.694056 0.285925 -0.100710 -0.130611 0.592218 0.937883 -0.622707 0.904953 -1.078746 0.741588 0.137388 1.216809 0.064130 0.933330 -0.561507 -1.303344 1.276123 0.646871 0.666448 0.570454 0.018953 0.113742 -0.199325 0.629138 -0.687363 0.037143 0.779423 0.225143 0.664555
[ 0.791770 -0.046700 -0.027131 -0.751923 -0.235822 -0.410404 -0.212524 -0.566902 -0.732801 -0.237717 -1.138332 -0.602892 1.031303 0.150167 0.161108 0.866357 0.624680 -1.178280 -1.059333 -0.336447 0.474423 -1.135396 0.127024 0.466316 0.288528 -0.298941 1.230248 0.154134 1.129222 -0.119850 1.173480 -0.505220 0.296237 -0.760101 0.958761 0.080011 -0.411082 1.540046 0.605261 1.019404 -0.403641 0.030540 -1.016739 0.367792 -0.399454 -0.034973 -0.425099 -0.220441 0.161119 -1.050154
byte 0.027151 0.168069 -0.002284 -0.282827 -0.390631 -0.201993 -0.709158 -0.133824 -0.350709 0.376748 -1.304588 -1.013223 1.250821 0.627440 0.484341 0.506016 -0.333886 -0.547084 -0.875054 0.635422 0.030138 -0.960392 0.007980 0.536937 -0.829826 -0.315530 0.978410 0.134959 0.775059 -0.142706 1.655736 0.206002 0.050532 -0.110063 0.341121 0.011061 -0.567641 1.311811 0.010794 0.833339 -0.577243 0.322036 -0.517555 0.629891 -0.117174 -0.379333 -0.103533 0.236352 -0.000891 -1.476694
] 1.049688 0.135300 0.222122 -0.647996 -0.184430 -0.456309 -0.433331 -0.368602 -0.772245 -0.091322 -1.145763 -0.512201 1.067964 0.344974 0.159087 1.003998 0.800489 -1.166454 -1.116522 -0.423535 0.321593 -1.205066 0.159227 0.342469 0.321756 -0.359112 1.375673 0.084309 0.976465 0.090394 1.364339 -0.302898 0.408679 -0.617019 0.885552 0.104900 -0.741214 1.299387 0.531957 1.004559 -0.313659 -0.003404 -1.103237 0.452140 -0.521196 -0.214752 -0.204224 -0.201481 0.366115 -0.828174
pass -0.309434 -0.001237 0.064411 0.288357 0.985519 -0.232399 0.365796 0.037450 -0.268323 0.363601 -0.461610 -0.864089 -0.119637 0.430708 -0.098139 0.095991 -0.708982 -0.130446 -0.656256 -0.357394 -0.853155 0.071300 0.141683 0.621727 0.055722 -0.476762 0.077357 -0.772961 0.031692 -0.717758 0.569009 0.691108 1.198741 -0.074736 1.575244 -0.476559 -0.119907 0.021033 -0.195175 0.171084 0.184312 0.406121 0.083630 1.065944 -0.808016 -0.552000 -0.352201 0.272872 -0.062484 -0.820824
programmatically 0.257942 0.595110 -0.832174 -0.181384 0.083066 -0.650659 0.018755 0.739937 0.065003 -0.219088 0.404908 -0.308606 -0.334305 -0.652893 -0.764784 0.687517 0.701187 -0.325997 -0.140157 0.173991 -0.382447 -0.326527 0.103167 -0.197439 -0.674855 0.555229 -0.220472 -0.225462 -0.232632 -0.777028 0.275990 -0.260886 -0.165646 -0.956973 1.229649 -0.472899 -0.170177 -0.041538 -0.245075 0.532223 -0.529416 0.863539 -0.105598 -0.219398 0.544364 0.455265 -0.316494 0.271760 0.278623 -0.165627
save -0.267741 0.164243 -0.850953 -0.308634 0.254774 0.504657 -0.337113 0.431974 -0.134181 0.192068 0.267666 -0.241948 -0.030787 0.210825 -0.485261 0.158256 -0.105817 -0.364769 -0.812468 0.517020 -0.159945 -0.270447 0.245265 -0.146578 -0.744637 0.669231 -0.001285 -0.489838 -0.057051 -0.627117 0.441854 -0.155672 -0.357362 -0.353458 0.901816 -0.028449 -0.499289 0.564420 -0.405971 1.062515 0.525737 0.250099 -0.027571 0.811742 0.343673 0.006419 0.587335 0.524725 -0.583564 -0.648726
within 0.881386 0.442865 0.063104 -0.738288 -0.034508 0.000580 0.684391 0.048304 0.516202 0.419944 0.293639 0.098265 0.369644 0.977888 -0.323918 -0.452854 0.332352 -0.427211 0.543927 -0.620344 -0.348766 -0.203488 0.249941 -0.931825 0.042946 -0.612999 0.133896 0.210142 -0.379559 0.031396 0.563395 0.632036 0.369927 0.213284 0.478828 -0.374790 0.146870 -0.114487 -0.059788 0.352140 0.221790 0.979885 -0.301407 0.307178 0.107369 -0.164060 -0.286663 0.018974 0.356210 -0.211163
elements 0.106986 0.313458 0.310719 0.041884 -0.184808 0.268845 -0.146459 0.577006 0.744907 0.861213 -0.254813 0.322110 0.619234 1.020214 -0.813978 0.224147 0.063277 0.295266 0.988876 -0.222006 -0.598548 -0.207295 0.199746 -0.439654 0.015382 -0.712574 -0.433634 0.981391 0.307512 0.199060 0.194525 0.723090 -0.152772 -0.666657 0.491420 -0.265359 0.064683 0.353123 0.453275 0.464864 0.038505 0.049992 -0.510209 0.905640 -0.299936 -0.026487 0.660593 0.942500 0.291212 -0.461183
selected -0.318863 0.155206 -0.246544 0.186689 1.394968 0.441179 0.832104 -0.442019 0.762304 0.358251 0.159988 -0.600511 0.468091 -0.229368 -1.654869 -0.845762 0.686864 0.163706 0.983159 0.691297 -0.873272 -0.781172 -0.271138 -1.012606 -0.918022 0.571233 -0.331752 0.644282 0.436953 -0.060636 0.757253 0.859303 0.215817 -0.612331 0.673023 -0.164436 0.301858 -0.039048 -0.446822 1.248168 0.025348 0.226677 0.700918 0.330146 -0.297718 0.207408 -0.538076 -0.164784 0.385557 0.036475
show -0.214093 0.260105 -0.553089 -0.804783 0.259762 0.367307 1.062517 -0.156190 0.169056 -0.221510 0.356889 -0.409085 -0.814058 0.164154 0.078387 0.133755 0.559129 -1.069590 -0.256651 1.233371 -0.076775 -0.464091 0.467751 -0.552137 0.313321 0.709873 -0.102366 -0.072725 0.688564 0.409728 0.399801 0.896893 -0.155405 -0.494250 0.318753 -0.481091 0.395866 0.261075 -0.254671 0.700157 0.828611 -0.075170 -0.230886 0.674537 0.057281 0.484786 0.092991 -0.362641 0.570319 -0.054523
single 0.242001 0.784726 -0.117984 -0.323826 0.267706 -0.804698 -0.049659 -1.107053 0.310860 0.850790 0.323209 -0.891035 0.046103 0.883741 0.398726 0.275330 0.241822 -0.226024 -0.050171 0.270467 -0.921560 -0.214496 0.186585 0.567618 -0.107416 -0.419607 -0.153131 0.755962 -0.064780 -0.074097 0.287727 0.273778 0.408070 0.329607 0.923503 -0.249915 -0.765172 -0.150718 0.393992 0.487827 -0.147563 -0.132956 -0.203608 0.407909 -0.180940 -0.442222 0.105553 0.905014 -0.536536 -0.362822
you -0.591165 0.173160 -1.593734 0.190434 -0.306777 -0.881689 1.171304 0.491781 -0.290431 -0.440372 -0.187060 -0.070885 -0.750018 -0.423646 -0.307611 0.661011 -0.000349 -0.405545 0.399945 -0.156167 -0.253830 -0.239852 0.686361 0.437483 -0.589663 0.826430 -0.817568 0.364431 -0.125740 -1.265897 -0.085191 0.431599 0.626789 0.001605 0.953477 -0.758818 0.425721 0.118016 0.326669 0.192109 -0.362844 0.923653 -0.725614 0.944126 0.313298 -0.018533 -0.465464 0.778363 0.222534 -1.168951
int -0.260527 -0.180237 0.299509 -0.349301 0.074690 -0.290432 0.049681 -0.570661 -0.116189 -0.263492 -1.190000 -1.203621 1.246976 0.557533 -0.138299 0.132486 0.001820 -0.321240 -0.709383 -0.787325 -0.047936 -0.839086 0.077690 0.341382 -0.046390 -0.799599 0.274939 0.385519 1.373998 1.058777 0.225910 -0.016729 0.517520 -0.139068 1.030265 0.385925 0.079802 0.954410 0.766290 1.309850 -0.226912 0.515305 -1.092188 0.998546 -0.142104 -0.183429 -0.205131 -0.391313 0.506302 -1.126289
rows -0.357205 -0.410767 0.029241 0.192905 0.539241 -0.197662 0.413932 -0.911141 0.024152 1.402435 0.293273 -0.063023 -0.371914 0.235877 -0.839772 0.169217 0.453698 -0.027197 0.767411 0.744780 -1.004590 -0.104828 -0.797525 -0.589627 0.468988 0.055786 -0.277868 0.977951 0.645422 0.329721 0.016640 1.083399 -0.801267 -1.078305 1.144887 0.284350 -0.172357 0.118608 -0.549138 0.872066 -1.009798 -0.309560 0.648769 0.485933 0.499086 0.026670 0.051238 0.264510 0.537391 -0.178138
but 0.049521 -0.656110 0.022212 0.006349 -0.041163 -0.318593 0.521631 0.028222 0.173237 -0.678418 -0.591023 -0.233785 -0.894933 -0.294994 -0.392522 0.704058 0.554863 -1.187064 0.394150 -0.029290 -0.547449 0.196309 0.542126 -0.412866 0.809756 0.564285 0.227301 0.738209 0.359921 -0.045378 0.447301 0.537617 -0.516613 -0.293042 0.326012 0.494449 -0.110452 0.346731 -0.304309 0.346227 1.419490 -0.189941 -0.743174 1.287051 -0.102714 -0.248469 0.989389 0.234266 0.206560 -0.277352
collection 0.391489 0.091047 0.074792 -0.121619 -0.119646 -0.572961 0.004124 -0.181483 0.644431 0.474149 0.484469 0.587338 0.332257 1.237795 -0.883592 -0.105388 0.044934 0.285126 0.459481 -0.820970 -0.853813 -0.225186 -0.022474 0.085222 -0.289099 -0.780307 0.019994 0.611418 -0.013669 0.538903 -1.030510 0.741576 0.557622 0.363315 1.207361 -0.137469 0.401974 -0.391792 0.426192 0.844966 -0.029212 0.765875 -0.717613 0.428977 -0.502866 -0.241329 0.376965 0.149378 0.049790 -0.433844
console -0.129800 -0.026475 -0.073158 -0.704275 -0.610516 -0.550621 0.378176 0.686726 0.320649 -0.540735 -0.459071 -0.313652 -0.348743 0.268572 0.483966 1.059198 -0.210587 -0.757354 -0.548382 0.171422 -0.476306 0.205567 0.724530 -1.445431 0.582672 0.500016 0.874118 -0.073789 -0.024011 -1.246768 1.231004 0.331767 -0.025985 -0.236710 0.318271 0.147399 -0.166553 0.653435 -0.476745 -0.260925 0.876472 0.121511 -0.366558 -0.144918 0.998847 -0.187039 -0.356031 0.096886 0.897461 -0.276996
folder 0.422659 0.029236 -0.687729 -1.039833 -0.605002 0.818021 0.031209 0.723290 0.166635 0.938212 0.112808 0.742494 -0.183379 0.508172 0.097875 -0.013282 0.477088 -0.710931 0.446337 0.177468 -0.670183 0.244617 0.200579 -1.250372 -0.256981 0.424189 -0.304870 -0.016910 -0.449027 -1.444402 0.864973 -0.272230 -0.869982 0.026423 0.700195 0.144067 -0.909800 -0.394523 -0.745554 0.151259 -0.174524 0.385897 0.510340 -0.025788 -0.106970 -0.053753 -0.484321 0.747154 -0.312837 -0.675893
many -0.442740 -0.744970 -0.291648 0.882568 -0.237120 -0.265006 -0.922831 0.472024 0.997057 0.600244 0.358270 0.273854 -0.104793 -0.010233 0.067624 -0.666255 -0.443401 0.212129 0.805193 1.139623 0.106411 0.337649 -0.851681 0.430703 1.470826 0.221792 -0.276334 -0.162245 0.055440 0.019025 -1.159791 1.343184 0.056218 -0.427770 0.945191 0.623160 -1.139143 -0.387032 -0.826230 0.469770 -0.779171 0.518365 -0.579550 -0.183762 -0.858246 -0.053802 0.793172 0.997173 -0.082215 -0.261519
api 0.227327 0.346839 0.999446 0.365820 -0.821882 0.821880 -0.486142 0.117650 -0.426591 -0.520615 0.001242 0.547697 -0.757910 0.199120 -0.291334 0.388760 -1.093731 -0.351286 0.215868 -0.582922 -0.259436 0.105700 0.046170 -0.219056 0.573677 0.232283 1.091661 -0.260301 -1.029615 -0.415293 0.091440 1.364323 1.389694 -0.024059 1.383395 -0.510545 -0.090378 -0.626146 0.193966 0.030711 0.099586 -0.253955 0.017214 0.225341 -0.002953 0.155639 -0.692059 0.479511 -0.579183 0.473566
listview 0.364069 0.184679 -0.265120 -0.363855 0.780312 -0.130050 0.269306 -0.311931 0.417668 0.487916 0.619696 -0.347572 0.638049 0.675180 -0.729030 -0.158230 1.011569 -0.516054 0.373271 1.380446 -0.192271 -0.674066 -0.142306 -0.598174 -0.362109 0.379960 0.167203 -0.382504 0.158096 -0.067058 0.191438 0.395406 0.306575 -0.748407 0.902964 -0.459980 -0.030807 0.101163 -0.170620 1.160335 -0.232472 0.591073 0.635722 0.579588 0.368643 0.237505 0.060503 -0.478058 0.817653 0.171609
null -0.310882 0.414708 0.022094 1.111489 0.861933 -0.003657 0.325654 -0.381814 0.659573 -0.053091 -0.603261 -0.567868 -0.106112 -0.110815 0.050355 0.251527 -0.651838 -0.442924 0.083726 -0.318741 -0.859847 0.520899 0.285472 0.386285 0.295580 0.302846 0.001847 0.154000 0.746973 1.212221 1.161922 1.249080 0.195148 -0.567153 0.560111 0.093763 0.328727 -0.294864 0.037310 0.912194 0.558271 -0.171928 -1.198925 0.594288 -0.829143 -0.535088 0.793329 0.483708 0.522834 -0.361776
adding 0.409309 0.341989 0.051389 -0.429091 0.549706 -0.480048 -0.249380 -0.167877 -0.091975 1.150852 -0.006433 -0.041319 0.507219 -0.001370 -0.110369 0.336997 0.533696 0.442100 -0.395568 0.674737 -0.855239 -0.137735 0.162534 -0.397729 0.724616 -0.074769 -0.360572 -0.285418 0.319836 -0.203110 -0.203533 0.554038 -0.192095 -1.340492 1.124895 0.283403 0.209311 -0.220377 -0.374461 0.779979 -0.015789 0.222355 0.262105 0.709846 -0.198428 0.218774 0.204759 0.002682 0.391464 -0.448749
creating 0.320843 0.265181 -0.025154 -0.849014 -0.246780 -0.609492 -0.502396 0.463784 0.337717 0.530155 0.536667 -0.347003 0.646122 0.402058 -0.009370 0.730453 0.259862 -0.202779 -0.176988 0.072283 -0.758182 0.528306 0.307937 0.020675 -0.383511 -0.401250 -0.040110 -0.400750 -0.600500 -0.227282 -0.032842 0.351645 -0.420252 -0.571300 1.703133 0.384180 0.004267 -0.483381 -0.236990 0.001971 0.523793 0.347181 -0.207133 -0.015106 0.455866 0.213414 0.439549 0.390005 -0.459197 -0.478148
2 0.004100 0.602929 1.449695 0.220753 -0.278830 -0.401351 0.050834 0.296450 -0.301782 0.144841 0.030491 -0.636791 0.263392 0.655191 0.174094 -0.374238 -0.638175 -0.716917 0.770159 0.322222 -0.531922 0.339807 -0.633150 -0.026605 1.122468 -0.877505 0.385957 0.607778 0.585094 -0.185140 -0.298608 0.873065 0.348688 0.214258 1.394149 0.625708 0.015222 0.936509 -0.010096 0.167511 -1.010683 0.159511 -0.080076 0.539900 0.362723 -0.342435 0.061787 0.554755 -0.175745 -0.908265
group 0.834311 -0.232174 -0.704380 -0.002714 -0.197514 -0.184677 0.025787 -0.392340 0.323747 0.506331 -0.016009 0.197946 -0.237090 0.725961 -1.417360 -0.213354 0.457361 -1.018954 0.406735 0.660688 -0.656342 0.693961 -0.875784 0.408786 1.023146 -0.313465 -0.453140 0.131505 -0.704689 -0.114786 0.250580 0.679754 0.681590 0.774512 0.658540 -0.495332 -0.305943 -0.364810 0.081911 0.293118 -0.660528 -0.073442 -0.154002 0.987718 -0.391442 0.956915 -0.972507 0.414584 -1.120467 -0.307950
need -0.766565 -0.129628 0.000833 -0.469350 -1.027756 -0.355040 0.319570 -0.152555 -0.320775 -0.503092 -0.340930 -0.989844 -0.478267 -0.385548 0.249887 1.350007 -0.069100 -0.658498 0.227439 0.368043 -0.235989 0.246693 0.558877 0.774810 -0.233350 0.220209 -0.229754 0.573835 -0.031223 0.308528 0.047503 1.470785 0.124431 0.779032 0.894120 -0.030163 0.423592 -0.688805 0.285697 0.007949 0.355782 -0.085680 -0.597136 0.952795 1.367229 0.885529 -0.022855 0.743795 0.392538 -0.615862
wcf 0.371864 -0.054477 0.224635 -0.006453 -0.742772 -0.063573 -0.696024 0.743079 0.159121 -0.868468 0.706943 0.068604 -0.765407 0.343924 0.227343 1.434959 -0.929558 -0.873031 0.356899 -0.683549 0.356383 0.576820 0.055896 0.477361 -0.610816 -0.129755 1.232626 -1.309143 -0.566448 -0.748118 0.815238 0.932109 1.071530 -0.791668 0.850245 -1.039470 -0.237412 -0.469659 0.161014 0.214202 0.584997 -0.366978 0.386630 -0.061481 -0.000674 -0.123444 0.028392 0.615383 -0.768378 0.144079
word 1.152793 0.319684 0.024831 -0.499095 -1.266200 0.416437 -0.296473 -0.454406 1.206792 0.426955 0.749467 0.357694 -0.046609 -0.243457 0.340043 0.412773 0.377737 1.151969 0.060651 0.202709 0.235232 -1.099092 -0.031916 -0.510498 0.894249 -0.341614 -0.751265 1.466275 -0.930934 -0.727849 0.203215 0.364777 -0.801454 0.111684 0.019080 0.296785 -0.668363 0.322131 -0.513277 0.569427 0.010794 0.193488 -0.771788 0.130240 1.259409 0.160165 -0.117513 0.682647 -0.281567 -0.416286
model -0.109538 -0.710595 0.267778 0.147153 0.350201 0.406977 0.763744 -0.653556 0.328534 -0.535354 1.341051 0.029964 0.119732 -0.296556 0.120815 -0.500983 0.187140 -0.030739 -0.247380 -0.566027 0.149445 0.171480 0.420205 -0.033026 -0.047568 -0.502057 0.652433 -1.104674 -0.059960 0.646418 -0.709786 0.545713 1.612182 -0.618568 1.524984 0.648897 0.632722 -0.541070 0.133952 0.832785 0.455614 -0.039024 0.088005 0.373723 -0.624771 -0.921657 0.408211 0.574795 -0.399191 -0.196184
parse -0.301947 0.524608 -0.072605 0.025451 -0.466296 0.903445 0.328906 -0.725799 0.384828 -0.837812 -0.310023 -0.593628 0.033267 -0.113022 0.103350 0.592685 -0.093868 0.066569 -0.903472 -0.475131 -0.146984 -0.001466 0.643140 -0.224733 -0.237101 -0.576125 0.048562 0.250623 -0.430266 0.227116 0.551007 0.166834 0.685208 0.410179 0.122225 -0.039729 0.712597 0.668257 0.273742 0.566413 -0.190456 -0.218682 -0.401241 1.309464 0.897670 0.272282 0.148568 1.081270 -0.692276 -1.107192
path 0.394947 -0.772666 -0.597476 -0.598696 -0.476700 1.465099 0.435038 0.408853 0.324919 -0.037420 -0.482322 0.218662 -0.202791 -0.203642 -0.184845 0.596201 0.891874 -0.713531 0.281701 -0.408009 -0.371528 -0.000272 0.654929 -0.956227 -0.868918 -0.379835 0.032314 -0.458577 0.044604 -1.109284 1.252753 -0.273998 -0.542910 0.132817 0.363467 0.261059 -0.245644 0.445081 -0.272373 -0.087602 0.249343 0.036487 0.565099 0.067439 -0.193614 -0.393810 -1.009996 0.797096 -0.181391 -0.890784
lambda -0.015446 -0.230036 0.183887 0.197337 -1.388546 -0.408228 0.458128 -0.642794 0.254795 -0.415846 -0.183202 -0.367090 -0.030208 1.234179 -0.496698 0.470695 0.207482 0.222048 -0.487861 0.119811 -0.204976 1.239352 -0.323031 0.431543 0.695710 -0.366628 -0.034101 -0.751491 -0.443595 0.893408 0.450466 0.867319 0.923662 1.072795 0.686130 0.481938 -0.703168 -1.002438 0.548904 0.754237 -0.279780 0.194883 -0.646266 0.990929 0.276079 0.177996 -0.274193 0.449420 -0.350737 -0.088671
dynamic 0.765875 0.784195 0.169887 -0.421281 0.385787 -0.007115 0.250328 -0.322354 -0.116022 0.279543 0.349387 -0.188279 0.031160 0.341383 -0.689243 0.746168 0.594948 -0.642442 -0.015157 0.054010 -0.510195 1.024879 -0.128549 0.595359 -0.514095 -0.528679 -0.177619 -0.576258 -0.541302 0.237473 -0.108183 0.161323 -0.029838 0.336197 1.465305 0.173995 0.185463 -0.557276 0.328872 0.498874 -0.422194 0.437417 -0.274615 0.389600 0.177643 0.463150 0.505022 0.120550 -0.463039 -0.568732
via 0.155026 0.199745 0.571075 -0.156523 0.703346 0.533554 -0.063159 -0.187403 0.002333 0.058270 -0.422757 0.339891 -0.510651 0.264337 -0.707705 0.120699 -0.487717 -0.193637 -0.519614 -0.694914 -0.265187 0.181107 -0.348161 -0.420062 -0.387819 0.151430 0.722126 -0.165979 -1.241265 -0.103412 0.631914 0.369279 0.693786 0.013017 1.192096 0.010385 -0.645153 -0.083878 0.168797 0.380168 0.544224 0.230994 -0.000201 0.038019 0.132722 -0.058056 0.055743 0.203133 -0.211912 0.299793
where 0.695844 -0.177468 -0.939951 0.417514 -0.030135 -0.399749 0.436222 -0.761437 0.493950 -0.212676 0.210851 -0.407637 -0.272878 0.908127 -1.159804 0.433520 1.065246 -1.165964 0.788736 0.228940 -0.309398 0.890309 -0.285869 0.322709 0.536196 -0.269511 -0.768070 -0.226017 0.213296 0.089492 0.130023 0.341204 -0.149141 0.118333 0.550135 0.211303 -0.507919 -0.341749 0.311204 0.567846 -0.141196 0.292645 -1.359080 0.404449 -0.489712 -0.000873 -0.028370 0.383264 0.199121 -0.677741
are -0.029272 -0.442253 0.701013 0.860412 0.756554 0.254981 0.145039 0.744581 0.570611 -0.581151 -0.388411 -0.673499 -0.604558 0.649925 -1.518637 -0.634541 -0.184739 -0.828184 1.437570 -1.064811 -0.855946 0.460057 0.041738 -0.865880 0.310970 0.147098 -0.041877 0.642223 0.598358 0.068302 -0.171734 0.906803 -0.757679 -0.831660 0.000149 -0.303055 -0.327763 -0.579661 -0.771335 -0.024508 -0.060784 0.288392 -0.535671 0.377141 -0.490429 -0.521145 0.646265 0.149254 1.334662 -1.234363
url 0.096956 0.119478 -0.065032 -0.116819 -0.215816 1.252617 -0.000559 -0.175964 -0.162257 0.244540 -0.382480 -0.279535 -0.334384 -0.279802 -0.123851 0.455989 0.090958 -0.015040 -0.386529 -0.273531 -0.649154 -0.149966 0.575189 -0.312361 -0.285483 -0.650981 -0.076729 -0.750852 -0.665432 -1.243096 0.697108 0.909660 0.414653 0.532068 0.280056 -0.004363 -0.202874 0.470380 0.472561 -0.302759 0.809237 -0.356331 0.059744 0.374994 -0.163556 -0.138163 -0.725310 0.757931 -0.352484 -0.341205
retrieve -0.450014 -0.493989 -0.117340 -0.076435 0.170441 0.509643 0.419689 0.352573 0.230683 0.015666 0.048579 -0.017932 -0.461818 -0.168074 -0.718445 0.050401 -0.157622 -0.427758 0.308456 -0.406981 -0.493881 -0.259600 -0.381108 0.025815 -0.733741 -0.273320 -0.144652 0.621375 0.281342 -0.011635 0.499878 0.473860 0.496637 -0.605890 1.009826 -0.572407 0.011833 0.278434 0.301771 0.935018 -0.500955 0.021255 0.133384 0.723039 0.190933 -0.376798 -0.406613 0.943281 -0.549286 -0.607788
box -0.483855 0.899155 -0.401087 -0.698249 0.365363 0.575616 0.327055 -0.203778 0.438793 -0.137665 0.293328 -0.787153 -0.074563 0.776458 -1.155193 -1.674260 -0.122095 -0.798273 0.147496 1.609512 -0.358174 -0.115818 -0.391890 -0.910290 -0.395251 1.028906 0.124898 0.387214 -0.936390 0.116246 0.181242 0.493852 -0.012027 0.396548 0.310550 -0.202213 -0.622339 -0.212590 -0.752925 0.301140 0.774366 0.114635 0.165985 0.466790 -0.135980 0.724120 -0.361662 -0.501236 -0.622731 -0.190856
